nep4 3 C N B 
cutoff 8 4 438 61
n_max 8 6
basis_size 12 12
l_max 4 2 0
ANN 50 0
  1.6557025e+00
 -5.2662663e+00
  1.2666898e-02
 -6.6244113e-01
  7.2490072e-01
  9.2569612e-02
 -1.9106571e-02
 -1.4549710e-01
 -1.5406557e+00
 -2.4056369e-01
  2.1457481e+00
  1.6162738e-01
 -5.0267160e-02
  4.7567185e-02
  8.3038226e-02
  5.8070856e-01
  1.1010094e-01
  1.5574518e+00
  1.4786206e-03
  5.8889608e+00
  1.3842629e-03
 -3.5637204e-02
  2.5587067e-01
  6.9014356e-02
  2.7031503e+00
 -9.4034616e-04
 -8.3564681e-01
 -7.5925663e-02
  1.1011334e-01
 -1.2991985e+00
 -2.3235893e-02
  3.8642347e+00
 -2.3144376e-01
  5.0374240e-01
 -7.0881383e-03
  6.1788961e-02
  3.7654951e-02
 -1.8442744e-02
 -4.4187522e-01
  9.3420118e-02
 -3.9539951e-01
  4.2582783e-01
  2.5788974e-03
 -5.3639363e-02
  3.7304521e+00
 -2.3758869e+00
  1.4925866e-02
 -2.4034688e+00
 -5.4842670e-02
  3.7294561e-01
 -2.1729436e+00
  5.6199573e-02
 -3.1760365e-01
  7.9570383e-02
 -8.3102867e-02
  2.3261105e-01
  8.4461816e-02
  3.3626032e-01
 -7.8368187e-01
 -1.2866701e-03
  1.6841555e-02
  1.4205670e-01
  2.5904085e-02
  6.2621586e-02
  2.5463805e+00
 -2.3595316e-02
  1.6744916e+00
 -4.6498957e-03
  6.9438982e-01
  3.1653529e-01
  2.6810915e+00
 -3.3283401e-02
 -6.9235399e-02
  3.1602407e-01
 -2.4750773e-03
  5.0381219e-01
  3.3770446e-02
  2.3187699e+00
  8.3405152e-02
 -4.8112035e-02
 -2.1922529e-02
 -7.0150988e-03
 -5.7320282e-02
  6.0696274e-02
 -3.1455170e-02
 -4.0093735e-02
  4.2316586e-02
  2.3100678e-02
 -4.0799189e+00
  7.5742137e-03
 -4.3532345e-01
 -7.7595735e-01
 -7.6502658e-02
  3.9162803e-03
 -2.0192518e+00
  2.5883710e-02
  5.1880628e-01
 -2.1095654e-02
  6.2472004e-01
  2.8745353e+00
 -2.8539138e+00
 -1.1849653e+00
 -7.0180021e-02
  4.7278879e-03
 -3.7368080e-01
 -1.7558988e+00
 -8.8716692e-01
 -3.0707734e+00
  5.9803762e-02
  1.7882116e-02
 -1.8023032e-01
  4.0995651e-03
  1.9396509e-01
  2.5789946e-01
  2.5564861e+00
 -2.0212071e+00
 -2.6670560e-01
 -8.5334772e-01
  2.6350666e-03
 -2.3457544e-01
  1.7910997e+00
 -4.4669223e+00
  2.2639406e-03
  1.3401955e-02
 -1.4435352e+00
 -1.1158109e-02
  7.3348850e-02
 -1.0168108e-01
 -1.2944033e+00
  7.9476088e-02
 -1.9026294e-02
 -6.1650351e-03
  1.3181542e+00
  2.9354538e-03
 -6.5909825e-02
 -1.5158434e-01
  6.4162278e-01
 -1.0169388e-01
 -1.0284004e+00
  4.0511262e-02
  5.1502615e-02
 -2.0775557e-02
  6.3246377e-02
  5.0906968e-01
  1.7366700e-01
  1.3133863e-01
 -5.7054751e-02
  7.2953828e-02
 -1.0747927e-02
 -2.8323424e-03
  1.4712432e-02
 -2.0801499e-02
 -4.7222015e-02
  1.1422620e-01
  1.7338222e-01
 -1.3958542e-02
  9.5361829e-02
  4.0771671e-02
 -1.9209665e-01
  8.4451205e-01
  2.5328612e-01
 -2.7342322e-01
  1.0349485e-01
 -1.0256661e-01
  8.6877011e-02
 -4.3805975e-02
  7.9104125e-02
  5.0495868e-03
  6.7987330e-02
  7.8511804e-02
  6.7378961e-02
  1.7757976e-01
  2.3658112e-02
 -1.4163069e-01
  2.8960209e-03
  1.6487035e-01
 -6.7918617e-01
 -2.5856504e+00
 -3.0018978e-02
 -8.4968489e-01
 -2.1393551e-01
 -1.0481449e+00
  1.2670152e-01
  8.4431291e-01
 -2.3391492e+00
 -1.4781944e+00
 -1.0945040e-02
  3.9528218e-01
  2.6543677e+00
  8.8512897e-01
 -1.9223394e+00
 -3.1383309e-01
  8.5793847e-01
  4.5517478e+00
  1.6513822e+00
  4.3728619e+00
 -2.4806666e-01
 -2.5237296e+00
 -4.8210583e+00
 -3.4254158e+00
 -1.2625375e+00
 -2.1733963e+00
  5.7230157e-01
  1.6928730e+00
 -2.3370886e+00
 -2.5222685e+00
 -9.0364471e-02
 -1.2728847e+00
 -1.7208588e-01
 -8.7084222e-01
  2.2225659e+00
 -2.6824117e+00
  5.5087943e-02
  1.8866565e-02
 -7.4393362e-02
 -3.3818170e-01
  5.0282516e+00
 -1.7245061e+00
  9.3328506e-02
  2.6472290e+00
  1.5356469e-01
 -6.4023209e+00
  2.1980000e+00
  3.4901259e+00
 -2.4480221e+00
  2.4383817e+00
 -1.3667419e+00
 -3.7559822e-02
  3.7703550e+00
 -7.2634956e-03
  5.2013731e-01
 -4.2620465e-01
 -3.1793344e-01
  7.7773529e-01
 -5.6531167e-01
  1.9230205e+00
 -5.7033282e-02
 -4.3228951e-01
  3.7092483e-01
  1.3495725e+00
  4.8577103e-01
  9.6936211e-02
  9.3378472e-01
 -2.7673426e-01
  4.4193506e-02
 -6.2746632e-01
  1.4542786e+00
  1.2433238e-01
 -1.0816426e+00
 -2.4761727e+00
  3.4763854e-02
  2.0473571e-01
  2.2034045e-02
  4.5623526e-01
  1.1376072e+00
 -9.2488265e-01
  1.2556331e+00
  1.8555924e+00
  2.4647154e-02
 -1.1618097e-01
 -9.3814759e-03
 -9.2576277e-01
  1.2829200e-02
  3.1181976e-02
 -1.6465057e+00
  3.6872020e-01
  1.6355854e-02
 -1.8640339e+00
  3.6904287e-01
  5.8078704e+00
  4.7966309e+00
 -1.1190211e-01
  1.2856195e+00
  7.1008101e-02
  1.6540721e-02
  1.0160912e+00
 -3.3298609e-01
  2.2763181e+00
 -1.8121052e-03
  2.4247070e-01
  4.0458079e-02
  1.2041231e+00
 -2.5185533e-02
 -8.8291651e-01
 -4.5526168e-01
 -6.6663370e-02
 -5.2604351e+00
  1.5969466e+00
 -2.3323519e+00
  1.5001500e-01
 -1.4040011e+00
 -1.7542592e+00
  2.5528482e-01
  5.9953957e+00
 -5.6922473e-02
 -1.1164567e+00
  1.2882589e-01
  3.4225924e+00
 -1.7079398e-01
  3.8201216e-01
 -2.3852177e+00
 -1.2348045e-01
 -5.8808941e-03
  1.8964101e-01
  4.3604966e-02
  4.3286419e-01
 -3.0409757e-02
 -5.8338102e-02
 -8.7898707e-01
  5.6553423e-01
  4.0967971e-01
 -1.7548103e+00
  2.8300297e+00
 -1.3091187e+00
 -8.3843462e-02
  7.5547415e-01
  2.4263468e+00
 -2.9275936e-01
 -1.5154430e+00
  3.2092261e+00
 -6.9272250e-01
 -3.1820028e+00
 -1.1817688e+00
  5.4813390e+00
  1.5881266e-02
  4.6232146e-01
  2.7165678e+00
 -4.5136580e+00
  3.7689688e+00
 -2.3918089e-02
  3.0788216e-01
 -7.9546571e-01
 -3.8293180e+00
 -2.2043058e-01
 -8.5404468e-01
  5.2865160e-01
  1.6825962e+00
  5.4910698e+00
  1.6920125e-01
  6.7337668e-03
 -2.1629860e-01
  1.7959497e+00
  3.9310551e+00
 -1.7562771e+00
 -5.6848025e-01
  6.9429995e-03
  1.4272649e-02
 -5.7075128e-02
  1.3878238e-01
 -2.5158629e+00
 -2.6865384e-02
 -1.8000757e-02
  1.8618356e+00
 -1.2341402e+00
 -1.0248375e-01
  4.4688272e+00
  5.2494484e-01
  7.8714716e-01
  6.9739074e-01
  7.8067583e-01
  2.4538414e-01
  3.6609671e-01
 -2.8921238e-01
  7.5609082e-01
 -3.7642138e+00
  2.8143531e-02
  1.0973634e-04
 -2.0464654e+00
 -3.9136503e-02
 -4.2128482e+00
 -2.7991530e-01
 -1.1563396e+00
 -1.7115098e+00
 -4.6363488e-01
  1.2217554e+00
 -1.2421998e+00
  4.4754291e+00
 -4.9435741e-01
 -2.5731897e+00
  5.8492808e+00
  1.7461477e-02
  3.6492436e+00
 -7.9447582e-02
 -2.6040275e-02
  3.3223513e-01
  1.5291625e-01
 -1.0380342e+00
 -1.5131791e+00
 -1.4609567e+00
  1.1599956e+00
 -2.9251806e-02
  1.4459155e-03
  1.7150335e+00
 -5.9011940e-02
 -6.1395336e-02
 -1.8884771e-02
  3.0635574e-01
 -3.0971086e+00
  1.1804413e+00
 -5.8090472e-01
  5.7847744e-01
 -1.4082738e+00
  1.1389208e+00
  9.9416304e-01
  1.3236825e+00
  1.3707160e+00
 -1.1723055e+00
 -3.6354440e-01
 -3.9480236e+00
  4.1027267e-02
 -1.0744355e+00
 -5.5765063e-01
  3.5564392e+00
 -6.3276868e+00
  3.1089908e-01
 -1.0267030e+01
 -1.4716002e+00
  2.1445799e+00
  5.9612088e+00
  2.3950434e+00
  1.5630957e-01
 -3.1505923e+00
 -8.8171625e-01
  2.6377726e+00
 -2.9535094e-01
  1.3348067e+00
  1.4471016e+00
  2.1689584e+00
  2.0947255e-01
  1.4853071e+00
 -5.5014944e-01
  2.9226570e+00
 -8.3649576e-01
 -6.1530989e-01
  2.5792608e-01
 -1.6257364e+00
  3.4568999e+00
 -2.1118653e+00
  7.9198390e-02
  2.1599331e+00
 -2.9445907e-02
  2.5734994e-01
 -9.3786977e-02
 -1.6870651e-02
  7.4337460e-03
 -7.7453390e-02
  1.4605348e+00
  5.5631660e-03
 -7.3411344e-03
  3.6560975e-02
  1.7831970e-02
 -1.4530839e-01
  2.0089690e-02
 -3.6399409e-01
 -4.1767858e-02
  3.0945504e+00
  3.9914437e-02
  1.3227031e-01
 -7.9113897e-04
 -1.1691516e-01
  2.7050711e-02
 -1.0766067e-01
  9.1802046e-02
 -2.8750340e-02
  8.7467201e-02
 -1.3692050e-01
 -5.3257510e-02
 -2.2796452e-02
 -1.9345464e-01
 -1.3926482e-01
  2.5922429e-02
 -1.7985803e-01
 -3.0073717e-02
  1.0378052e-02
 -1.9976968e-02
 -2.1783600e-02
  1.2148653e+00
 -5.2877869e-03
  4.4311874e-02
  5.1530753e-03
  3.8355604e-02
 -1.9688334e-02
  8.2989879e-02
  2.2128496e-02
  3.6007169e-01
 -1.0358680e-02
  2.4000455e-01
 -3.1000965e+00
  6.6697747e-02
 -5.4408550e-02
 -4.0255475e-01
  7.8862852e-01
  9.2168730e-03
 -3.6796072e-01
 -1.7651187e+00
 -2.6628546e-02
 -5.3805556e+00
  4.3252149e-01
  8.3834642e-01
 -1.3564342e-01
  2.4400605e-02
  1.4722443e-01
 -1.8314721e-02
  1.0630395e-01
 -3.4347299e-01
  2.3354022e-01
 -1.1990685e+00
 -1.5809975e+00
 -4.3881822e+00
 -1.1089847e+00
  5.8758826e+00
 -7.1067858e-01
  1.5428946e+00
  2.5665921e-01
 -3.6029696e-02
  8.2150072e-01
  9.5419241e-03
  7.4056900e-01
  5.0329828e-01
  1.0275971e-02
 -3.1530043e-01
 -3.3382744e-02
 -9.9132979e-01
  5.4907613e-02
  5.4222241e-02
 -1.2760560e-01
 -4.3756008e-02
 -1.8455572e-01
  2.8143528e+00
  2.0933425e+00
 -1.4304613e-01
  6.7771730e+00
 -1.8182722e+00
 -4.4939923e+00
 -5.1916862e-01
 -1.4766232e+00
  2.0403006e+00
  3.9083505e-01
 -1.1043580e+00
  6.5008748e-01
 -2.2404757e+00
  1.1657283e-01
  1.8229084e-02
 -2.6402605e-01
 -1.7254949e-01
 -2.2066329e+00
  3.4278529e-03
 -2.9497623e+00
 -4.5369607e-01
 -2.7970599e-02
  6.0593147e+00
 -2.0233585e-01
  5.7590848e-01
  9.8300345e-02
 -1.0862325e+00
  7.0874614e-01
 -2.6976696e-01
  2.1105943e+00
  7.3607750e-02
 -1.1822085e+00
  3.2038936e-01
 -2.7051322e+00
  1.5742040e+00
 -2.8854319e-01
  2.1182783e+00
 -1.0257129e-01
 -7.9988337e-01
  8.6867008e-03
 -5.8888094e-03
 -3.0968606e-02
 -2.6400843e+00
  2.6904848e+00
 -1.0999966e+00
  2.8447244e-01
 -4.7710072e-03
 -2.1918759e-02
  3.1831481e-02
 -5.4908615e-01
  9.8732434e-02
 -2.1254219e-01
  5.9101440e-02
 -4.9860189e-03
 -8.0065550e-03
 -8.2542509e-02
 -1.2554018e+00
 -2.4501991e-02
  1.9292280e-01
  8.6989927e-01
  4.1371118e-02
  2.4099638e-01
  4.7720349e-01
 -1.1765137e-01
 -3.9065015e-03
 -2.2018807e-01
 -3.3728406e-02
 -2.8146412e-02
  2.4526869e-03
  3.9955094e-03
  2.1079848e+00
  9.9789715e-01
 -2.2811884e-01
  4.0996805e-01
  1.5961576e-01
 -8.5208286e-03
  3.3165980e-03
 -5.2394222e-02
 -2.6280683e-02
 -7.7015728e-02
 -8.1646293e-03
 -1.6642760e-02
 -1.4744455e-01
  3.0172404e-02
  7.4498110e-02
  4.9599595e-02
 -2.1381766e-01
  3.7473101e-02
  4.5970705e-01
 -1.3563848e-01
  1.2817915e-02
 -4.0703486e-03
 -1.9303234e-02
 -1.5126566e-02
  1.8963336e+00
 -1.0453124e-01
 -3.7514837e-05
 -5.9902960e-01
  7.4041885e-01
  1.5625128e-01
  6.3483620e+00
  1.0643189e-01
 -2.2556707e-02
 -2.5417867e-01
  2.1674439e-02
  3.0459372e-02
  2.4764358e-01
 -1.3919427e+00
  7.8382285e-04
 -1.0272531e-02
 -3.9542252e-01
 -1.1386455e-01
 -4.0499353e+00
 -4.4736482e-02
 -6.2158976e+00
  1.2895091e+00
  2.5569391e-01
 -2.2560964e+00
  3.1045016e-02
 -7.3366672e-01
  1.8353070e-04
 -2.4986551e+00
 -9.5161475e-02
  2.3275353e-02
  8.5524178e-01
 -5.3871885e-02
 -5.5100895e-02
 -9.9185780e-02
 -3.7302393e-02
  6.6062726e-02
 -4.5459580e-02
 -1.7204502e+00
 -5.2063737e+00
  9.5431787e-01
 -1.2641828e+00
 -3.3358309e+00
  1.0970492e-02
 -3.7865114e-01
 -2.3824625e+00
 -6.4462572e-01
  2.0556343e+00
  4.0718359e-01
  3.5141787e-01
 -5.3439081e-01
 -2.6316898e+00
  2.4738093e-01
  8.8289054e-03
  4.1796491e-01
  2.4445193e-01
  1.2737899e+00
  5.8540143e-02
 -7.9847336e-01
 -1.5986693e+00
 -5.2577447e-02
 -1.0709357e-01
 -7.1087942e-02
  7.9304761e-01
  8.2055837e-02
 -1.0115818e+00
 -1.4095004e+00
  7.9970640e-01
  4.3106561e+00
  1.0610742e-01
  5.6581330e-01
  8.0066395e-01
 -3.5525353e+00
 -1.8027787e-01
 -1.0258617e-02
  1.8665828e+00
  1.7556790e-02
 -1.0865740e-04
 -8.2534665e-01
 -4.4659597e-01
  1.9145178e+00
  1.1476685e-02
  1.0030069e+00
  5.3083256e-02
 -3.2511730e-02
 -1.3707271e-02
  8.8857906e-04
 -1.7778736e-02
  1.5960796e-02
 -2.5065325e-02
 -7.0230536e-02
  1.0605222e-01
  2.4303382e-02
 -8.3451241e-02
  6.2558100e-02
 -6.8434267e-03
 -7.8887334e-03
  3.9744336e-02
  1.7182152e-03
  2.9954333e-03
 -6.3819326e-02
  4.1065760e-02
  9.3024418e-02
  1.6309324e-01
 -6.8825528e-02
  6.1631757e-03
  1.5181539e-02
 -2.2701439e-02
 -1.0670673e-01
 -4.0100783e-02
  2.5326574e-02
  4.9901590e-02
 -3.6194555e-02
 -1.7729564e-02
 -1.1979704e-01
  1.7928720e-02
 -1.9281272e-02
 -1.4772599e-03
 -5.8246087e-02
  9.3630049e-04
 -1.0066187e-02
  7.4124828e-02
 -2.4899317e-01
  8.1228614e-03
  1.2795106e-01
 -6.1014820e-02
  1.7775922e+00
 -2.7560338e-01
 -1.5160854e+00
 -2.4658073e-01
 -7.5213364e-03
 -2.0088830e+00
 -7.0436966e-01
 -4.8348755e-01
  1.7596849e+00
 -2.4036407e+00
  6.0685939e-01
  1.6238352e+00
 -4.2564821e+00
 -2.4392474e+00
  4.6042973e-01
 -1.3607764e-01
  1.0086956e+00
  2.1557430e-02
  4.3697991e+00
 -2.0318418e+00
  4.2921281e+00
 -6.3118148e+00
 -1.7088607e-01
 -5.7347059e+00
  1.7257997e-01
  7.0086250e+00
  6.1411107e-01
 -2.2910719e+00
  9.1528940e-01
  9.7678864e-01
 -7.6792693e-01
 -1.2636176e+00
  2.1159296e+00
  5.5153710e-01
 -1.4888842e+00
  3.4045558e+00
 -2.0608072e-01
 -1.8570628e+00
  5.8332194e-02
 -9.9793071e-01
  2.1444261e-02
  4.3957882e+00
  4.0872450e+00
 -7.9316586e-02
 -1.8113503e+00
 -4.4052113e-02
  1.6625207e-02
 -1.2901220e-01
  1.5458301e-02
  1.6959625e-01
 -5.9481394e-02
  2.9892456e-02
 -2.2655413e-02
  4.2562269e-02
 -4.2230174e-02
 -4.9503725e-02
 -4.8992332e-02
  2.2565816e-02
  3.5980318e-02
 -4.8846431e-02
 -1.7118242e-02
 -7.6464683e-02
 -5.1203728e-02
  5.9001081e-02
 -3.8405526e-03
  3.9707172e-01
 -4.7699772e-03
  1.2206139e-02
 -1.0815125e-02
  1.3578665e-02
  6.0759105e-02
  3.1904362e-02
 -1.3964915e-01
 -2.2439788e-01
 -3.9851326e-02
  4.2592335e-02
 -5.2808125e-02
 -8.5636176e-02
  3.2883838e-02
  4.7126312e-02
  5.5867545e-03
  8.5323248e-03
  2.9031301e-02
  1.9599688e-01
 -4.9058609e-02
  1.4756352e-01
  7.0727162e-02
 -5.5499151e-03
 -5.8778964e-02
 -5.1982075e-01
 -9.3780555e-02
  1.3933940e-02
 -5.8338493e-03
  7.6904923e-02
  4.6176560e-02
 -1.9914797e-02
 -1.7319441e-02
 -3.2162495e-02
  5.5279625e-03
 -1.9036379e-02
  1.2899294e-01
  1.7493346e-01
  1.4663619e-01
 -6.6628143e-02
  3.4075834e-02
 -6.9092633e-03
  1.1318536e-02
 -7.5486399e-02
 -1.5478041e-03
  1.5315901e-02
 -2.5881156e-02
 -4.7611736e-02
 -1.2601081e-02
  1.7960271e-02
 -8.0577292e-02
 -1.0318138e-01
 -5.7565592e-02
  2.9184561e+00
 -1.0338577e-01
  4.5967177e-02
 -1.0122499e-01
 -7.9200335e-02
  7.0744269e-02
 -8.8511549e-02
  1.6853267e-02
 -4.7184795e-02
 -9.8975226e-02
  4.5809429e-07
  4.8976302e-02
  2.5379378e-01
 -1.2022205e-02
  3.6656514e-02
 -3.8243094e-03
  4.3070227e-01
  1.4376184e-01
  1.5359772e+00
 -3.8397557e-01
 -2.1380819e-01
 -3.3658483e+00
  1.8993096e+00
  1.2530312e-01
 -4.2850027e+00
  1.5804552e+00
 -1.4667240e+00
  2.2503346e-01
 -9.0618640e-01
 -2.7054520e-03
 -2.4744982e-02
  1.3303789e+00
  3.7137873e-02
  3.2516453e-02
  6.8217970e-02
  2.2715402e+00
 -1.3588052e-02
  3.4547365e+00
  9.1169634e+00
  1.2755996e+00
  1.5915171e+00
  5.8467770e-03
  3.2774751e+00
  1.8918836e+00
 -1.8060455e-01
  1.9527074e-02
  7.9943627e-02
  1.5034705e+00
  7.1246274e-02
  1.2580398e-01
  2.4846646e-01
  4.3577390e+00
  2.2976003e+00
  3.1681541e-02
 -1.1479308e-01
 -2.7765248e-02
  1.8507992e+00
 -3.7749276e-02
  1.3435761e-02
  4.3789458e-01
  1.8438070e+00
  2.3905300e-01
  1.6783069e-01
  8.8746500e-01
  1.7321153e-02
 -8.9384240e-01
 -2.9116932e-02
 -1.1768147e+00
 -4.6601799e-01
 -1.7407564e+00
 -4.1667391e-02
 -7.9658560e-02
 -5.1380720e+00
  1.0360145e-01
  2.6491308e-01
  1.1788161e+00
 -7.5502265e-03
 -1.3193783e+00
 -3.0880727e-02
 -1.8326539e+00
 -1.4533976e-01
  4.3254305e-02
 -5.5532348e-01
 -1.7420810e+00
  2.8521365e-01
 -5.6763798e-01
  3.2594037e+00
 -7.8289092e-01
  2.6267018e+00
  5.8824641e-01
 -8.2033299e-02
 -1.0008603e+00
 -6.5038674e-02
 -1.8191387e-01
  1.5767846e-01
 -1.4136008e+00
 -6.2922798e-02
 -1.0077392e-01
 -5.1814878e-01
  3.4760475e-02
 -1.4524162e-02
 -6.0650213e-03
  5.1420536e-02
 -7.6462820e-02
 -2.7105662e-01
  1.6227850e-01
 -1.9853886e-02
 -1.0011157e+00
 -1.6935566e-02
  1.5637593e-02
  7.5871274e-03
  7.3257326e-03
  1.2607128e-02
  5.1675463e-01
  8.7106161e-02
 -3.3026859e-02
 -2.3086420e-01
  2.2279885e-02
  4.5529272e-02
  8.6023388e-03
  5.6610722e-03
  6.9280937e-02
  3.0770306e-02
  6.6457652e-02
  7.3191719e-03
  1.3520661e-02
  1.0200518e-01
 -1.5852413e-01
  3.4639690e-02
 -2.5291752e-02
 -6.6247500e-02
 -1.0301755e-01
  4.6078473e-02
 -9.1114938e-02
  3.4421317e-02
  2.3508500e-01
 -7.3349237e-02
  5.9061176e-01
  6.8375699e-02
  7.4614547e-02
 -4.2009246e-02
  2.5173616e-02
  8.9696823e-03
 -6.7100562e-02
 -5.3227760e-02
 -4.0936791e-03
  5.9029628e-03
  1.5288116e-01
  4.1914704e-01
  4.7654870e-01
  4.6688578e-01
  5.6484586e-01
  6.5021944e-01
 -3.1311202e+00
 -2.1673634e+00
  8.9218420e-01
 -1.2689763e+00
 -7.2452806e-02
  2.0811658e+00
 -1.0349619e+00
 -5.2975702e-01
  2.6080358e+00
 -7.6733127e-02
 -1.8546056e+00
  1.3274727e+00
  2.0105245e+00
  1.9400679e-02
  6.3561792e+00
 -7.5285658e-02
 -2.4355538e-01
  8.5751720e-02
  2.2173956e-01
  2.0502322e+00
  4.8969638e-02
  2.6275473e+00
  2.1191709e+00
 -1.3617775e+00
 -1.8697430e+00
 -5.7347429e-01
 -4.6530120e-02
  1.4972638e+00
  7.3393524e-01
 -4.8203042e-01
  1.8381393e-01
 -3.2503104e+00
  7.9480849e-02
 -1.3237725e-01
 -2.1132391e-02
 -8.6919159e-02
  1.9049640e-01
  3.7494469e-03
  2.0003395e-01
 -2.2461845e-01
 -3.8565776e+00
  5.5984390e-01
  2.8643209e-01
  3.9962816e-01
 -9.7619295e-03
  1.0125701e+00
  1.0917351e+00
  9.1165441e-01
 -1.5769234e-02
 -1.1382719e+00
  4.0446919e-01
 -1.2172143e+00
  2.6273006e-01
 -2.9728474e-02
 -7.7536263e-02
  3.1571600e+00
 -1.3750543e-01
  1.3569555e+00
  7.6617944e-01
  2.1737432e-02
 -9.6829057e-02
 -1.5947631e-01
 -2.1517472e+00
  1.0043546e-01
  3.2674542e-01
  1.9052339e+00
 -1.8712965e+00
  9.5181510e-02
 -3.4547150e+00
  2.5804009e+00
  1.8804091e+00
 -1.3001549e+00
 -7.5914532e-01
  5.9762739e-02
 -5.2548373e-01
  3.3445165e-02
 -1.9894156e-01
 -1.2598537e+00
 -2.9285941e-01
 -2.2508109e+00
  2.0022213e+00
 -1.2413397e-02
 -1.6828759e-02
 -1.5481187e+00
  2.9784080e-01
 -1.6564975e-02
 -2.9956112e+00
 -3.5236925e-01
 -3.8385695e-01
  2.0525892e+00
  2.5035310e-01
  3.4236860e-01
 -1.7669501e+00
 -3.2746497e-01
  1.1761727e+00
  1.2873262e-01
  2.4688901e-01
  5.7381594e-01
 -1.5586085e-02
 -1.2552860e-03
  1.2825622e-01
  1.0335320e+00
  1.9568048e+00
  1.9589625e-01
 -3.1701827e-01
 -1.7141764e+00
  2.2544929e-01
 -1.9600090e+00
  1.3685422e+00
 -1.9668967e+00
  1.8189032e+00
 -1.9755287e+00
 -1.3155210e+00
 -4.0087509e-01
 -3.8174488e-02
 -4.7291698e+00
 -1.7698698e+00
 -1.8567705e+00
 -2.0449863e-01
  3.0524182e-01
 -3.1007078e-01
  5.4618752e-01
 -3.4624061e-01
 -1.4782384e-01
 -2.6125851e+00
  2.6119372e-01
  9.8238260e-02
 -1.4334224e+00
  5.9708345e-01
 -7.7636987e-01
 -1.3694303e+00
 -8.0577588e-01
 -1.0089893e+00
 -1.1015851e+00
 -3.4946669e-02
 -1.2903150e+00
  2.6193280e+00
 -3.6848781e-01
 -1.8002781e-03
  1.1641014e-01
  8.8919288e-01
 -1.6476535e+00
 -2.1629556e-01
  4.5987320e+00
 -2.0955420e+00
  9.3294263e-01
 -1.6368396e+00
 -1.1031733e+00
 -3.3271463e+00
 -5.4349351e-01
  3.2472172e+00
 -3.0437932e+00
  1.3711077e+00
 -5.2607007e-02
  9.9056251e-02
  1.2988808e+00
 -1.2399113e+00
 -6.0220617e-01
 -2.6379886e+00
  7.5261235e-01
  5.8348346e-01
  2.2109506e+00
 -2.0650892e-01
 -4.3901920e+00
  3.0935703e-02
 -1.3453463e+00
 -1.3993610e+00
 -3.3274839e+00
 -1.9712753e+00
  1.0780769e-01
  4.3021011e-01
 -2.5407512e+00
  1.4231321e+00
  1.2791752e+00
 -8.9665341e-01
  1.1958106e+00
  1.6342759e-01
 -1.6128000e+00
  5.9695590e-01
  8.9284694e-01
  2.8946295e+00
  1.8620646e-01
  4.5467898e-01
  1.9937495e+00
 -1.7675364e-01
  5.9253079e-01
 -1.4094478e+00
 -8.3472258e-01
  9.4813156e-01
 -3.3851428e+00
 -1.4002206e+00
 -3.5437059e+00
 -7.6790619e-01
 -3.2602495e-01
  3.6883810e-01
  1.9251990e+00
 -2.1412678e+00
 -2.1836333e+00
  7.4337941e-01
 -1.3315074e+00
  8.9787835e-01
 -1.3721364e+00
  1.4250616e+00
 -4.7916076e-01
  3.9081493e-01
 -5.3579080e-01
 -7.2942907e-01
  4.8096150e-02
  1.8885983e-03
  1.2491875e+00
  3.1639382e-01
 -4.6307835e-01
  4.7185159e+00
  8.7287977e-02
 -9.1557965e-02
  6.9565421e-01
  2.6553284e-02
  2.5367122e-02
  3.7832393e-03
  9.2622144e-03
  7.8962155e-02
  4.4878693e-03
 -5.7199178e-03
  4.8792742e-02
 -9.4845705e-03
 -3.4796640e-02
 -3.3794750e-02
 -1.5483873e+00
  1.3924523e-02
 -6.2954135e-02
  6.0091194e-02
  5.3671625e-02
 -9.2685528e-02
  2.1207299e-02
  2.3409650e-02
  3.1539652e-02
  1.7960232e-02
 -4.0871855e-02
  4.4877913e-02
  6.8335168e-02
  1.6696310e-02
  1.0770302e-01
  2.9970653e-02
  1.5467161e-02
  1.6727304e-01
 -1.2244283e-02
 -5.8203824e-02
  1.2553027e-01
  5.2308213e-02
 -1.7025011e-02
  2.5952186e-02
 -1.5764201e-01
  5.7474766e-02
 -1.1951495e-01
 -4.1154767e-03
  1.0959394e-01
  4.2514291e-02
  7.8722477e-02
  1.4033651e-01
 -2.5212982e+00
  4.7446446e+00
  3.3583395e-02
  4.9242768e+00
 -3.5530168e-01
  3.5267571e-01
  1.6644239e+00
 -5.5678613e-03
  1.5686683e-01
  5.3407952e-02
 -6.9758016e-01
 -8.2440221e-01
 -1.4555748e+00
 -2.0084386e-01
  3.7495175e-01
 -1.1393065e-02
 -3.6378227e-02
 -1.7139341e-01
 -4.7761347e-02
 -7.4448697e-02
  7.5760759e-02
  1.6776571e-01
 -5.9117377e-02
 -3.8178369e-02
 -5.6860113e-01
 -2.7590612e-02
  9.4301969e-02
 -6.5509242e-01
  3.1475469e-02
 -1.3429682e+00
 -7.8884639e-02
  3.4979624e-01
 -7.5589843e-02
 -1.6976315e-01
  1.4382450e-02
 -8.5649945e-02
 -1.5974568e-01
 -1.2786191e-02
  2.6274053e-02
  2.9840890e-01
  7.5460926e-02
  2.1578826e-01
 -1.0215083e-02
 -3.6800642e-02
 -1.0616498e+00
  8.6386752e-01
  8.8822651e-01
  3.7899157e-01
 -2.5400130e-02
 -4.3435803e-01
 -4.4584683e-01
 -1.5200815e+00
 -3.6556716e+00
 -6.7380464e-01
  2.2557627e-01
  1.7010920e+00
 -4.0910763e-01
 -4.1469315e-01
  3.3397949e+00
 -2.5795450e+00
  6.7776322e-02
  1.1682500e-01
  1.6858622e+00
  1.3673939e-01
 -2.4919450e-01
 -4.5552632e-01
 -1.4788631e+00
 -1.8323852e-01
  1.3868372e+00
 -2.1867962e+00
 -4.7962360e+00
  2.1883478e+00
  1.7853059e+00
 -1.5082803e+00
  4.1431460e-01
 -4.4462836e-01
  9.4561040e-01
 -1.4370061e-01
  1.3184340e+00
 -2.4745384e-01
 -1.0106864e+00
 -1.0497330e-01
 -4.9194327e-01
  9.0613551e-03
  8.0846334e-01
 -4.0204410e-02
  3.2281210e+00
 -5.8794266e-01
  9.8931891e-01
 -1.1385679e+00
 -9.3232858e-01
  2.3771713e+00
 -1.0378840e+00
 -4.2317641e-01
 -4.6023780e-01
 -7.0129964e-03
 -5.2133054e-01
 -2.7345586e-01
 -6.7490399e-01
  8.5301667e-01
  1.5700145e+00
  1.1943562e+00
 -5.1611066e-01
 -3.9321104e-01
  1.7152099e-02
  3.2150273e+00
  6.9298351e-01
 -6.9458449e-01
 -1.3562495e-01
 -2.8030810e+00
  1.2906280e+00
  3.9620543e+00
 -2.6180258e+00
  2.5569139e+00
 -1.2283903e+00
 -2.5785103e+00
 -3.1524205e+00
 -1.3728515e+00
 -2.0664045e-01
  2.5029442e+00
 -1.9587795e-01
 -5.1518154e-01
  2.3099363e+00
 -6.1096901e-01
  4.4372721e+00
 -3.2002542e-02
 -6.8819723e+00
  7.9607464e-02
 -6.1950171e-01
  3.7634637e+00
  2.0163376e-03
 -8.8311058e-01
 -6.6523206e-01
  7.3156223e-02
 -6.5368168e-02
 -6.2561594e-03
  9.9153399e-02
 -3.2900035e-02
  1.2274882e-02
  8.9460937e-03
  1.9759841e-02
 -2.0757951e-03
  4.9298409e-02
  1.8239433e-02
  2.4644608e-02
 -1.5838249e-02
 -4.0758539e-02
 -1.2143834e-01
 -1.5551676e-01
  2.0964298e-02
 -1.8073870e-01
  1.1267796e+00
  1.3573905e-03
  1.5536927e-01
 -4.4065047e-02
 -1.6674684e-02
 -3.0530654e-02
  8.5312061e-02
  5.4571766e-01
  5.4911502e-02
  1.5717905e-02
 -6.9658810e-01
 -6.2480490e-03
 -9.0746790e-02
 -8.1944345e-03
 -1.3370037e-02
 -4.7851190e-02
 -4.6596613e-02
 -4.3333801e-03
  8.7582156e-02
 -6.3521652e-03
 -9.8830722e-03
  2.2500086e+00
 -1.0294222e-01
  1.0420576e-01
  1.7707132e-02
  2.1746533e+00
 -1.2032378e+00
 -8.9102519e-01
 -2.8727484e-01
  5.4316086e-01
  2.9754497e-02
 -8.3504446e-02
 -1.1674535e+00
 -5.9196906e+00
  6.0100302e-02
  6.9222890e-02
 -1.1079316e+00
 -5.9975344e-01
  1.1107548e+00
 -3.1265745e-01
  2.1762502e-01
  4.4380642e-02
 -4.6146049e+00
 -9.2717238e-02
 -2.7651763e-01
 -1.8437767e+00
  1.3141271e-01
  1.5830644e+00
 -8.6559601e-02
  3.3622701e+00
 -2.2137053e-01
 -5.7672566e-01
  4.1612205e-01
 -1.8748809e+00
 -1.8220164e+00
 -2.4471125e-02
 -1.6371796e+00
 -8.6801350e-01
  1.4005448e+00
 -1.4910735e+00
 -1.5065175e+00
 -5.6544733e-01
 -5.3073554e-03
 -1.6688970e+00
  2.5197972e-02
 -1.4048845e+00
  1.6405226e+00
 -1.3939148e-01
  2.6175678e-01
 -1.0218415e+00
 -1.2456912e+00
 -2.5546998e-02
  3.7057137e+00
  1.8869492e+00
 -3.1079207e-02
  2.5526023e-01
  1.6524913e-02
  1.8181533e+00
  8.0662794e-02
 -6.9867331e-01
 -5.6252712e-01
  8.9951148e-03
 -1.1406531e+00
 -2.1223215e-02
 -1.7788371e-01
 -3.6312279e-01
  4.7932744e-01
  1.1114272e-01
 -1.7386625e+00
 -1.1193622e+00
 -2.9956155e-02
 -1.6687772e-01
 -5.5553854e-02
  1.3544869e-01
 -2.3976801e-01
 -2.0802007e+00
  1.4047484e+01
 -2.0444790e-01
  4.7965512e-02
  3.7101395e-02
 -9.3518406e-02
  7.5223590e-03
 -2.6564083e-01
  1.9066586e+00
  7.6967108e-01
  8.5207053e-02
 -1.4105201e-01
  2.4613561e-02
 -3.7918545e-02
  4.0029496e-02
 -1.0305315e-01
  2.0807197e-02
  2.7139735e-01
  1.5592535e+00
  5.5516038e+00
  8.8037759e-02
 -1.1472274e+00
  8.3278823e-01
 -3.9085093e+00
  2.3479357e-01
 -1.0704634e+00
 -9.8844707e-01
  1.3882972e+00
  1.4611906e+00
 -3.4940877e+00
 -8.0326470e-03
  1.8342626e-01
 -7.9384604e-03
 -3.5196158e-01
  1.7100172e-01
  2.1507716e+00
  9.3791622e-01
  4.8314777e-01
  2.6053080e-01
  4.5668575e-01
 -1.6612279e+00
  3.3394340e-01
 -7.2241753e-01
  3.6178365e-01
 -4.5391612e+00
  7.4066806e-01
  1.4444120e+00
 -3.2795713e+00
  2.0088753e-01
  1.4094701e+00
  2.0754707e-01
  1.9501368e+00
  5.3110194e-01
  1.1392788e+00
  9.7541071e-02
 -5.6192968e-03
 -5.7675876e-03
  7.2637992e-03
  7.3354132e-02
  1.8818878e-01
 -4.4646502e-02
 -1.0182997e-02
 -1.7183362e-01
 -6.5283306e-02
 -2.5998853e-02
  5.9772350e-02
  9.2359744e-02
 -8.9946404e-02
  1.2823216e-02
 -8.7135190e-01
  2.4375813e-02
  2.3900880e-03
 -4.6664919e-03
 -8.1575416e-02
  1.0375388e-01
 -9.3037255e-02
  3.8646556e-02
  1.8524065e-03
 -5.2836128e-02
  3.6764389e-01
 -9.6046992e-02
  6.0107446e-01
  4.1483782e-02
 -2.1714376e-02
 -6.5041728e-02
 -6.7938574e-02
  5.4062203e-02
  1.4222971e-01
 -4.0133330e-01
 -5.1834732e-02
 -2.0741915e-02
  4.1659343e-01
 -7.9749487e-02
 -2.2888938e-01
 -1.3135497e-01
 -2.4095902e-02
  1.4665529e-01
 -2.9398037e-02
  7.3335961e-02
  1.8882835e-02
 -7.4292518e-02
 -1.6172847e-01
  2.5053579e-02
 -3.8205184e-02
 -2.0953132e-01
 -4.8695095e-03
 -2.5902709e-01
  2.4732532e-02
 -1.6457881e+00
 -2.0716672e-01
  5.9819296e-02
  1.2944422e+00
  3.5568440e-01
  1.2423064e-01
 -5.7477057e-01
 -1.8844763e-02
  7.6787192e-01
 -1.2369547e-01
  4.2448804e-01
  2.3947857e-02
 -9.2257775e-02
  1.2488773e+00
  7.9405612e-01
  8.8889056e-01
  5.4044083e-02
  1.4614465e+00
  6.5323699e-01
  2.2104766e-02
 -9.3053989e-02
 -6.7567118e-02
  1.4432465e+00
 -3.2333407e-01
  6.1242294e-01
  1.2314101e-01
  2.4193542e-01
  4.0123448e-01
  1.7571348e-01
  6.4436871e-01
 -9.1061577e-02
 -1.1380070e-01
 -2.2458903e-02
  1.1836480e+00
  3.9756522e-02
 -1.0698400e-02
 -1.3939163e-01
  9.0340544e-03
  4.0783861e-01
  4.7383016e-01
 -8.3340891e-02
 -5.4413885e-01
 -6.3126922e-01
  1.0944641e+00
  1.2027907e+00
  1.1922846e+00
 -1.2984236e+00
  5.0632358e-01
 -1.2729291e+00
 -2.7860573e-01
  1.5858072e+00
 -1.5681729e-01
 -2.8103295e-01
 -1.8230252e+00
 -1.2697033e+00
 -5.8315575e-01
  5.5500567e-01
 -1.2105728e-01
 -3.4270430e+00
 -1.8179311e+00
 -2.0602829e+00
 -3.3791912e+00
  2.2606916e+00
 -7.7637725e+00
  3.8652986e-01
 -2.0190687e+00
 -3.6053017e-02
 -1.9099193e+00
  4.6005897e-02
 -2.1245103e+00
  3.2102138e-01
  1.6367515e+00
  7.3085882e-02
 -4.3648866e-01
  6.3724823e-02
 -3.0211109e-01
  5.3062377e+00
 -6.5199280e+00
  7.9347414e-01
  1.0275483e-02
  9.0502554e-01
  3.6802159e-03
  4.8631889e-01
 -7.8664436e+00
  6.6658556e-03
  1.6768011e+00
 -6.9283741e-03
  7.1198173e-02
 -2.9250307e-02
 -1.2352489e-01
  2.5109014e-01
 -2.3420582e-02
 -1.8955608e-01
  9.5420606e-02
  1.8845052e-02
  7.9835087e-02
 -1.2634860e-01
 -5.1428191e-02
 -3.5748687e-02
 -8.0101177e-02
  8.1604877e-03
 -2.6439648e-02
 -1.2548965e-03
 -1.1597427e-03
 -7.8787431e-02
 -1.1622735e-02
  3.5624836e-02
 -1.2306221e-01
 -1.6029771e-01
 -2.0731227e-02
  2.7275661e-02
 -3.9163253e-01
 -2.0162673e-01
  5.1768972e-03
  2.3248624e-02
  2.5443992e-02
 -1.1396186e-01
  5.9071567e-02
  5.4806545e-03
  1.8638428e-02
 -6.2439521e-04
 -1.1876865e-01
  3.3626880e-02
  8.0383733e-02
  4.8446875e-02
 -9.3968278e-03
  3.3096018e-01
 -1.4136231e-01
  4.4365235e-02
  1.5936750e-03
 -2.9856498e+00
  1.2247184e-01
 -4.9654350e-02
  1.3820593e+00
  1.3220080e+00
  1.1040285e+00
  1.0506475e+00
  5.4753948e-02
  3.9761272e-01
 -4.2934742e-02
  1.9515989e+00
  9.6542098e-02
  1.1224978e+00
 -9.1631830e-02
  3.5166142e+00
 -1.4287961e-01
 -1.0214831e-02
  2.0507047e-01
  3.8904725e-03
 -8.8528454e-02
 -2.3507364e-01
 -1.9838775e-02
  1.2882276e-01
  1.4161658e-01
  4.4650796e-01
 -1.9525783e-01
  2.3163374e-01
 -1.2553600e+00
 -4.2429633e-02
 -6.0950899e-01
 -2.2041928e-02
 -6.6370308e-01
 -5.2259004e-01
  7.0051992e-01
  4.5130569e-02
  3.4719250e-01
  4.3526155e-01
 -6.8132184e-02
  3.8449567e-02
  6.8444826e-02
 -9.5683113e-02
  6.4219818e-02
  5.6059167e-02
  6.8993517e-03
  9.0773803e-01
  6.8275750e-02
  8.7369010e-03
 -5.8762622e-01
  5.3578620e-03
 -6.3657081e-03
 -3.9882946e-01
  1.3323876e-01
 -3.8778181e+00
 -2.5787017e-01
  1.9145137e+00
  1.4611363e-01
  3.7188254e-02
 -4.6179285e-03
  7.5044900e-02
  5.1219505e-01
 -1.2775203e-03
  9.8729712e-01
  4.2402305e-02
  7.2734874e-01
  4.4676661e-02
 -1.8069707e-03
  5.0695650e-02
  6.2010128e-02
  2.4997556e+00
 -9.9397296e-01
  2.6344681e-02
 -5.5180188e-02
  1.3315172e-01
  1.6210755e-02
 -4.5205140e-01
  7.5703658e-02
 -6.9447803e-01
  2.9368184e+00
  3.2433607e-03
 -3.7427237e-03
 -1.3670785e-02
 -2.3585089e-02
  2.0423161e-02
  1.3796006e-02
 -1.0308032e-02
  7.9056658e-02
  3.7647486e-02
  1.9631879e-02
 -2.9751873e+00
  3.0371737e-01
 -1.8903467e-01
  4.2252526e-01
 -3.5480585e-02
 -2.4944121e-02
 -7.0605564e-01
  1.1694087e-02
 -2.5989511e+00
  3.1607623e+00
 -2.3467243e+00
 -2.2988197e-01
 -5.2234325e+00
 -1.2186586e+00
  7.4000739e-02
  1.7802119e-01
  8.0646165e-03
  2.0861886e+00
 -2.4642272e+00
 -1.3018782e+00
  2.8843680e-01
  5.3800039e-02
  8.9702587e+00
  3.3218472e+00
  1.2306063e+00
  3.5182235e+00
  4.0042748e+00
  3.1106651e+00
 -1.7216864e-01
  8.7638795e-02
 -7.4718870e-02
  3.8264608e-01
  3.5145173e-03
  3.9082184e+00
 -7.9490252e-02
  1.0636604e+00
  3.5524960e+00
  3.0756840e-01
  4.6738935e-01
  4.4613972e-02
  9.5997408e-02
  3.2953143e-02
  1.4889608e-01
  1.0104864e+00
 -1.7086612e+00
  1.5937981e-01
  1.0986520e-02
 -3.4831658e-02
  9.6992277e-02
  1.3341744e-01
  2.7361953e-01
 -4.0055856e-02
 -1.0456047e-01
  9.6211925e-02
  6.7632971e-03
  1.1523352e-03
 -6.9585025e-02
  2.4847552e-02
  9.2306092e-02
  5.9177287e-02
  1.0405254e-01
  1.5584329e-02
  1.9116883e-01
 -9.3289934e-02
 -7.4477293e-02
 -1.9287677e-02
 -5.9367436e-01
  8.8024549e-03
 -8.5433014e-03
  1.0084879e-01
 -5.9836233e-01
  1.2360172e+00
 -1.4266264e-01
  3.0831695e-02
  1.5178427e-01
 -5.6237791e-02
 -3.0367810e-02
 -5.3772256e-02
 -3.8048461e-01
 -5.2136797e-03
  6.0036238e-02
 -8.9864032e-03
 -2.5275609e-02
  2.9296765e-01
  1.1778499e-03
 -1.0950659e-01
  3.5064322e-01
  2.6590167e-02
 -1.3836463e-01
 -2.9073188e-01
  8.3658963e-02
  5.6788149e+00
 -5.8157675e-02
  1.3429561e+00
  1.2729532e+00
 -1.3288295e-01
  6.9809496e-02
  1.3803969e-01
  4.6179324e-02
  4.3314226e-02
  5.2476946e-02
 -2.7621847e-01
 -4.3816473e-02
  5.4692369e-02
 -4.8545223e-02
 -4.8325178e-03
 -6.0163755e-03
  5.2721784e-03
  1.0276812e-01
 -4.0225476e-02
  2.1125916e-02
 -6.2399998e-02
  9.0398140e-02
  4.8050217e-02
 -6.7880416e-01
 -6.2210917e-02
 -3.7125051e-02
  7.3366010e-01
  8.0536641e-02
  8.3681501e-02
  5.8634758e-02
 -4.5432281e+00
 -7.0322584e-04
 -2.2112619e-02
  4.1026976e-02
 -4.4395771e-02
 -1.7633969e-01
 -4.8177931e-02
  9.7089112e-02
  1.3847098e-01
 -5.0676122e-02
  5.5860868e-03
  5.6711531e-01
 -2.5947478e-01
 -1.6818804e-01
 -3.9276295e+00
 -1.0380848e-01
 -1.2791755e+00
  4.3019724e-01
  2.0466782e-02
 -1.3273368e+00
  1.8607676e-02
 -4.3298239e-01
 -2.7263643e-02
  1.0909395e+00
 -4.8752327e-02
 -1.1652154e+00
 -6.6761416e-01
 -1.5439842e+00
  2.0826149e+00
  1.1044122e-01
 -1.4421009e+00
 -4.8353069e-02
 -3.3623017e-03
 -2.5066645e+00
  3.3401672e-02
  6.6200271e-02
  1.9281684e-01
  1.2346445e+00
 -1.1217831e-01
 -2.7085653e-01
  1.5406159e-01
 -2.8164092e-02
  1.4783394e-01
  8.2264394e-03
 -1.6050109e+00
  4.1270263e-02
  1.6863267e-01
  5.6786608e-02
 -7.5718187e-02
  2.3176284e+00
 -1.6560580e-03
 -2.5647912e-02
  7.5348221e-02
  3.5484184e-02
  2.0949326e-02
 -2.2275553e+00
 -2.4524538e-01
 -9.4624441e-03
 -3.1859641e+00
  5.2108824e-01
  7.1412653e-02
  6.8977958e-01
 -9.9783897e-01
 -9.6083409e-01
 -1.0371567e-01
  1.8536378e-02
 -2.4455719e-01
  3.5153878e-01
 -3.8537841e-02
  1.3596776e-01
  2.4677545e-02
  9.3770117e-02
 -6.7167592e-01
  9.7580954e-02
  3.1788206e+00
 -2.2712092e-01
 -1.5937150e-01
 -5.0170444e-02
  1.2187649e-01
  2.8296852e-02
  5.8426498e-03
  8.1258860e+00
 -6.6798925e-02
  5.3976268e-01
 -9.5772915e-02
  3.6296162e-01
 -6.4068660e-02
 -8.0091231e-02
  1.2411811e+00
 -4.7282870e-03
 -6.2429506e-01
 -2.1518275e-02
  2.0831650e-01
 -6.0396001e-02
  1.2950472e-02
  4.3623340e-03
 -1.2738366e-01
  8.0119586e-03
  1.4230701e-02
 -5.2948888e-02
 -6.4463079e-02
  8.3064651e-01
  3.3944100e-01
 -1.7541742e-01
 -1.1275707e-02
 -3.4304935e-02
 -8.9233927e-03
  9.5405886e-03
  4.9385034e-02
 -5.7774905e-02
  2.1167807e-02
  1.8502759e-02
 -9.0978809e-02
 -7.7492831e-04
 -9.4408803e-02
 -6.7247182e-02
 -9.6550584e-01
  1.1101894e-02
  1.1966406e-02
  2.4460336e-02
  7.6743260e-02
 -9.0234503e-02
 -9.7180322e-02
 -3.0227417e-01
  1.9833300e+00
  2.0934430e-01
 -1.4036130e-02
  1.2759385e-02
 -2.0659115e-02
  5.5977419e-02
  1.5098682e-01
 -1.1119793e-01
  5.3506609e-02
  6.2710145e-03
  2.8408398e-03
  4.8170764e-02
 -3.2280490e-02
 -6.2852018e-02
  1.5853950e-01
 -5.6105725e-02
  4.4253372e-02
  2.3669111e-02
  3.4387141e-02
 -3.6053088e+00
 -1.5422723e-01
 -2.1152072e-01
 -2.3906983e-01
  2.3222830e+00
  1.1344869e+00
 -1.7546171e+00
 -1.7297423e+00
 -3.3952177e+00
 -1.0363278e-01
  2.0385332e+00
  1.1433756e+00
  5.3482141e+00
 -9.6997231e-02
  5.1635170e+00
  8.2763523e-02
 -4.3837536e-02
 -5.1849999e-02
 -5.7353489e-02
 -1.2709495e+00
 -7.7037913e-01
  3.7009079e-02
  1.0761505e-01
  1.5375129e-02
  7.0441449e-01
  5.2093577e-01
  2.3804438e+00
  1.8599845e-01
 -5.5305010e-01
  2.7644291e+00
  8.3909690e-02
  3.1194224e+00
 -1.5521321e-01
  4.5678666e-01
  6.7956150e-01
  1.1125104e+00
  4.4847247e-01
 -5.3657919e-02
  4.2035233e-02
  6.3534461e-02
  1.0541367e-01
  8.1965610e-02
  7.8421980e-03
 -5.1755607e-02
  1.0367789e-01
 -3.4947455e-02
 -8.1998348e-02
 -3.9145432e-02
 -1.3744542e-03
 -2.2950290e-02
 -8.7795451e-02
 -2.1590361e-02
  7.3035127e-03
 -4.3257335e-03
 -8.6121964e-01
 -7.7426583e-02
 -5.0916009e-02
 -2.9145515e-02
  3.7515230e-02
 -2.0867128e-02
 -9.2281371e-02
  7.3566146e-02
  7.6595120e-02
 -1.0736069e-02
 -2.8546207e+00
 -1.2764432e-02
  6.5547287e-01
  9.8044574e-03
 -3.8917098e-02
  8.3464730e-01
 -1.4243485e+00
  4.9075863e-01
  3.5848614e-02
  4.3638355e-01
 -2.0522058e-02
  4.9635938e-01
  4.3565813e-02
 -9.6643500e-02
  7.1400359e-02
 -2.2300228e-02
  2.7418120e+00
 -9.8131364e-03
 -1.1710107e-01
 -3.3571377e-02
  8.4135163e-01
  1.7392975e-03
  1.2945277e-02
  3.6102258e-02
  6.7275620e+00
  1.0394779e+00
 -3.0576680e+00
  5.1064837e-01
  2.6399615e-01
  2.4079251e+00
 -8.8810205e-01
 -3.8855436e-01
  1.6067006e-01
 -1.6812564e+00
  3.0992713e+00
 -1.4218040e-01
  3.4477165e-01
  7.0659763e-01
 -1.8820227e+00
 -2.0736244e+00
  3.2614899e+00
  6.9497794e-01
  7.3437013e-02
 -4.6727952e-01
  3.9331287e-02
 -1.0322518e+00
 -1.7201595e-02
  7.9493105e-02
 -2.0668247e+00
 -3.3555620e+00
 -2.5600634e+00
 -1.0214931e+00
  6.5135545e-01
 -3.6973591e+00
 -2.6120652e-02
 -5.3386176e-01
  1.7507226e+00
  1.9387397e+00
  2.4313478e+00
 -5.4372134e+00
  1.4434915e+00
  1.9104718e+00
 -9.7147119e-01
 -2.4342656e+00
 -1.9852928e+00
  3.3579795e+00
  1.7443097e-01
  1.6712660e+00
 -4.9823594e+00
  1.5965994e-01
  1.3725529e+00
  2.2555816e+00
  1.4648135e+00
  2.4900701e+00
  1.5994953e-01
 -3.6110419e-01
 -1.3184881e-01
 -4.9223728e-02
 -4.9569422e-01
 -6.8442392e-01
  1.4725499e-01
 -2.4801232e-01
 -1.7690858e-01
 -4.4707420e-01
 -1.5597095e+00
  4.1530198e-01
  5.2100074e-01
  4.5651600e-02
  2.1590433e-01
  3.6670595e-01
 -3.5191211e-01
  4.4947132e-01
  1.2780567e-04
 -8.4081749e-03
 -1.9463841e+00
  1.0012875e+00
  4.1635949e-02
 -1.1142675e+00
  1.8256516e+00
 -1.1582301e+00
 -1.8986875e+00
  5.1020384e-01
 -1.6720081e-02
  4.3767069e-02
  7.3390728e-01
  3.9032882e-01
 -5.2701935e-02
  5.9138298e-01
  5.7282895e-01
  1.5276881e+00
  1.2129530e-01
  4.4841591e-01
 -1.1742178e+00
 -8.9621741e-01
  8.7520830e-02
  1.7676516e-01
 -6.4123017e-01
  1.4172025e+00
  2.6401167e+00
  2.2421694e-01
  1.4022669e-01
  3.8606435e-01
  1.1222508e-01
 -2.5450242e+00
  3.5865463e-02
 -2.2801304e-01
  3.6498357e-02
 -2.0027947e-01
  7.6828003e-01
  7.3482089e-02
  2.5651598e-01
 -6.5915869e-03
  3.6791973e-02
 -3.0135307e-02
  1.4487764e-01
  3.5723015e-03
 -2.4027005e-01
 -6.1808281e-02
  9.0557292e-02
  1.3233420e-01
  5.7569081e-03
 -4.3417382e+00
  2.0004654e-02
 -1.7995666e-01
 -1.0093151e-01
  5.0654447e-01
  3.8282204e-02
  7.1018696e-02
  2.6788294e-02
  5.5480130e-02
 -6.9921151e-02
  1.0342946e-01
 -3.6397016e-01
  1.4685810e-02
  1.7383486e-01
  4.8841797e-02
 -3.7591971e-02
 -2.3157994e-01
  2.1407014e-01
  3.3777181e-02
 -5.9453830e-02
 -6.5345699e-03
  2.0367756e-02
 -1.3262555e-03
  8.9462303e-02
 -1.8989216e-01
 -6.4869933e-02
 -5.4581702e-02
 -5.6240153e-01
 -1.4445509e+00
  4.1785841e+00
 -6.8850332e-01
 -9.5676236e-02
 -1.8295124e+00
 -1.4806955e+00
  1.3756679e+00
  1.1496263e+00
 -1.6981198e-01
  2.0912240e-01
 -3.6773542e-01
  4.3180507e-01
  1.0157167e-03
  2.1752404e-01
 -1.3458441e-01
  6.1239578e-02
  9.9789284e-02
  2.6971778e-01
  1.7891562e-01
  1.2336800e-01
 -8.1524640e-01
  1.2211798e-01
  1.3267028e-01
 -8.4276602e-02
  6.9698818e-02
 -1.8677486e-02
  3.4175523e-02
 -7.6739818e-01
 -1.5406337e+00
  3.9671963e-01
 -5.6173638e-02
 -5.1027901e-02
  1.4767340e+00
  6.8559006e-02
  1.4792126e-02
 -4.5268610e-04
 -3.5256810e-02
 -1.8305135e-01
  1.0356952e+00
  1.2521726e-01
  4.7780156e-01
 -1.2493454e-01
  1.2420183e-01
  1.1076038e-01
  9.5039696e-02
  1.2238530e-02
 -1.0982695e-01
 -2.8694722e-01
 -1.6638818e-01
  1.6565393e-01
  2.8833010e+00
 -1.9386581e-01
  3.0339104e-01
  3.8023097e-03
 -2.5621581e+00
 -1.0873048e-02
  1.3882956e-02
  1.9282621e-01
 -4.9509272e-02
  7.9561606e-02
  1.6002816e+00
 -9.3641263e-03
  7.1570605e-02
  3.8068961e-02
 -1.9843103e-01
  7.8040302e-02
 -1.3266902e-02
 -3.4189805e-01
  1.5619510e-01
 -3.4953082e-01
 -4.4396713e-02
 -1.0401001e-01
 -3.6063965e-02
 -3.4734942e-02
  5.5883858e-02
 -1.2338360e-02
 -2.3190483e-02
  3.0536961e-02
  1.5678776e-03
  5.3390509e-01
  3.4132144e-01
  6.4888254e-02
 -2.7035167e-02
  2.1501800e-02
 -2.5886275e-02
 -6.5339901e-02
  5.0005412e-01
  4.3282909e+00
 -2.0534633e-01
 -2.5426965e+00
  1.0984040e-01
 -4.3505592e+00
 -5.1471565e-02
 -2.5659769e+00
  2.3330553e+00
 -6.6690087e-02
 -1.1400393e-01
  4.8366990e-03
  6.8557724e-02
 -1.8356019e-01
  1.6553359e-01
  1.1886784e-03
 -9.2521690e-02
 -8.2599714e-02
 -1.8108375e-03
 -3.6219549e-01
  1.6950355e-01
 -4.6011321e-02
 -1.0416599e-02
 -1.1718840e-01
  2.6743753e-02
 -8.7464824e-02
 -1.3614443e-01
 -2.9022491e+00
 -2.6312656e+00
 -1.0627880e+00
 -3.9332825e-01
  5.3251971e-02
 -1.6611868e-01
 -2.3837075e-01
 -3.3763021e-01
 -9.4389185e-02
  1.7424594e+00
  2.3691351e-02
  4.7581304e-02
  2.3221561e-01
  1.3458072e-01
 -8.0458289e-03
  4.8424661e-02
  3.8522062e-01
 -1.5164430e-01
  1.3632278e+00
  5.4010865e-03
 -5.1331849e+00
  2.3490492e-01
 -1.7961898e+00
  9.1405332e-01
 -1.8311101e+00
  6.8843865e-01
  4.6534130e-01
 -6.3814871e-02
 -5.7491034e-02
 -2.3058821e-01
 -2.7601013e-01
 -6.2490117e-02
 -4.7779274e-01
 -2.0704284e-02
 -4.2191172e-01
  9.6653690e-05
  4.4529268e-01
  1.6076992e-01
  3.1385154e-01
  1.1262445e-01
  2.3838892e-03
  1.4615683e-01
  1.0328012e-02
  4.3753949e-01
 -1.0006577e+00
  5.2450228e-02
 -2.3216085e+00
 -1.3957611e-01
  3.7526954e-02
  6.4884461e-02
  1.6764194e-01
  8.7955408e-02
 -9.7602539e-02
  6.1636999e-02
  1.2189971e-02
  3.3087783e-02
  4.1064195e-02
  1.5005706e-01
 -1.2247092e-01
 -1.0131951e-01
  1.1936098e-01
 -9.9825121e-02
 -2.5787875e-01
 -3.7046507e-01
 -1.5116681e+00
 -6.3005036e-01
 -8.0530423e-01
 -8.4210254e-02
  3.0904765e+00
  4.6301274e+00
 -3.3759134e+00
  1.0296506e+00
 -6.1056644e-01
 -2.7154514e-01
 -4.3985480e-01
  1.1238635e+00
 -2.0844955e-02
 -6.3885140e-01
 -1.6589992e-02
 -1.0148131e+00
 -1.1028363e+00
  9.1530991e-01
 -3.7909490e-01
  2.1044901e-01
  7.3984635e-01
  1.3066108e+00
  4.9295121e-01
 -1.5720475e-01
  1.3500447e+00
 -1.7970894e-01
 -1.2558308e-01
 -5.3152394e-01
 -3.1438548e-02
 -4.5003119e-01
  1.0731326e+00
 -1.4409532e-01
  6.3619173e-01
 -5.3261268e-01
  1.5698829e-01
  4.8799720e-01
 -5.3729123e-01
 -1.8798463e-02
  8.2222348e-01
  5.6371337e-01
 -1.9189572e-01
 -1.7746739e-02
 -3.0882237e+00
  1.0423592e+00
 -3.6508701e+00
  2.4632509e+00
  4.6660719e+00
  3.8203657e+00
  3.1134504e-01
 -4.0064955e+00
  2.4004731e+00
 -3.0176556e-03
  3.7825880e+00
 -8.2560855e-01
  4.7744760e-01
 -2.1615262e+00
 -8.3008391e-01
  1.7558976e-01
  1.9148102e-01
  7.1537340e-01
  3.0681591e+00
 -6.3728318e-02
  1.7675240e-01
 -1.4245264e-01
  2.3125644e-01
 -2.6707944e-01
  3.5029950e+00
  4.1752809e-01
  3.4610089e-02
  7.3485053e-01
 -4.7483487e+00
 -4.5659411e-01
  2.0485370e+00
  2.2897534e+00
  1.0184280e+01
 -3.4540260e-01
  4.5605231e-02
 -3.4673068e-01
 -7.8457636e-01
 -2.0414338e-01
 -2.0594187e-01
 -1.6672941e-01
 -2.9237278e-02
  1.2405393e-01
  8.4668331e-02
  6.5070516e-01
  1.1763302e-01
 -1.8282531e-02
 -1.2667653e-01
  6.5395230e-01
  4.1642160e+00
 -1.7925471e-01
  3.1721622e-01
  1.4550995e+00
 -4.3895352e-01
  1.6832590e-02
  2.3118700e-01
  1.7557924e+00
 -3.1279203e-02
  2.3358004e-01
  5.2407420e-01
 -1.8736780e+00
  1.0272826e-01
  1.8655613e-01
 -4.9950618e-02
  1.1009936e-01
 -2.0522608e-01
  8.1519522e-02
 -3.0570510e-01
  3.8768731e-02
  6.1773735e-01
  6.3880998e-01
  2.9660016e-04
  2.1153769e-01
  2.1257390e-01
  1.9175623e-01
 -1.4075050e-01
 -1.3210595e-01
  2.1145064e-02
 -4.9810630e-01
 -1.5196605e-01
  1.4155688e-02
 -1.0047197e-01
 -6.8043910e-02
  4.7502883e-02
  1.5097542e-04
  3.1051204e-02
 -4.4215977e-02
  2.7706653e-01
 -1.7107803e-02
 -2.3356013e-02
 -6.6918828e-02
 -8.9398652e-01
 -6.1431464e-02
  8.4737942e-02
  2.2146128e-02
  7.1394765e-01
 -7.7716574e-02
 -1.6234648e-01
 -1.6184505e-02
  1.3565095e-03
  3.7432590e-03
  1.6429912e+00
 -5.2821830e-02
 -1.1417474e-01
 -1.3054998e+00
  5.7958122e-02
  4.1096956e-01
  6.1356354e-01
 -4.0977821e-02
 -5.6505028e-02
  1.0852721e-01
 -3.6156692e-02
  3.7679017e-02
 -7.8606166e-02
 -2.2211887e-01
 -7.3041528e-02
 -2.9462978e-02
 -2.5671812e-02
 -8.6701699e-03
  1.5276101e-01
 -7.6909706e-02
  2.6191026e-04
 -8.3101042e-02
 -3.4406462e-01
  1.7003886e-02
  9.1333491e-01
  1.6276063e-03
 -4.4394188e-02
  6.9679923e-02
  2.9792565e-01
  8.7102965e-02
 -1.0479774e-01
  9.6246071e-02
  3.1187994e+00
  1.0339026e+00
 -3.4945869e-01
 -2.2870917e+00
  2.7958849e-01
 -9.8773301e-01
 -1.1135724e+00
 -1.2090262e+00
  2.8232791e+00
 -3.5909265e-01
 -2.2202168e-01
 -3.2313760e-02
  4.0092189e-02
 -1.3988321e-01
  5.9523389e-02
 -2.4736188e-01
 -2.2458890e-02
  1.0751438e-01
  2.3797575e-01
 -8.2290061e-02
  8.3121918e-02
 -4.8569404e-03
  5.1731043e-02
  1.1984330e-01
  5.2436030e-01
  4.8115316e-01
 -7.5146544e-01
 -2.0267332e+00
  5.6534022e-02
 -2.5713566e-01
  3.3838233e-01
  3.4885403e-02
  1.3670232e-04
  1.0785867e+00
  4.7256094e-01
 -2.9386933e+00
  1.5130532e-03
 -1.7436253e-01
  2.3968387e-02
 -1.3574225e-01
  1.3452742e-01
  2.9485616e-01
 -1.4796598e-01
 -9.3639158e-02
 -1.8508955e+00
 -1.4066726e-01
  3.1534224e+00
  3.9126375e+00
  2.5211298e+00
  1.8631325e+00
 -5.5433197e+00
 -1.8277389e+00
  1.7339342e+00
  2.9817492e-02
  2.5145039e-02
  6.5624726e-01
 -1.2270437e-01
 -1.0015266e+00
  2.6410399e-02
 -1.5297132e+00
 -1.5678674e-02
  3.4728827e+00
  3.4295660e-02
  7.8537643e-02
  1.5327255e-01
  5.0327923e-02
  8.1027102e-01
 -1.9424081e-02
 -1.4187711e+00
  3.3690172e-01
 -8.1682163e-01
 -1.3944735e-01
 -1.9000726e+00
 -9.7357571e-01
  3.0569334e+00
  1.2974104e-01
 -1.0487167e+00
 -1.3560039e+00
  2.3842763e-02
 -2.9903131e+00
 -1.0028449e-01
 -2.9162054e+00
  6.5495679e-03
 -2.9276432e-02
  3.1011033e-01
 -1.3501284e-02
 -1.2837121e-01
 -2.2337565e-01
  4.6765184e+00
 -9.9328399e-01
 -3.2526217e+00
  1.2380669e+00
  3.9812493e-01
  2.3396058e-01
  1.4232649e+01
  5.8091503e-01
 -6.8038779e-01
 -1.3776148e-02
  2.9129815e-01
 -8.4846929e-02
 -1.3220992e+00
  2.8017330e-01
 -1.5663087e+00
  7.4442970e-03
 -2.9430926e-01
  2.8624937e-01
  7.2545819e-02
  1.1216684e-01
  9.1438666e-02
 -3.3363298e-01
  2.0892691e-02
  1.6304375e-01
  7.5935507e-01
 -5.8122510e-01
 -8.8480192e-01
 -4.1241109e-02
 -5.6283504e-02
 -5.2630208e-02
 -1.6082648e-02
  9.7533330e-02
  1.6204487e-01
  5.4180914e-01
 -8.6792067e-02
  1.1394320e-02
 -4.7361243e-01
 -2.4414826e-02
 -6.0248356e-02
  1.7264731e-01
 -1.4878263e-01
  2.0081280e-02
 -5.9793267e-02
 -1.8868609e-01
 -8.3049983e-01
  2.6891973e+00
 -5.8035845e-01
 -8.4915036e-01
 -4.7122520e-01
  2.7168789e+00
  1.1908904e+00
  5.3191090e-01
  3.2059529e-01
  5.1880434e-02
 -4.3191366e-02
  1.1820282e-01
  1.0710790e+00
  1.9988980e+00
 -1.2496953e-01
 -1.5236181e-02
  1.1614429e-02
  6.1914977e-03
 -6.4469062e-02
 -4.5225848e-02
 -2.0446213e-01
 -9.0492256e-02
  1.0589232e-01
  9.6303403e-02
  1.8073567e+00
  1.4108542e-01
 -2.1067026e+00
  1.7930649e-02
  5.8166757e+00
  1.3130881e-01
  2.5683776e-02
 -2.2379063e-01
 -3.1779233e-01
  5.2942286e+00
  6.1489780e-02
  2.0836158e-01
 -3.1022918e-01
  2.1720864e-03
  1.0132549e-01
  5.4380510e-02
 -4.6095110e-02
  2.1154831e-01
  7.9771746e-03
 -4.4594873e-03
  6.8990648e-02
  8.8605487e-01
  4.3187518e-02
  3.4172520e-01
  2.6485017e-02
 -1.8975244e-01
  5.2599269e-01
 -2.6041269e-01
 -1.1778767e+00
 -7.2551779e-02
 -1.4992660e-01
 -1.3541822e-01
  6.9613360e-02
 -1.6821463e-01
 -7.3898770e-02
  8.3674729e-02
 -2.9360119e-01
  2.5189783e-02
  1.0500127e-02
 -1.2880841e-01
 -4.8143052e-02
 -5.9730731e-02
 -2.3741428e-02
  5.1351231e-02
 -3.2591868e-02
 -5.4967421e-01
  4.3339571e-01
  1.5841056e-02
 -5.6337990e-02
  3.5974121e-01
  1.2064435e-01
  5.5557013e-01
 -4.9326405e-02
  2.1552557e-01
 -2.1414985e-03
 -3.2843024e-01
  1.4690499e-01
 -7.7668294e-02
  8.8618577e-02
  1.1503782e-01
 -4.2935688e-02
  2.2001162e-01
  9.1007151e-02
  2.6867110e-02
 -1.8680666e-01
 -8.9504993e-01
 -6.2249362e-01
 -1.8899919e+00
  5.6489700e-01
  1.2730837e+00
 -1.0518974e+00
  1.1890563e+00
 -8.1834865e-01
 -5.7917243e-01
 -1.3568342e-01
  3.0960701e+00
  2.4008200e-01
  1.9682351e+00
  1.4334785e+00
 -3.4981677e-01
 -1.8951895e+00
  2.7740357e+00
  3.5304901e-01
  5.8868501e-02
 -1.8533901e+00
  2.9658015e+00
  9.8372126e-01
  1.9312223e+00
 -4.8165317e+00
  2.5725572e+00
 -5.7575507e+00
  1.2851661e+00
 -1.2307306e-02
  9.6911263e-01
 -2.3382938e-02
  1.2114915e+00
 -1.2688902e-01
 -4.6912217e+00
  3.0938182e+00
  1.4289563e+00
  1.2923807e-01
 -1.3465391e-01
  7.8611213e-01
  1.1711370e-01
 -1.2849244e-01
 -4.6350074e-01
  7.8211629e-01
  1.9475405e-01
 -2.0885279e+00
 -1.8440200e+00
 -7.2648244e+00
 -6.2801957e-01
  3.6695120e-01
 -1.4236695e-01
  1.5039344e+00
  1.0301504e+00
 -8.7100875e-01
 -3.3491906e-02
 -3.9820205e-02
 -4.4901714e-02
  3.1178361e-01
 -8.3943140e-03
  2.0223019e-01
  3.2867618e-02
 -3.3185181e-01
  1.0504353e-02
 -1.3238762e-02
  2.9915321e-01
 -7.6449707e-02
  1.9247167e-02
  2.3851268e-01
 -1.4310378e-01
  6.7188007e-01
 -9.9766985e-02
  3.7569278e-01
 -6.9173194e-02
 -8.7495989e-01
  4.2255744e-02
  2.5844917e-01
  1.8114939e-02
  5.9176479e-03
  1.9230698e-01
  2.2151947e-01
  1.4051676e-02
  1.2008600e-01
 -1.4327589e-01
 -2.6342410e-01
 -6.6641100e-02
 -1.8158816e-02
  4.9940925e-03
  1.6229345e-01
 -7.4481055e-02
  1.0683284e+00
  7.4521518e-01
 -8.8561881e-01
  8.8573962e-01
 -3.7107975e+00
 -1.8778961e+00
 -1.7689058e+00
 -1.7146572e+00
  1.1553109e+00
  4.7807628e-01
 -8.9776874e-01
  2.9946961e+00
 -7.2835284e-01
  7.7441418e-01
  3.1841283e+00
 -1.7470224e-01
  1.1806558e+00
 -9.9274635e-02
  8.9982086e-01
 -8.4752399e-01
  1.0949006e-02
  5.4113322e-01
 -1.0695832e-01
 -1.4012405e+00
  5.7642996e-01
 -8.8090277e+00
  1.5813481e+00
  1.3792181e-01
  3.3001392e+00
  2.1859062e+00
  4.4144575e-02
 -1.4588794e-01
 -2.7762814e+00
  4.2326069e+00
  5.5352483e-02
  2.2188912e-01
  2.7204416e+00
 -3.9889064e-02
 -1.2286807e+00
  1.0207480e-01
  4.4063339e-03
  4.6218470e-02
 -5.7205456e-01
 -2.8172437e-02
 -6.0347475e-02
 -3.7795093e+00
  1.7062318e+00
 -1.1365062e+00
  3.5587130e+00
 -1.1808341e+00
  8.4192783e-01
  1.9361963e+00
  2.3249529e-01
  6.5542310e-01
  3.1530880e-03
  7.0405048e-01
  4.1400284e-01
 -9.5510012e-01
  1.9334592e-01
  1.7395383e-01
  3.3213690e-02
  2.0503800e+00
 -2.7980360e-01
 -5.1156618e-03
  9.9744253e-02
 -2.9250920e-01
 -3.8637006e-01
 -2.6762363e-01
 -5.0071633e-01
  9.7591758e-02
  1.5911694e+00
  7.8313529e-02
  4.1967809e-01
 -6.9344386e-02
 -7.4589843e-01
 -6.8192661e-01
 -1.2348942e+00
 -1.2104264e-01
 -1.0020126e-01
  1.2958010e-01
 -4.8834640e-01
 -7.4635424e-02
  1.0008379e-01
  1.8621323e-01
 -3.9821962e-01
  1.8630892e-02
  3.2671742e-02
  3.6527908e-01
  1.4713532e-01
  3.8616171e-01
 -5.3464171e-02
  3.0875580e-02
  8.0169424e-02
 -2.0470046e-02
 -1.4239390e-01
 -1.0321289e-03
 -6.6841298e-01
 -2.9604444e-01
 -7.8381579e-03
 -3.1289205e-01
  5.8952934e-01
 -6.1941143e-02
  1.0016477e-01
  1.9975923e-01
  1.2680051e-01
  1.5664367e-01
 -2.9564968e-01
 -2.3774788e-01
 -1.7114244e-02
 -3.0665190e-04
  1.7291346e-01
 -9.5322348e-02
 -1.2477475e-02
 -2.3600285e-01
  1.6463369e-02
  3.3868217e-01
 -1.4611532e-01
  3.0828493e+00
  9.8072086e-03
 -1.5062851e-01
  8.0370009e-02
 -3.6248069e-02
  1.8865792e-02
 -1.2943381e-01
 -9.6930152e-01
 -5.5300094e-02
 -1.3875189e-01
 -7.7501582e-03
 -2.1448949e-02
  2.5868383e-01
 -1.2358829e-01
 -1.1727669e-01
  1.4766522e-02
 -2.3927643e+00
  1.5534154e-01
 -1.3615915e+00
 -9.6306556e-01
  3.3558805e-02
 -3.4708109e-01
  6.0010141e-01
 -1.5416460e+00
 -3.3636951e+00
  3.0996251e-01
  6.8751448e-01
  1.4698350e+00
  8.1358975e-01
 -6.7286745e-02
  6.3513488e-02
 -6.6472960e-01
 -9.6222728e-01
 -1.2242717e+00
  5.6729102e-01
 -1.4499655e-02
 -1.1145534e-01
  5.0785497e-02
 -3.4915376e-01
 -4.0015103e-03
  4.6583068e-01
  7.6955080e-01
 -7.3831487e-01
  1.7155020e+00
  2.4296982e+00
  3.1897733e-01
 -1.5172149e-01
  2.1676807e-01
 -7.7894467e-01
  9.9152905e-01
 -1.7860810e-01
 -6.3268447e-01
  1.5466595e-01
 -1.0090365e-01
 -1.1978113e+01
  2.5329214e-01
  1.0352112e-01
  8.2379393e-02
 -7.2412491e-02
 -1.0304306e+00
 -1.4108722e+00
 -1.3924117e+00
  1.2961521e+00
  2.6601498e+00
  6.8287343e-01
  7.2078031e-01
  7.8788511e-02
 -1.4663571e-02
 -1.1780933e-01
  3.6803055e-01
 -2.4047881e-02
 -1.9132392e+00
  4.3497641e-02
  1.0339339e-02
  1.2500092e-02
  3.4489206e-03
  1.2951186e-01
  3.7625992e-01
  1.0959002e-01
 -4.1227737e-01
 -2.0981645e-02
  5.0585076e-02
  2.1741733e-01
  6.0451984e-01
 -5.3779811e-02
 -7.9196066e-01
  2.9436758e-01
  3.0912182e-01
  3.7397665e-01
  2.9818797e-01
 -2.9176086e-02
  5.8918482e-01
 -3.1212360e-01
 -3.8244702e-02
  5.2835494e-01
 -2.6218219e+00
 -1.3231993e-01
  2.2670230e-02
  2.4337828e-01
 -2.3586912e-01
 -2.0892750e-02
  3.3429071e-02
  7.2260365e-02
  4.4608939e-01
  1.0483773e-01
 -2.3723897e-01
  2.9767885e+00
  5.9489715e-01
 -3.6157537e-01
 -1.6881426e-01
  6.1270070e+00
 -6.0419980e-02
  1.9822279e-01
 -4.7556490e-01
 -1.9818841e-01
 -2.3120780e-01
  1.4112635e-01
 -6.4144745e-02
 -2.6478038e+00
  7.7647336e-02
 -6.3244440e-02
 -2.2993816e-02
  9.4895023e-01
  1.1049236e-01
 -2.9767340e-02
  7.3160924e-02
  7.0016408e-01
 -2.3581816e-01
 -1.1420356e-02
  1.9550620e-01
 -3.6507857e-01
  2.8279621e-02
 -2.0520113e-02
 -9.1005802e-02
  1.2171179e-01
  1.1202060e-01
 -2.8251934e-01
  1.8916535e-01
 -9.9264838e-02
  5.5074118e-02
 -5.2482828e-02
 -1.1544833e-01
  2.4851443e-02
  4.8876488e-01
 -2.1802454e-01
  6.0573190e-02
 -3.2062477e-01
  3.0195609e-01
 -5.5726562e-02
 -7.4006237e-02
  8.2191342e-01
  2.2321875e-01
  2.8324492e-02
  3.0143024e-02
 -1.4263026e-01
  6.7892764e-03
  9.6767358e-02
  1.5699491e-02
  1.5129378e-01
  4.1682627e-02
 -5.9260864e-02
 -2.4439062e-03
  9.3132250e-02
 -1.0778125e-02
 -2.5325287e-02
 -2.0491347e-02
  1.6103987e-01
 -6.6472195e-02
 -2.9086664e-02
  8.1756487e-02
  4.6510711e-01
 -2.3326123e-01
  7.3675960e-03
  1.5469710e-02
  1.3593601e-01
  9.9114686e-02
 -4.5016684e-02
  4.9900459e-03
 -4.2626698e-02
  2.5397691e-01
  2.2376640e-01
  6.9888219e-02
  4.8854120e-02
  2.4541505e-02
 -2.3781055e-01
  1.9851094e-02
 -2.0608546e-01
 -2.0138545e-01
  7.5776562e-02
 -1.0542805e-01
  1.2908022e-01
 -3.6592944e+00
  2.4291780e+00
 -9.8093563e-01
 -1.5645406e+00
 -2.6098983e+00
  8.2985002e-01
 -1.3390856e+00
  2.1076102e+00
  1.8704401e+00
  7.2410774e-01
 -2.0883420e+00
  9.9835968e+00
  3.6290231e-01
 -2.8350456e+00
 -5.2258630e+00
 -1.1684253e+00
  3.5219138e+00
  7.3330778e-01
  3.1909654e-01
 -7.3077601e-01
  4.2960484e-02
 -1.6013780e+00
  3.1622298e-02
  7.4375816e-02
 -6.0543551e+00
  2.2779262e+00
 -3.4029756e+00
 -3.4571972e+00
 -3.6410229e+00
 -5.2916594e+00
  2.6488614e+00
 -2.5158802e-01
  4.0358427e-01
 -2.3099301e+00
  2.3385274e+00
 -2.7914777e+00
 -2.8332499e-01
 -1.6288866e+00
  2.5148553e-01
 -1.4748615e-02
  2.1384959e-01
 -3.4122586e-02
 -4.0356321e-03
 -1.8779229e+00
 -1.8035556e+00
  2.0567599e-01
 -2.6042116e-01
 -5.7079816e-01
 -9.9838354e-02
 -1.0446329e+00
 -2.0820141e+00
 -6.9107652e-01
  3.6080477e-01
 -6.1677899e-02
  3.9393175e-02
  3.6448944e-01
 -1.9062383e-01
 -1.1590601e+00
 -4.0905303e-01
  2.6053470e-01
  4.6793371e-01
 -1.0712094e-01
 -1.2544125e-01
  3.2405816e-02
 -3.4254810e-01
  3.5579003e-02
  1.9048668e-02
  1.6422391e-01
  1.5271714e-01
 -1.8949792e-01
 -1.7395713e+00
 -1.4256927e-01
 -3.5468951e-02
 -2.5398773e-03
 -5.2908652e-02
  1.8960328e-01
 -4.0368980e-01
 -2.2552197e-01
  1.3536237e-01
 -2.2924317e-01
  4.1186103e-01
  2.3259552e-01
 -2.7281186e-02
  3.7172667e-03
  9.0719563e-01
  1.9464025e-01
 -5.7636809e-02
  7.5594053e-02
  1.1068174e-01
  4.5155324e-02
  2.1258925e-01
  1.2649739e+00
 -4.1256496e-01
  5.0819367e-02
 -8.8833086e-02
  5.9851825e-01
 -1.7732410e-01
 -3.9165691e-01
  4.3969583e-02
  7.1425140e-02
 -4.4779974e-01
  3.1186640e-02
 -1.4194684e-01
  2.3052394e-02
  6.3855892e-01
  2.7932894e-01
 -1.4198791e-02
  1.8110314e-01
 -1.2553404e-02
 -2.7834233e-03
  1.8478189e-02
 -6.5087569e-01
 -3.6554661e-02
  1.2302973e-01
  5.1104873e-02
 -1.8567167e-02
  3.9513007e-01
 -1.7517458e-01
  2.2767746e+00
  3.9257959e-02
  1.2171887e-01
 -5.2729681e-02
  2.4392803e+00
 -7.6696537e-03
  9.6626943e-01
  6.7359157e-02
 -2.8700731e+00
  3.8588268e-01
 -3.8388107e-02
 -1.5971184e-01
 -3.7719123e-02
 -9.1235511e-02
  1.7555362e-02
 -2.2935203e-01
 -2.0376630e-02
  1.9758679e-01
  1.0713311e-02
  4.1553885e-02
 -1.0107670e-01
  6.3533771e-01
 -1.9955577e-01
 -1.8168804e-01
 -1.1144912e+00
  2.3126979e-01
  9.7771585e-02
 -2.8993797e-02
  4.0560332e-03
  1.0680169e-01
  3.6186799e-03
  5.4975934e-02
 -3.0723771e-01
  7.4725375e-02
  3.9557511e-01
  4.4761278e-02
 -1.6577877e-01
  1.4432141e-01
 -5.4906487e-02
  3.5012183e+00
 -9.7483136e-02
 -8.5028283e-02
  1.2711507e-01
  1.5750945e-01
 -3.0110681e-01
  5.3337038e-02
  5.9222199e-02
 -1.6806825e-01
  2.2995207e-02
 -7.3077641e-02
  5.4275483e-02
 -2.2928940e-01
 -6.8630481e-01
 -5.5082351e-01
 -1.7012116e-01
  5.1315159e-01
  3.1340879e-01
  7.1592756e-02
  3.0685401e-01
  1.5350977e-01
 -1.3026071e-01
 -1.9955100e-01
  1.5803583e-01
 -6.5615557e-02
  6.0412819e-03
  1.6458285e-01
 -1.3789530e+00
  3.1956516e-02
  4.5174830e-02
 -7.3477395e-02
 -5.4775536e-01
  8.2358114e-02
 -4.0274516e-02
 -1.0093279e-01
  3.7757184e-02
 -9.8440766e-02
 -7.8653544e-02
 -6.2392622e-02
  7.6057225e-02
  8.5993543e-02
  6.3545272e-02
  1.9892585e-05
  1.1045856e-02
  1.4877300e-01
 -2.5693357e-01
  1.9831178e-01
 -3.5267609e-01
 -3.7622605e-02
 -1.4269575e-03
  1.2948920e-01
 -4.5421213e-02
  8.9909658e-02
  1.6314931e+00
 -2.5326306e-01
 -1.7886393e-01
  3.2803290e-02
 -5.9072547e-02
  2.3249664e+00
 -9.4984677e-03
  8.0387384e-02
  2.1836285e-02
  2.8593967e-02
  1.8306124e-01
 -1.0900691e+00
  5.1651794e-01
 -1.0460684e+00
  5.1317140e-02
  1.0715204e+00
  1.2290751e+00
  3.8187033e-01
  3.4221318e-02
  1.5198398e-02
 -1.6924204e-02
 -3.3940377e+00
 -8.5860789e-02
 -4.7815166e-02
 -4.7779292e-01
 -1.5232958e-02
  1.1832929e-01
 -2.5637019e-02
 -3.7707999e-02
  9.2446454e-02
 -6.4798728e-02
 -1.0414648e-01
 -6.6807091e-02
  2.2292724e-01
 -5.1235867e-01
 -5.9442326e-02
 -1.5362848e+00
 -8.8923186e-01
  2.8392035e-01
  3.1683764e-01
 -1.9924298e-01
 -1.1489162e-02
  6.4755298e-02
 -1.5311475e-01
 -5.1230729e-02
 -1.0250986e-01
 -1.0510885e-01
 -1.7817096e-01
 -2.9896669e+00
 -2.9944974e-01
  6.1712392e-02
 -2.2763241e-02
  2.1918751e-02
 -1.7588459e-02
 -3.2612947e-01
 -1.5640189e-03
  3.5807177e-01
  2.6032054e-01
  1.2911264e+00
 -4.7822589e-01
 -8.7759927e-02
 -1.0632722e+00
 -2.5476533e-01
  3.2934133e-02
  1.6088232e-01
 -1.9444756e-02
  5.8566138e-02
 -1.7597644e-01
 -1.0202675e-01
 -4.7479618e-01
  1.9611964e-01
 -4.8683241e-02
  3.1911258e-02
 -3.3410639e-02
 -8.7220669e-02
  5.6136236e-02
 -1.3509826e-01
 -2.6465300e-02
  2.0970950e-01
  6.4456359e-02
 -7.8707260e-01
 -2.1664130e-02
 -4.4071652e-02
 -1.5217970e-01
  1.4746481e-01
  2.1355430e-02
 -1.2205835e-01
 -2.1499479e-02
 -3.9914660e-02
 -1.2560752e-01
 -3.4181708e-01
  2.1863762e-01
  3.1951427e-02
 -1.9976509e-01
 -2.3263006e-01
  3.0210820e-01
  7.8534484e-03
  1.6224301e-01
 -1.3108620e-01
 -6.3647240e-02
 -4.7414094e-01
  4.9251115e-01
  3.2826874e-01
 -6.4027429e-01
  2.6557115e-01
  2.2042170e+00
 -7.5678962e-01
  4.5751479e-01
  3.2694417e-01
  3.2133251e-01
  1.7836133e-02
  1.4276876e-02
 -3.2306352e-01
 -5.7032559e-02
  1.7041607e-02
  6.1566055e-02
 -1.7340969e-01
  1.0917284e-01
  1.6068387e-01
  1.4668036e-02
  3.0553568e-02
 -3.0176073e-01
  9.4769806e-02
 -1.0906105e-01
 -7.3883743e-03
  2.6860187e-02
 -8.7523408e-02
 -6.6780263e-01
 -1.5576078e-01
  8.1765898e-02
  1.4856936e-02
 -4.0435068e-02
 -7.2893135e-02
 -1.2772374e-02
 -1.9404474e-01
 -6.0293727e-02
  2.7081180e-02
  1.7859244e+00
 -4.7352709e-02
 -2.1681735e-02
  4.4358045e-02
 -9.1602415e-02
  2.2840950e+00
 -1.0183108e+00
 -3.2818171e-01
 -9.8469085e-01
  1.2074424e+00
  4.8401946e-01
  2.5848410e-01
 -4.8261795e-02
 -2.1902852e-02
 -9.7348168e-03
  2.7798295e-01
  1.3788913e-01
  2.0916732e-01
  7.1211994e-01
  3.6982983e-02
  1.3166580e-01
  1.9337340e-01
  3.0923370e-01
 -4.9400158e-02
 -2.5554886e-01
 -9.4552279e-02
  2.1742125e-01
  1.1229571e-01
  1.0189266e-01
 -1.1777682e-01
  3.5753541e-02
  1.0519185e+00
  9.4233742e-03
 -8.4665555e-01
  2.2212462e-01
 -1.0202796e+00
 -1.3221024e+00
  9.0478741e-02
  7.1797259e-02
  6.8264883e-03
  3.6597565e-01
  1.7670627e-01
  1.3869408e-01
  4.8060052e-02
  2.7733818e-01
  1.6030860e-03
 -5.9879191e-02
  1.1605250e-01
  5.3718679e-02
 -7.3088564e-02
 -7.2652954e-03
 -9.9026531e-01
  5.2509576e-01
 -7.5676048e-01
 -1.7267135e-01
  6.7443037e-01
  1.6805890e+00
  1.7692773e+00
  5.2179319e-01
 -1.1970892e-01
 -1.8882493e+00
  5.1567733e-01
 -5.6993681e-01
  1.0520209e+00
 -1.0122816e-01
  6.2838000e-01
 -8.3072141e-02
  5.7085806e-01
  9.4460487e-01
 -2.8009024e-01
 -5.9583253e-01
  1.2700652e-01
  8.7838066e-01
 -8.6243503e-02
 -3.7373480e-01
 -1.7448004e-01
 -2.4478786e-01
  8.4073341e-01
  1.0468326e+00
 -1.4439235e+00
  5.4107106e-01
 -4.5032701e+00
  6.4124256e-01
  3.6181879e-01
  1.4074838e-01
  6.4462788e-02
  3.4773669e-01
 -1.4660545e-01
  1.8532626e-01
  1.4615628e-01
  3.7748203e-01
  1.4990282e-01
  8.1012875e-02
 -6.9167107e-01
 -1.6561860e-01
  1.5724535e-01
  9.1950455e+00
  1.5213957e+00
  8.2060091e-02
  1.2945334e+00
 -4.0187254e+00
  2.4393482e+00
  9.7937632e-01
  2.9884551e-02
 -1.4671533e+00
 -2.2234932e-01
 -1.4931740e+00
  2.1717040e-01
  1.7406729e+00
  5.0757545e-01
  3.7672538e-01
  1.4296702e-01
 -6.2355231e-02
 -2.2403109e-01
 -3.1029207e-01
 -4.5381764e-01
 -3.9068099e-02
 -9.2820632e-01
 -3.5456855e-02
 -2.8747344e+00
  3.1122050e-01
  2.5130458e+00
 -5.1433504e-01
 -1.5199420e-01
 -1.2086018e-01
 -9.5596123e-01
 -4.7178086e-02
 -3.9636549e-02
 -7.3199260e-01
  2.0257127e-02
 -1.5665121e-01
 -3.0723073e-02
  5.2024415e-03
 -1.1411497e-01
  3.5213426e-02
  5.5458382e-02
 -3.7228279e-02
  1.0181403e+00
 -1.4697541e+00
  1.2743441e+00
 -2.2167332e+00
 -1.6474906e+00
 -3.2544127e-01
  6.2689595e-02
  2.2231765e+00
  2.5288564e-01
  1.7206828e-01
  5.1213855e-01
 -2.9702922e-02
  4.6494693e-01
 -5.6288034e-01
 -6.4735556e-01
 -2.0544596e+00
 -6.0252494e-01
 -7.7209748e-02
 -1.8326743e-02
 -1.5317696e-01
  2.2663310e-01
  1.6028694e+00
  5.8353090e-01
  1.2269821e-01
 -1.3834016e-01
 -7.6509321e-01
 -3.2713873e+00
  2.8650966e-01
 -3.5235065e-01
  9.3495214e-01
  3.5908134e+00
 -2.3437227e-01
 -3.0025983e-01
 -6.9622201e-01
  3.7167132e-01
 -8.5205013e-01
  4.5935318e-01
  3.0636433e-01
 -4.0831245e-02
  4.3972455e-02
  7.9632103e-02
 -1.6128719e-01
 -9.0950483e-01
  3.9327940e-01
  3.2598627e+00
 -1.1400845e-01
  2.7068651e-01
 -7.1114141e-01
  7.3115036e-02
  9.2985702e-01
 -4.0335765e-01
 -2.2784911e-01
 -1.2729952e+00
  7.1483411e-02
  1.7140284e-01
 -8.1136070e-02
 -1.4924355e+00
 -7.2945482e-01
 -1.9440505e-01
 -2.2499998e-01
  1.9561389e-01
 -3.4930336e+00
  3.0386135e-02
 -5.5417025e-01
  1.2356383e+00
  2.0446302e-01
 -1.4733126e-02
 -1.6212068e-01
  6.0258940e-02
 -4.4233570e-01
 -3.7223655e-01
  5.5626184e-02
  2.1963048e-01
 -3.9729953e-01
 -4.1872630e-01
  2.6004863e-01
 -2.0871559e-01
 -3.0556042e-02
 -4.9850333e-02
  2.9870121e-02
 -1.8300054e+00
  6.1593961e-02
  7.8462029e-01
  7.6533002e-01
  3.1914953e-02
 -1.1514962e-01
  4.7775127e-02
  5.6063509e-01
  2.9067299e+00
 -3.3920193e-01
  1.0114934e+00
  1.5329010e+00
 -6.9278687e-01
 -1.9078797e-01
  9.6619803e-01
 -2.3232553e+00
  3.1678226e+00
 -4.0550404e+00
  1.3156638e+00
 -1.8895177e+00
 -4.5384997e-01
 -1.7654298e-01
  1.5876228e+00
 -1.1752388e+00
  2.5254900e+00
  1.4453529e+00
  5.3524880e+00
 -5.4022145e+00
  4.2376857e+00
  6.5927253e+00
  3.0322618e+00
  2.9377637e+00
  5.8120217e+00
 -1.6186440e+00
  1.3624904e+00
  3.4776247e-01
 -1.0616531e+00
  4.8786452e-01
  1.6279398e+00
  3.1444631e+00
  4.0316074e-03
  2.5594187e+00
  1.1255268e+00
 -3.5517687e-01
  2.2796835e-01
 -3.1944805e-01
  1.1642298e+00
  3.7894821e-01
 -6.1254972e-01
  2.6880546e-02
  5.2140117e-01
  8.7052405e-01
 -4.0998731e+00
 -2.0655169e+00
 -4.1275687e+00
  5.9194698e+00
 -2.9446018e+00
  2.5510461e+00
 -4.1901934e-01
 -1.0012771e+00
 -2.2130370e+00
  1.5950578e+00
  6.9641191e-01
  3.8700089e-01
 -1.3816223e+00
 -1.8073009e-02
  1.7463633e+00
 -8.0607378e-01
  5.1425737e-01
  8.9660096e-01
  3.4875071e+00
 -3.0013428e+00
 -1.9064800e-01
  4.1171664e-01
  3.7396294e-01
  1.1000485e-01
  5.6130886e+00
 -3.9115360e+00
 -1.2646242e+00
  7.3128128e-01
  3.5439551e-01
  7.9661560e-01
  8.9416158e-01
  1.0178298e-02
 -5.5339354e-01
 -5.1965487e-01
  7.7566519e-02
  1.4075813e+00
  6.5064542e-02
 -1.8581125e-01
  2.7106524e-02
  1.5205201e+00
 -7.5442888e-02
 -3.6164977e-02
 -1.1801742e-01
  1.5141889e-01
 -4.2248714e-01
  2.4866235e-01
 -4.4215062e-01
 -1.6029886e+00
 -1.4271770e+00
 -7.0900166e-01
 -3.7259095e+00
 -2.3891296e+00
  1.3034889e-01
  6.7327701e-02
 -1.1857194e-01
  9.3384546e-01
 -7.6396358e-01
 -6.2289089e-02
  4.7197975e-02
 -1.5370958e+00
 -3.4509373e-01
 -1.4614344e-01
  3.2659602e-01
  3.9406812e-01
  9.1301024e-02
  1.7190391e-01
  4.0620826e-02
 -1.4033243e-01
 -5.4229107e-02
  7.7196456e-02
  3.7614617e-01
 -4.4723541e-02
  2.3695177e-01
  9.7021587e-02
 -4.9427718e-02
 -2.3687518e-01
  4.2048160e-02
 -2.8430074e-01
  1.2859143e-03
  1.2835234e+00
 -1.8047361e-01
  1.4066501e-01
 -5.4251287e-02
 -1.3374318e-01
 -2.1666247e-02
 -1.2607157e-01
 -1.2806065e-01
 -3.5868566e-02
 -5.4842937e-01
  3.7951834e+00
 -3.6234407e+00
 -2.0725915e+00
 -5.7541764e-01
  1.7373797e+00
  4.2829952e-01
  9.1878074e-01
 -3.6992223e+00
  5.3371016e-02
  1.5468104e-01
 -1.3097681e+00
  1.8185611e-01
 -4.1167685e-01
  1.9144964e+00
  3.0045156e+00
 -2.6703544e+00
  8.9933835e-02
  4.0052676e-01
 -3.6225650e-02
  3.6308986e-01
  2.7559505e+00
  1.4024232e-02
 -4.9514815e-02
 -8.2118340e-02
  7.1085286e-01
 -1.0245470e+00
 -1.3337352e+00
 -5.0877970e-01
  5.6825268e-01
 -2.7446407e-01
 -5.1881358e-02
  1.1242632e+00
  1.2197018e+00
 -8.0279671e-02
  1.0383513e-01
  3.5048287e-02
 -6.8083562e-02
  4.7637522e-02
 -7.9662286e-02
 -2.1726944e-02
 -8.8395312e-02
 -2.4013601e-02
 -4.7896918e-02
 -4.9438372e-02
  3.3034089e-01
 -1.4940909e+00
  1.1597604e+00
 -2.3326933e+00
 -9.6163648e-01
 -1.2290778e+00
  4.1044757e-01
 -2.7574673e+00
 -1.8378557e-01
 -4.8148975e-01
  2.2539792e+00
 -1.4320815e+00
 -3.5631852e+00
 -1.8311579e+00
  6.7533958e-01
  7.3352098e-01
 -2.1752450e-01
 -4.7404013e+00
 -4.9530151e-01
 -9.8519564e-02
 -8.0329227e-01
  3.8817789e-02
 -2.0359042e+00
 -3.0748425e+00
  2.9594591e-01
 -4.1997865e-01
  1.2933009e+00
  5.8638543e-01
 -1.5013121e+00
 -2.6518056e+00
  6.3715601e-01
 -1.3339821e+00
  4.8191273e-01
  6.9422163e-02
  4.8456016e-01
 -2.0668573e+00
  1.8901537e-01
  2.3620626e-01
  4.7409278e-01
  4.8548460e-01
  7.2993569e-02
 -8.8818289e-02
  2.9399173e+00
 -6.0769477e+00
 -3.6515288e+00
  2.3957104e-03
  5.1130074e-01
  2.8642952e+00
 -1.5984811e+00
  1.2784086e+00
 -2.0617893e+00
  1.2481154e+00
 -4.0219089e-01
  3.0213231e-01
 -3.8786426e-02
  2.6916781e-01
  7.1790911e-02
  5.6342095e-01
  1.6200933e-01
 -1.0652117e-01
  1.3430286e-03
 -3.4016799e-02
 -1.0141383e-01
  8.0420166e-02
  2.6565018e-01
 -2.9535593e-02
  1.5260683e+00
 -5.0279755e-02
  3.0077091e-01
 -4.6090275e-01
 -1.4606620e-01
 -4.0150633e+00
 -5.5543894e-01
 -6.7732722e-02
 -2.0815144e-01
  6.2228639e-02
  2.4580620e-01
  1.9679071e-01
  6.7052740e-01
  5.8978158e-01
  1.9083768e-02
  1.9089152e-01
  3.5269722e-02
  4.0828422e-02
  1.6659960e-01
 -1.9080639e+00
 -3.9229356e-02
 -2.5411370e+00
  6.4214118e-02
  3.2963654e-01
  7.0426232e-01
  1.7973796e-02
 -4.4420511e-01
  2.5489086e-01
  1.6783255e+00
  1.2936245e-02
 -4.5895319e-02
 -1.8353000e-02
 -4.9061455e-02
  1.7075862e-01
  1.1919868e+00
 -3.5436906e-02
  2.7494657e-01
 -8.7038375e-02
  1.0815374e-01
 -4.0163070e-02
  3.8621294e-01
  1.9951198e-02
  4.7875542e-02
  3.1600576e-02
  3.2309178e-01
 -1.8297467e-02
  1.0507910e+00
  2.6748004e+00
 -8.2876779e-02
  5.5271443e-02
 -1.7664245e-01
  8.1880569e-02
 -1.4611482e-02
  1.6732422e-01
  1.9625486e-01
  1.2264252e-01
  3.4040710e-01
 -2.2280744e-01
 -1.0410557e-01
 -4.9534999e-02
  7.7314012e-02
  5.1957998e-02
  1.3039558e-01
 -9.5635355e-03
  2.5886744e-01
 -1.3282652e+00
  1.2178284e-01
 -1.1843230e+00
  6.3808876e-01
 -5.7309824e-01
 -6.7015421e-01
 -9.6220642e-01
 -1.5474678e+00
 -4.9704343e-01
 -9.8662384e-02
  1.7728196e-01
 -2.3430097e-01
 -1.9428303e+00
 -5.1948190e-01
 -5.4276470e-02
 -5.6162570e-02
  3.2206243e-01
  3.7080216e-01
  3.0071250e-01
 -1.4056520e-01
 -4.6725368e-01
  1.2047765e-01
  2.3974876e-01
  6.2361681e-01
 -3.3316886e-01
  2.6220959e-01
  3.7359354e-01
 -1.0809310e-01
 -4.2972189e-01
 -2.0347714e+00
  2.8483819e-02
 -1.3550268e-02
 -1.0261109e-01
  2.4977945e-02
 -1.2044379e-01
 -1.1771024e+00
 -3.5111066e-03
 -3.6625273e+00
  9.6588798e-02
  2.2466801e-02
  2.7654868e-01
  2.2459570e-02
  2.6283257e-02
  6.9836855e-01
  4.8090091e+00
 -1.6530887e+00
  4.5011396e+00
 -2.5174851e+00
 -1.6512136e+00
 -1.4045526e-02
 -6.4819293e+00
  4.3617744e+00
 -2.8283867e-01
 -4.1103274e-01
 -3.8971508e-01
  1.4551772e+00
  1.6057216e+00
  1.2876320e+00
 -4.8764125e-01
  2.2205833e-01
  1.0465981e-01
  1.7697029e-02
  4.6888933e+00
  1.7683057e-03
 -5.2617967e-01
  1.1492694e-01
 -2.6255229e+00
  1.3530247e-01
  1.8504158e+00
 -3.4269872e-01
 -5.0680780e-01
  4.6809692e+00
  3.1752682e+00
  1.8995759e+00
  4.3882072e-01
  2.8554797e-01
 -2.6654905e-01
  5.6048924e-01
  7.4594710e-03
 -2.0375766e-01
  1.3504325e-01
 -1.4979273e-02
  4.8809630e-01
 -5.3902820e-02
 -1.0554709e-01
  3.0725572e-01
 -1.1409137e-01
 -2.2351268e-01
 -1.0691297e+00
  9.1786236e-01
  1.4491966e-01
  3.2545824e-02
 -2.9202464e-01
 -1.4605254e+00
 -1.3237828e-01
 -2.4764724e+00
  4.0838447e-01
  1.5959625e-01
 -1.1289179e-01
 -7.9402715e-01
  1.4782730e+00
 -1.9627742e-02
  6.3025910e-01
  4.0987971e-01
 -9.7881250e-02
 -1.9911987e-01
  8.3481558e-02
  4.3955579e-01
 -2.7384212e-02
  8.7242588e-02
 -3.7211660e-01
 -2.1865290e-01
 -5.8128208e-01
  1.1578020e+00
 -1.8958364e-01
 -9.3601334e-01
 -1.0773181e+00
  3.2497573e-01
  3.5331854e-01
 -1.9548665e+00
  3.7067801e-02
 -1.1426026e+00
  6.3151391e-03
 -4.4598994e-01
 -2.3003837e-01
 -7.7263944e-02
 -1.0436709e-02
 -2.7433488e+00
 -2.6818868e-03
  3.5099468e-01
 -1.5438710e-01
 -1.1085492e-02
  2.1312788e+00
 -5.9673306e-02
 -4.7829121e-01
 -7.0133775e-01
  4.6318683e-01
 -2.8515971e-01
  3.0549833e-01
 -5.7098275e-01
  7.6123846e-01
 -2.0951845e-01
  4.6291202e-02
 -1.9718957e-01
  1.7620744e+00
  1.3442034e-01
 -1.1983601e+00
 -6.3930824e-02
 -2.8326499e-01
 -2.7856022e-02
  3.6950034e-01
  1.2762055e-01
  5.1145229e-02
  6.4793080e-03
 -2.3689567e-01
  8.3890446e-02
 -1.8743421e-01
 -9.6787885e-03
 -1.1415206e+00
  5.6038875e-02
  8.9049631e-01
 -8.1806090e-03
 -2.1793218e-01
  4.8516281e-02
 -1.5873261e-01
  1.5562607e-01
 -2.1915665e-02
 -2.2481669e-01
 -2.1030648e-01
 -1.2104354e-02
  1.0204182e-01
  2.0855702e-03
  2.5013486e-01
 -2.9188150e-01
 -5.7430178e-02
  1.1243424e-01
 -8.9301825e-02
 -6.4942293e-02
 -1.4463028e-01
  2.9495904e+00
  8.5866347e-02
 -1.5062498e-01
  3.3432871e-01
 -6.0974043e-03
  8.8852353e-02
 -7.1320012e-02
  8.4422684e-01
  4.1722771e-02
 -1.1198432e-01
  1.9264595e-01
 -5.4835796e-02
  4.9268669e-03
 -1.1077254e-01
 -3.4466259e-02
 -9.2420951e-02
  8.1615765e-03
 -2.4708632e-02
 -4.3475229e-02
  7.3773101e-02
  6.6334680e-02
  6.0529515e-02
  9.6348189e-02
 -1.6869286e-01
 -3.3914361e-02
 -2.2707804e-01
  7.5319722e-02
  4.4908594e-02
 -1.1881052e-01
  2.1228209e-02
  1.8930963e-01
 -5.0992824e-02
 -3.6224404e-01
  1.3967713e+00
  9.2762667e-01
  4.1175413e-01
  2.0458976e-02
  2.6480287e-02
  8.2032375e-02
 -1.3434952e-01
  1.9928108e-01
 -6.5458961e+00
 -4.5185447e-02
  3.8005162e-02
 -6.1612900e-02
 -5.4520774e+00
 -3.6038849e-01
  1.2879217e+00
  8.6667023e+00
  5.7779163e-01
  1.4934172e-01
  1.0395065e-01
 -2.1442886e-01
  3.0859241e-01
 -1.9006863e-01
 -5.5732612e-02
 -1.2248680e-01
  9.4197422e-01
 -6.5574542e-02
  3.4757972e-02
  1.2334867e-03
 -9.7481802e-02
  3.2683438e-01
 -5.0934557e-02
 -1.0463185e-01
 -7.4636400e-01
  2.2668940e-01
  4.5657936e-01
  5.3969417e-02
 -4.4748873e-02
  1.2262866e-01
  5.6401953e-02
 -4.1080594e-01
 -9.1488510e-02
 -4.2631057e-01
 -4.9441837e-02
  3.1115130e-02
 -4.0332083e-02
  1.0433412e+00
  3.6385752e-02
  1.5482166e-02
  4.0249005e-01
  3.3463873e-02
 -1.5311111e-02
 -4.0128991e-02
  6.4747477e-01
  5.1199549e-01
  4.4250613e-01
  8.8955536e-02
 -2.8706017e-01
 -7.0074654e-01
  3.5958886e-01
  1.5162617e+00
  3.6155742e-02
  4.8188392e-02
 -1.2265585e-01
 -5.6605704e-02
 -6.2116463e-02
  2.0810798e-01
 -5.5766654e-01
  8.8016421e-02
 -1.5655689e-01
  2.6427033e+00
 -9.4221868e-02
 -1.5118241e-01
  7.2154380e-02
  1.8095934e-01
 -1.4807314e-01
 -3.6686692e-01
  1.8481073e-01
 -6.1153293e-01
 -6.5864753e-03
 -3.1815633e-01
  1.4893456e-01
 -1.9216040e-01
 -3.5639547e-02
 -6.4913988e-02
  1.6006514e-01
  2.4949672e+00
 -8.4890733e-03
  7.9208337e-02
 -1.5584463e-02
 -2.5137779e-01
  1.0220889e-02
 -2.1144988e-01
  1.3482437e-01
 -2.1365243e-01
  2.6990682e-01
 -2.9564771e-01
 -3.1089091e+00
  1.2530585e-02
  1.5189124e+00
 -4.0195312e+00
 -3.3813946e+00
  1.3309183e+00
  4.9422687e-01
  1.1949941e+00
  2.9010162e+00
 -2.2319181e+00
  7.6744431e-01
 -1.7895514e+00
  1.1950952e+00
 -8.9537036e-01
 -9.3275148e-01
  1.4466488e+00
  3.0705109e-01
  1.1705774e+00
  6.7421488e-02
  3.2708528e+00
 -9.7157699e-01
 -3.9532866e+00
 -4.7293029e+00
  1.1529112e+00
 -2.1549556e+00
 -3.0336661e+00
  2.0797765e+00
 -2.2410662e+00
 -1.7285764e+00
 -2.6752048e+00
 -4.4185174e-01
  6.3188750e-01
  1.2634695e+00
 -4.8544841e+00
 -1.9070232e+00
 -3.0462940e+00
  1.4310141e+00
 -9.7424376e-01
  3.6694155e+00
  2.4791610e+00
 -3.7952836e+00
 -3.2317898e-01
  3.1432910e+00
 -2.3981869e+00
  2.0970159e+00
 -1.7137178e+00
  8.0801100e-01
  2.1602862e+00
 -3.7510660e+00
 -1.2157658e+00
  1.8660862e+00
 -1.4010610e-01
 -3.1526330e-01
 -5.5929102e-02
 -7.8472905e-02
 -1.0840662e+00
  2.8551793e-01
 -6.7918688e-01
 -5.9821922e-01
 -1.5681224e+00
  2.0271094e+00
 -4.0990168e-01
  6.5567821e-02
 -3.3136582e-01
  7.2444743e-01
 -1.1995724e-01
 -3.5789245e-01
  6.8166387e-01
 -5.5143521e-03
 -2.4539692e+00
  9.3218245e-02
  3.5418615e-02
  6.1800532e-02
  2.6710773e+00
 -1.3286300e+00
 -5.8521408e-01
  6.6319281e-01
  3.8480303e-01
 -3.3238748e-01
  2.2538881e+00
  6.9378890e-02
  2.8391388e-01
 -1.4139969e+00
  7.8669626e-01
  2.6456964e+00
  4.6083717e+00
  1.0203677e+00
  1.8119945e-01
  3.5087192e-01
  9.6901804e-01
 -3.2713907e+00
  1.1307864e-01
 -1.2555771e+00
 -1.9507043e+00
 -1.7350856e+00
 -3.3205628e+00
  1.4203623e-01
  1.9334873e+00
  7.1455616e-01
  4.2475536e-02
  8.3905184e-01
  9.4618887e-01
  6.2852196e-02
 -1.2109095e+00
 -5.1443017e-01
 -4.5035252e-01
 -1.9806458e+00
  6.3217610e-02
 -7.7861440e-01
 -1.0905775e-01
  1.8850230e-02
  1.3979636e+00
  5.8814436e-01
 -8.5241914e-01
 -2.2361311e-01
 -6.0240901e-01
  3.3671105e-01
  2.3552954e-02
 -2.2180784e-03
 -5.1903907e-02
  1.5751221e+00
 -1.2645646e+00
 -6.6911846e-02
 -1.7507875e+00
 -9.6280169e-01
  1.2782222e+00
  4.5324221e+00
  4.2570794e-01
 -3.2461488e+00
 -1.5124980e+00
  3.2345524e-01
  6.6405018e-03
 -6.5492481e-01
  4.4847864e-01
  4.0358200e+00
  1.2225683e-01
 -2.0251071e-01
  8.9135217e-03
  1.3734386e+00
 -1.9685157e-01
 -7.1494833e-02
 -1.6874504e-01
  7.8693442e-02
  1.5877367e+00
  1.5760088e+00
  6.1656135e-01
  3.0313320e-03
  1.0455258e+00
  1.3299338e+00
 -4.7882485e+00
 -4.5112619e+00
 -6.8099415e-01
 -5.4500666e+00
 -1.3978103e-01
 -4.0728045e-01
  3.9916950e-01
  5.2283949e-01
 -2.5350091e-01
 -1.7459588e-01
  4.8174269e-02
  3.6189425e-01
  1.2707222e-01
 -2.4286562e-01
  9.0102917e-01
  2.0645702e+00
  1.5364297e-01
  7.3394185e-01
 -1.1346404e-02
 -1.5528014e-01
  1.2713809e-01
 -2.2021904e+00
  7.7791417e-01
  8.0862576e-01
  3.7352731e+00
  3.9899521e-02
 -8.7325412e-01
 -1.4583041e-01
  3.3470899e-01
  7.9282293e+00
  8.6921185e-01
  8.6625487e-01
 -8.6208999e-02
 -1.5681118e-02
 -9.3328699e-02
  1.2405822e-01
  3.2038909e-01
  1.7774252e-02
 -3.3643073e-01
 -4.2002514e-01
  3.0451772e-01
  2.2458656e+00
  7.9246372e-02
  7.9141814e-01
 -4.8337646e+00
 -2.8116512e+00
  3.4053031e-01
  1.7109486e+00
 -1.8275330e+00
 -8.4958881e-01
 -5.7391196e-02
  2.2214558e+00
  1.4687272e+00
 -2.3868863e-01
  3.1121368e+00
 -2.3476508e-01
 -2.2459073e+00
 -4.2563781e-01
  3.8406332e+00
 -1.6525226e+00
  9.9575492e-03
  9.3552799e+00
  1.1966287e+00
 -1.0309894e+00
  4.9076686e+00
  1.4076452e+00
  4.9769518e-01
 -2.1815400e+00
 -3.6223159e+00
  1.3289845e+00
 -2.5681221e+00
  6.0361332e-01
  1.2954479e+00
 -2.6930147e-01
 -1.9404134e+00
  2.7010998e-01
  4.1920280e-01
  2.7123652e+00
  1.1144850e-01
 -1.1616991e+00
  8.2713342e-01
  5.5272500e-03
 -9.7671397e-02
 -6.9528204e-01
  1.1275694e+00
  1.5783902e+00
  1.6248462e+00
 -5.5013888e-02
 -2.6168172e+00
  4.9790865e-01
 -1.6310055e+00
 -1.5425917e+00
  4.7332227e-01
  1.5276154e+00
 -1.6228826e+00
 -2.4410610e+00
 -2.6210909e+00
 -2.3300571e+00
 -2.8672118e-02
  2.0487518e+00
 -1.0598772e+00
 -1.3522718e+00
 -1.0961615e+00
 -9.0497792e-01
 -1.4709334e+00
 -2.3467692e-02
  2.7042942e-02
 -3.6748070e-01
  4.8283079e-01
 -1.7560558e+00
 -4.9865443e-01
  8.0887699e-01
  3.5657713e+00
  7.4988985e-01
 -9.3270320e-01
 -2.7981800e-01
 -1.6692524e+00
  6.5484824e+00
 -5.0198358e-02
 -3.9050400e+00
 -2.0201848e-01
 -9.4112384e-01
  1.1832774e+00
  4.9362868e-01
 -5.8526355e-01
  2.0650280e-01
  2.1623328e+00
 -1.7001938e+00
  2.2279160e+00
 -2.7911820e+00
  3.4734204e-03
  2.1644912e+00
 -3.8529515e-01
  1.8078324e-01
  4.1485200e+00
  1.5013539e+00
 -1.3825998e+00
 -2.3712873e-01
  2.9677616e-02
  5.8208400e-01
 -1.4752740e-01
 -1.0692691e-03
 -8.0002463e-01
 -9.3600303e-01
  1.0002135e+00
 -8.7455714e-01
  2.9410288e-01
 -1.4796982e-02
  5.6851780e-01
 -3.6509264e-01
 -5.2505845e-01
 -4.3011975e-01
 -6.1522192e-01
  2.0624883e+00
 -5.3745717e-01
 -5.6503755e-01
 -2.4829972e-01
 -3.1335580e-01
 -3.0390513e-01
  1.8900882e-01
  2.6560703e-01
  4.9502216e-02
 -4.2759895e-02
 -1.2884194e+00
 -7.8022587e-01
 -4.3608460e-01
 -3.2243171e-01
  8.0100879e-02
  5.6706090e-03
  1.4411571e-02
  4.2761443e-03
 -2.5476613e+00
 -1.9180897e+00
  4.1362286e-01
 -1.4327266e+00
  6.8452284e-02
 -1.6792787e+00
  1.4685401e+00
  3.0875877e-01
  6.9466746e-01
  2.9481707e+00
 -3.9318323e-01
  1.2962230e+00
  1.1122236e+00
 -1.4343582e+00
  3.4652829e-01
 -3.1898091e+00
  2.8029558e-01
  1.1530244e-01
  7.3353714e-01
 -1.1968289e-01
 -1.4454434e+00
  2.2718914e-02
  5.2946877e-02
  3.2660010e+00
  1.7939323e-01
  9.4437993e-01
 -2.5927132e-01
  1.5663198e+00
 -2.7340000e+00
  6.9060260e-01
  2.4084179e+00
  8.8923462e-02
  3.5941339e-01
 -1.0106622e+00
  4.6532168e+00
  8.9551099e-02
  1.0877730e+00
 -3.5152018e-01
  2.4050888e-01
 -6.1942309e-02
  1.9188444e-01
  2.2542520e+00
 -2.5716791e-01
  1.0235469e+00
 -3.5772238e-02
 -6.4438105e-01
  1.8017842e-02
 -7.9742432e-02
  2.5925943e-01
  2.2523385e-04
 -6.3155371e-01
  5.7036448e-02
 -5.8710985e-03
  2.2248515e-01
 -2.5638601e-01
 -1.4419436e-01
 -9.5492512e-02
  6.1231222e-02
  1.2500667e-02
  6.9951899e-02
  1.3492082e-01
  2.8824839e-01
  7.8349844e-02
  1.1790227e-01
  6.7145504e-02
  1.5983981e+00
 -8.2082674e-02
 -1.6029628e-01
  2.5777188e-01
  2.1477118e-01
  1.6638155e+00
 -3.9486536e-01
  6.7383409e-02
  1.1052920e-01
 -7.2155572e-02
  3.5420381e-02
 -7.2929785e-03
 -7.4528491e-01
  2.0251165e-01
 -1.1555950e-01
 -1.6042329e-01
  6.4660590e-03
 -1.9148581e-01
 -3.5431421e-01
 -2.9250705e-03
 -2.4283998e-01
 -3.0588979e-01
 -3.6224124e-01
  6.9877553e-01
 -6.4586478e-01
  1.1079797e+00
 -1.9696985e+00
 -2.0105116e-02
  2.6909442e+00
 -1.0090712e-01
  1.1620543e+00
  5.7917405e-02
 -1.3402758e+00
 -1.0981644e+00
 -2.2323960e-01
 -6.1441976e-01
  3.0307021e-02
 -6.3442183e-01
  1.8185278e-02
  1.8353630e+00
  7.9480845e-01
  3.5790628e-01
  6.2843949e-02
 -5.2317560e-01
 -4.7724971e-01
  4.6241438e-01
 -3.7234925e-02
  3.0482817e-02
  3.0120072e-01
  1.3870367e+00
  4.3416598e-01
 -5.7853468e-02
  1.3910819e+00
  8.5260682e-02
 -7.8915530e-01
  5.0240044e-02
 -1.0913480e-01
  7.3084581e-01
  6.7083254e-02
 -1.5139829e+00
 -9.0651959e-02
  1.7991748e-01
 -8.0336563e-02
 -1.4722345e-02
 -4.4009078e-01
  2.3208427e-01
  5.4210812e-01
  5.3824568e-01
  1.7471465e-01
  3.4073651e-02
  1.3105718e+00
  2.3496737e+00
  9.7880238e-01
 -1.2993929e-02
  1.0298810e+00
 -3.2103140e-02
  2.8458420e-02
 -2.7875879e-01
  1.4321668e-01
  8.0445868e-01
 -8.8830662e-01
  2.1866539e-01
 -4.7223788e-01
 -1.5463444e+00
 -8.6541432e-01
 -2.1940708e+00
  4.7342397e-02
 -1.6977176e-01
  1.4372045e-01
 -5.1682180e-01
 -9.9907708e-01
 -1.6242374e-01
 -1.0963073e-01
  1.1100024e+00
  2.9863161e-01
  4.8448313e-02
 -4.6179265e-01
 -4.6852216e-02
 -6.6523552e-02
  9.8172534e-01
 -2.8355545e-01
 -1.8203872e-01
 -1.5682180e-01
  2.5502944e-02
  3.9792389e-02
  4.0576950e-01
  2.1143777e+00
  1.0708480e-01
 -3.1132850e-01
 -2.2418542e-01
  2.1350503e-02
  6.1137984e-03
 -1.1236223e+00
 -1.8483706e+00
  2.0486924e-01
 -1.1764884e+00
  4.1513212e-02
  1.2941314e-02
 -2.1259348e-01
 -5.0564307e-01
 -2.8417891e-01
  1.4326990e+00
 -6.4023894e-01
 -3.6309236e-01
 -2.8702886e+00
 -1.3491052e-01
 -1.0792145e+00
 -1.0943210e+00
  4.9404405e-02
 -2.4451423e-01
 -4.1582901e-02
 -1.1760305e-01
 -2.4386908e-01
  4.8690613e-02
  2.5224252e+00
  2.3237722e-01
 -9.8795950e-02
 -4.6369299e-02
  1.3567668e-01
 -3.4308735e-01
 -1.1885911e+00
  3.9274344e-01
 -3.4744773e+00
  4.6920344e-01
  2.7612934e-01
 -1.7415205e-02
  2.5996566e-03
  4.3245828e-01
  8.8435216e-03
 -1.3866601e+00
 -1.0245197e-01
 -1.9869807e-01
 -5.9906447e-01
  8.5864954e-02
  1.7790969e-01
 -1.0809036e+00
  1.7717928e-01
  1.2125188e+00
 -2.4071010e-02
 -2.1187551e-02
  2.0241110e-01
 -2.0574290e-01
  1.4962827e+00
  1.4161121e+00
  5.2115344e-02
 -1.3885984e-01
  1.2559989e-02
  1.2868122e+00
 -2.8578895e-01
  1.3347711e-02
  2.5941122e-02
  1.3203958e+00
 -2.6661235e-01
 -6.8045962e-01
 -1.3740534e-01
 -1.9132493e-01
  2.4325466e-01
  2.0915847e+00
 -1.5472779e-01
 -7.4272078e-01
 -1.1299949e-02
 -8.4835626e-03
  8.7868953e-01
  1.1743188e-01
  3.6387622e-02
  2.3439169e-02
  3.0504694e-02
  6.4873308e-02
  2.6473086e-03
  4.1420281e-02
  4.7303966e-01
  1.3064276e-01
  6.0555184e-01
 -6.8264874e-03
 -3.7902482e-02
  9.7469814e-02
  7.4853286e-02
  4.0625125e-01
  1.1317182e-01
 -2.9598320e-01
  7.1798511e-02
  2.2455413e-02
  5.7627672e-01
  3.8333040e-01
  1.4716698e-01
 -8.8689655e-02
  1.1878473e-01
 -1.2092319e+00
 -6.5333441e-02
 -5.7410873e-02
 -1.1395985e-02
  7.4555200e-01
 -4.2369559e-02
  4.7483534e-02
  3.2924834e-01
  7.7007011e-02
 -2.2443345e-01
  1.8745865e-01
  9.0993285e-02
  7.5106006e-03
 -2.3877670e-01
 -3.3051386e-02
 -4.3038838e-03
  7.2689272e-02
 -3.0951684e-02
 -4.0344778e-01
 -1.7198730e+00
 -2.3166364e-01
 -7.1202889e-02
 -4.9817339e-02
  8.1084989e-02
 -7.4559659e-02
  1.4192784e-02
  1.7650503e+00
  4.5506284e-01
 -7.4453361e-02
 -2.5830442e-01
  1.1864900e-02
 -1.0224617e-01
 -1.3531399e-02
  1.8505000e-02
  9.9946819e-03
 -5.1483460e-02
 -1.8360505e-01
  1.0960355e-01
  1.9452640e-01
 -5.3227246e-01
  1.0070699e+00
  6.7895189e-02
  7.5224251e-02
 -3.7454360e+00
 -8.2365322e-01
 -2.0949310e-01
  2.7162266e-01
  2.7138251e-01
  3.3782399e-01
 -3.9519951e+00
 -1.2116276e-01
  4.9387001e-02
  5.3497978e-02
  3.7109917e-01
  3.0125251e+00
  1.9313531e-01
 -8.2841188e-02
  7.9447761e-02
 -2.7228570e-02
  6.8745896e-02
  1.2629865e-01
 -2.9969805e-01
 -1.7137992e-01
  1.8775743e-01
 -3.6874197e+00
  5.2385915e-02
  1.7434829e-01
  3.4944165e-01
  1.4796408e-01
 -2.1806729e-01
 -1.2527908e-02
 -3.5837207e-02
  2.8100232e-02
 -7.2321349e-01
  8.3768899e-03
 -2.8842896e-02
  2.0107107e-01
  4.4242817e-01
  9.5248744e-02
  1.3704303e-01
  7.0568241e-02
  2.3964781e-02
  2.7036032e-01
 -2.5918710e-01
 -3.6066759e-02
 -1.1178782e-02
 -1.7789267e-01
  4.0328413e-02
  1.0004458e-01
 -9.9033296e-02
 -5.3700656e-03
  2.0578551e-01
 -1.6258667e-01
  1.7565010e-01
  2.8713807e-01
 -2.0825820e-01
  1.4800760e-01
 -2.3766614e-02
 -8.7226974e-03
 -2.0758280e-01
 -2.6124585e-01
  1.7170629e-01
  2.2055770e-01
 -8.1261639e-03
  2.4324531e-02
 -2.7368659e-01
  2.5898138e-01
 -1.5304506e-01
 -3.7098378e-02
 -6.9164658e-01
  1.0240816e+00
 -1.0968767e-01
  6.8675682e-02
  8.0319911e-02
 -1.4225358e-01
 -6.7713745e-02
 -1.3927402e-01
  3.3801241e+00
  1.0124401e-01
  8.1772119e-02
  1.4004092e-01
  5.7140678e-02
  1.9832756e-02
 -4.4516660e-04
  3.3832190e+00
 -3.6402409e+00
  3.0112699e-02
  1.1996348e+00
  3.0876307e+00
 -4.5869153e-02
  9.7779594e-02
  1.3100650e+00
 -4.0328283e+00
 -1.9319061e-02
  3.2725170e+00
  7.9824269e-02
  5.2890159e-02
 -6.7880884e-02
 -3.0724060e-02
  4.6384949e-02
 -6.2125023e-02
 -3.2666076e-02
 -9.5360607e-02
 -1.8563112e-02
 -9.4430530e-03
  6.6420496e-02
  3.5190940e-02
 -2.0823665e-01
 -4.7306266e-02
  4.0617507e-02
  5.8264190e-01
 -1.9894992e-01
 -1.2341198e-01
  9.5844483e-01
  2.4895078e-01
 -9.5934138e-02
  1.6300054e-01
 -6.5363452e-02
 -5.7167489e-02
  2.0385221e-02
  3.6712977e-01
 -1.6587295e-01
  1.3410244e+00
  1.7155191e-01
  1.1804795e-01
  6.0378373e-02
 -2.3577221e-01
 -4.1889000e-01
 -4.3747362e-02
 -7.8219361e+00
  2.1088893e-02
  4.5775708e-02
 -3.2742143e-01
  1.6247034e-01
  1.9088615e-02
 -1.3010060e-02
 -1.9650046e-02
 -1.0378599e+00
 -2.3635241e-01
  6.0830116e-02
  2.1237397e-01
 -1.2576858e+00
 -1.3259956e-01
  1.1213882e-01
  4.0907267e-01
  2.0406751e-01
 -5.7634596e-02
  6.5057948e-02
  1.3011956e-01
  6.3256241e-02
  5.9730560e-02
  3.5150978e-01
  1.8885538e-01
  1.5567993e-01
  4.4818312e-01
  3.4688327e-01
 -2.4372146e-02
  1.7019552e+00
 -9.2564099e-02
  1.5421589e-01
 -1.0285416e+00
  7.2991693e-01
 -1.6775191e+00
  1.9913553e-01
  4.3597630e-01
 -4.3413505e-02
  6.8723813e-02
  2.6623975e-02
 -4.3895006e-01
  2.7422855e-02
  1.2642213e-02
 -1.6792174e-01
 -7.9973614e-01
 -7.2334188e-01
  2.5082874e+00
 -2.2467171e-01
 -8.0274515e-02
  9.0225661e-01
  2.0058453e+00
 -5.7652271e-01
 -1.0580349e+00
  9.4133365e-01
  4.8684216e-01
 -1.3000602e-01
  9.8990560e-01
  1.1452974e+00
  5.7950640e-01
 -1.1855160e+00
  9.1873473e-01
  6.8356425e-01
 -1.5413167e+00
  1.5359981e-01
 -5.4715955e-01
 -2.3603533e-01
 -4.0300104e-01
 -8.2968488e-02
  3.9777800e-01
 -9.5438994e-02
  6.6306800e-01
 -5.7490855e-01
  1.6885455e-01
  4.7932243e-01
 -1.2544226e-03
 -4.0484127e-01
  2.5423334e+00
 -2.3151917e+00
  3.0446759e-01
  6.4293392e-02
 -9.6045420e-02
  3.9992002e-01
 -8.7104701e-02
 -9.8002575e-02
 -7.5764850e-02
  6.9207899e-02
  1.6659260e-02
  2.9281840e-01
 -3.0615401e-01
 -2.8223348e-01
 -3.4110103e-02
 -4.2381236e-01
  2.4669212e-01
  7.3292977e-01
  5.8150005e-01
  3.7163326e-01
  2.9548733e+00
  1.7723296e+00
 -3.8601068e-01
  2.5621063e-01
 -1.2203417e-01
 -7.0859557e-01
  1.1008565e+00
  4.7873071e-01
 -9.3612361e-01
  9.0298343e-01
  2.2963209e+00
  2.6351964e+00
 -3.6768994e-01
  4.5926583e-01
 -1.3228821e+00
 -2.1573678e-01
 -6.7369926e-01
 -2.2920360e-01
  1.8181851e+00
  4.4473248e+00
 -1.3430725e+00
 -5.9057164e-01
  1.1117312e+00
  7.2153068e-01
  3.8507298e-01
  1.1085701e+00
  2.5476773e+00
  2.8027632e+00
  6.2077665e-01
  4.4770997e-02
  4.9627356e-02
  1.2709536e-01
  1.4236808e-02
  3.3695426e-02
  8.6996272e-02
 -4.0064130e+00
  2.3986430e+00
 -3.8817111e-01
  2.3165396e-03
  6.1397552e+00
  9.5748234e-01
 -3.0238325e-02
 -1.9103491e-01
 -4.5473039e-01
 -1.0658239e+00
  6.1765563e-01
  1.5924931e-01
  1.8664908e-02
  1.2747560e+00
 -1.0731179e-01
  7.9828054e-02
  1.4532395e-01
 -5.1731396e-01
 -9.9619739e-03
  1.1872475e-01
  1.7111935e-01
 -4.7071630e-01
 -1.8218292e-01
  8.4023440e-01
  1.5889937e+00
 -1.7420313e-01
  2.4928011e-02
  4.0147692e-02
 -9.4015207e-03
 -1.4787495e-01
  1.3156644e+00
  2.7612382e-01
 -4.2566087e-02
  3.0792496e-01
 -6.2607181e-01
  6.2940806e-02
  1.7871666e-01
 -9.9499449e-03
  1.4176105e-01
  2.7827671e-01
  2.4300709e-02
 -3.1332646e-02
  7.1050620e-01
 -2.7474621e-01
 -7.7841699e-02
 -1.2023158e+00
  8.7398851e-01
 -6.3367957e-01
  5.4801335e+00
  1.9860731e+00
 -1.8478380e+00
 -7.3369610e-01
  5.3820294e-01
 -6.0049947e-02
 -5.4273672e-02
  1.9684012e-01
  8.8371384e-01
 -7.7245846e-02
  3.0068913e-01
  5.9812725e-01
  1.1273575e+00
  1.7277673e-01
  1.7226700e+00
  8.3941805e-01
  9.8216459e-02
  6.3565063e-01
 -1.8661472e+00
 -1.0709971e+00
 -3.0665286e-02
  1.0093671e+00
 -1.3591339e-01
  1.2618525e+00
 -2.8097720e+00
  4.2412210e-01
 -1.8347933e+00
  5.0631696e-01
  1.2322502e+00
 -3.6828285e-01
  1.4718474e+00
 -4.0260941e-01
  4.1306672e-01
 -4.2076668e-01
  5.4933012e-01
 -1.4706282e-01
  6.4618152e-01
 -7.8159519e-02
  1.8942261e-01
  5.3469306e-01
 -1.9827180e-01
  2.4189301e-01
  4.0638462e-01
  1.3119421e+00
 -9.3416691e-01
  9.9286520e-01
  8.3241189e-01
  3.4087353e+00
 -9.2794549e-01
  1.1890275e+00
 -3.5689709e-01
 -8.2985622e-01
 -7.6977514e-02
 -1.2594876e+00
  9.1905028e-01
 -2.5480375e-01
  3.7795693e-01
  1.4810669e+00
 -1.3061985e+00
 -1.5772614e+00
  4.2625207e-01
  3.0478055e+00
 -8.1711374e-03
 -2.8809372e-01
  1.6513300e+00
 -1.6314185e+00
 -1.5454297e+00
 -1.0588919e-01
  3.8594368e-01
 -2.6491482e+00
 -5.0438368e-01
  1.0692139e+00
 -1.0100250e+00
 -1.5247838e+00
  4.4147726e-02
 -1.1653956e+00
  1.7433171e-01
 -2.2909468e-01
 -7.4917875e-02
  1.0930517e+00
  1.4009896e-01
  6.9938846e-02
 -1.4984012e+00
 -5.5295172e+00
  1.1833303e+00
 -3.1147175e+00
  6.1058717e+00
 -3.5992780e+00
  1.5220271e+00
 -3.7220545e+00
 -1.2417699e+00
  2.2099981e+00
 -1.9399028e+00
  2.6140122e+00
 -4.3412775e-01
  9.3392324e-01
 -1.4325572e+00
 -2.0666817e-01
  9.9897549e-02
  6.4925253e-01
 -1.6052907e+00
 -2.5076669e-01
 -1.8150667e+00
 -3.8828483e-01
 -3.2817626e-01
  5.8961020e+00
  3.8858619e-01
  3.4402039e+00
 -1.0008291e+00
  2.1863186e+00
 -4.2647777e+00
 -2.1076682e+00
 -4.1953950e+00
 -2.6859367e-01
  7.6534004e+00
  6.2237871e-01
 -5.8298612e-01
  9.3303494e-02
  1.2737522e+00
 -3.4814746e+00
 -2.8653367e+00
 -2.9741518e-02
 -2.4663064e-01
  4.7585651e-01
  7.6198303e-03
  3.6947972e-01
  1.1796521e-01
 -1.0101721e-01
  2.2000041e-02
 -1.6969643e+00
 -1.7538775e-02
  2.5005808e-01
 -1.5144796e+00
  1.4403467e-01
 -6.1919230e-01
  1.0152851e+00
 -4.7100965e-02
 -1.4255421e+00
  1.4469917e+00
  1.7233281e-01
 -8.9905173e-02
 -1.9588163e-02
 -5.4568414e-02
  6.0124196e-02
 -2.9629443e-02
 -4.7094381e-01
  6.7700343e+00
  6.1974943e-02
 -2.7688757e-02
  6.2277323e-01
  3.9892235e-01
  2.5815904e+00
 -1.7454683e+00
 -1.0784079e-01
 -3.9504880e-01
 -5.7724301e-02
 -9.5811170e-03
 -6.3169211e-02
 -4.3282610e-01
  1.8665831e-01
 -1.3017888e-01
 -1.4621798e-02
 -1.1254468e+00
  3.1381450e-03
 -1.6444686e-01
 -2.8961826e-02
 -3.7823617e-01
 -8.3733327e-04
 -1.1743614e-01
  1.7681678e-01
 -8.7777935e-03
  2.4479474e-01
  3.0425275e-02
 -1.2900629e+00
 -2.9548565e-01
  1.7804451e-01
  9.8975265e-01
  2.3491396e-01
  1.1760592e-01
  3.9152700e-01
  3.7093008e-01
  5.7885754e-01
  2.2628917e-01
 -5.5919653e-01
 -1.0875027e-01
 -5.9695262e-01
 -2.4111674e+00
  1.8925929e-01
  3.1331843e-01
  3.0651987e-01
  8.6136967e-01
 -4.5748396e+00
 -1.5283867e+00
 -2.6036125e-02
 -3.8810797e-02
 -2.3692191e+00
  1.5154617e-01
 -9.0822875e-01
 -1.1421157e+00
  1.6524640e+00
 -8.6042148e-01
 -1.8888103e-02
 -2.3615239e+00
 -6.0768825e-01
  8.6508863e-02
 -2.3002151e-01
  1.0444444e+00
 -9.3811888e-01
  6.0517017e-02
 -8.7006503e-01
  5.4412525e-02
 -8.5658252e-02
 -6.2603369e-02
  1.4621323e-01
 -3.1304643e-01
 -5.0322484e-02
 -3.9713907e-01
 -1.0637143e-01
  7.7726084e-01
  1.7795618e-01
  2.8516769e-01
 -3.7473691e-01
  2.3830935e-01
  7.1640533e-01
 -6.3782912e-03
  2.4158932e-01
 -2.4554387e-01
 -1.7240778e-01
  3.4585556e-01
  8.6612239e-02
 -7.4140551e-03
  2.0344785e-01
  4.1811141e-01
  3.7652543e-01
 -1.0622402e+00
  1.5798180e-01
  2.1523409e+00
  7.2127506e-02
 -1.7935985e-01
  3.5640025e-01
 -1.3702063e-01
  2.5705786e+00
  2.2253577e-01
  6.9884527e-01
 -1.1539638e+00
 -1.2059654e+00
 -2.3838994e-04
  3.5990870e-01
 -3.7824965e-01
 -2.0145272e-01
  7.8069987e-03
  9.8271090e-01
 -4.7338560e-01
  8.2902767e-02
 -5.4194555e+00
  1.8111183e-01
 -1.1431997e-01
  9.7291373e-02
 -6.3024126e-02
  2.4395471e+00
 -1.0282166e-02
 -4.6372538e+00
  3.1567943e+00
  1.3066247e-01
 -2.3174284e-02
 -9.3112952e-01
 -1.6634409e+00
  4.4983258e+00
  2.8194418e+00
  3.3177443e+00
  1.3691560e+00
  9.1438848e-01
 -1.0674605e-01
  5.1112676e-01
 -2.2476971e+00
  2.1325441e-01
  1.4956311e+00
  2.9635626e-01
 -8.3819509e-01
  9.0767533e-01
 -2.2968459e-01
 -1.6693731e-01
  1.1043581e-01
 -1.9951910e+00
  3.9457360e-01
 -1.4963800e+00
 -2.6221454e-01
  3.4518287e-02
 -5.8956802e-02
  7.9697126e-01
  5.7866569e+00
 -5.6260574e-01
 -7.3866755e-01
  2.0762129e-01
  3.7499681e-01
  9.7017568e-03
 -5.1672552e-03
  1.5663801e+00
  4.7733814e-01
 -8.5485406e-02
  9.1903813e-02
 -5.2753532e-01
 -9.8958544e-02
  1.4816681e-01
 -4.3311983e-01
 -1.1635385e-01
 -1.3475534e+00
 -8.7690920e-02
  1.4869709e-02
 -9.7216237e-01
  2.2228811e+00
  3.9192905e+00
 -8.8359970e-01
 -2.4914985e+00
 -1.1392041e+00
  8.5895461e-01
 -4.4709224e-02
  4.1939039e+00
  8.1945908e-01
  5.9719324e-01
  7.9184163e-01
 -6.4400303e-01
  7.4185270e-01
  1.6008414e-02
  1.8953736e-01
 -7.1936054e+00
  2.9084784e-01
  1.4466444e+00
 -7.3585182e-01
  4.6131879e-01
  1.2247115e-01
 -1.8004930e+00
  5.9392917e-01
 -5.6360281e-01
 -5.1737422e-01
  7.1633136e-01
  2.7601571e+00
 -1.4802168e-01
  4.0606606e-01
  2.9683127e+00
  8.4125353e-03
 -3.0610974e+00
  1.9045101e-01
 -9.2608839e-01
 -2.4283476e-01
 -9.5445320e-02
  1.8751986e+00
  2.6471472e-01
  6.1367296e-02
  5.7403300e-02
 -1.8522562e-01
 -3.8887601e-02
 -1.3246660e+00
  8.6475241e-01
 -6.5335557e-02
  2.9249263e-01
 -1.8229449e-01
 -7.4456751e-01
 -1.1176112e+00
 -1.2023566e-01
  1.0625562e-02
  2.0571978e+00
  2.1122243e-01
 -6.5724975e-01
 -1.2111554e+00
 -1.1792197e+00
 -6.9340652e-01
 -3.0502599e-01
  8.6953735e-01
 -2.0866892e-01
 -1.6495697e-01
  8.3972073e-01
  1.2271144e+00
 -5.1196200e-01
 -6.7624998e-01
  4.7544822e-01
 -8.0861431e-01
 -2.1189401e+00
  1.3101561e+00
 -1.2074492e+00
 -8.9179039e-01
  5.5131659e-02
  1.5907847e+00
  1.6166901e-02
 -1.8071760e-01
  2.0057996e-01
  1.3251534e-01
  2.6267168e-01
 -3.4492239e-01
 -1.0957112e+00
  2.2005071e-01
 -2.9501739e-01
 -3.7277576e-01
 -7.4369019e-01
 -5.0707536e+00
  3.4591455e+00
 -2.0473739e-02
 -6.0089964e-01
 -1.0843054e-01
  1.7203388e+00
 -1.4993253e+00
  1.1570191e+00
  2.1174799e-01
  1.2930624e-01
 -5.4763351e-03
 -2.3676461e-01
 -9.8285317e-01
 -5.6137520e-01
  3.1448345e+00
  1.0784516e-01
  6.3022035e-01
 -2.5030404e-01
  7.7776831e-01
 -7.5537726e-02
  1.7690647e-01
  9.8521017e-02
  6.4006865e-01
 -1.8971115e-02
  5.3622520e-01
  8.6309433e+00
 -2.1305544e+00
 -4.5672438e-01
 -2.3513310e-01
  9.4376698e-02
  1.5709275e+00
  3.4797084e-01
  1.1418185e-01
  1.0035348e+00
  5.1470613e-01
 -6.8811499e-02
 -1.6031961e-01
 -6.4387724e-02
 -6.3630357e-02
 -3.9956960e-01
  2.5274816e-01
 -2.4787340e+00
 -4.5978852e-02
 -1.3232452e+00
