nep4 3 C N B 
cutoff 8 3.5 438 40
n_max 8 6
basis_size 12 12
l_max 4 2 0
ANN 50 0
 -1.0144167e-01
 -8.3907795e-01
 -9.2960900e-01
 -2.6683767e+00
  4.6825391e-01
 -2.7071285e-01
 -1.7644560e+00
  1.4818236e+00
 -3.1009550e+00
 -1.8739278e+00
  5.1070821e-01
  7.6289719e-01
  1.5180345e-01
 -5.1551419e-01
  1.2680382e+00
 -1.4391007e+00
 -2.6920452e+00
  6.5599740e-01
 -2.4467778e-01
 -9.8380715e-01
 -1.2551558e+00
 -3.0506127e+00
 -2.6224694e+00
 -1.3479590e+00
  2.1555316e+00
 -1.0579333e+00
 -1.1407965e+00
  7.8131247e-01
 -2.0456247e+00
 -2.1505246e-01
 -5.8636794e+00
  2.6189694e-01
 -1.0814043e+00
 -1.5463845e-01
 -3.6495395e+00
  8.0230103e+00
  1.7381091e-01
  3.8381195e+00
 -4.5728545e+00
 -9.5313931e-01
 -2.7765268e-01
 -3.5514112e+00
 -4.6362210e-02
  1.9362984e+00
 -5.6707335e-01
  3.5859730e-02
 -1.3939351e-02
 -8.0218308e-02
  1.5359030e+00
  1.7490329e-01
 -7.8919452e-01
 -1.4842673e-02
  4.5243794e-01
  6.8995899e-01
  6.5604889e-01
 -7.9793468e-02
  5.7119012e-01
  1.6030579e+00
  3.2245573e-01
  8.9832813e-01
 -5.2483313e-02
  2.5147281e+00
 -7.5986576e+00
  3.5440605e-02
  3.1571038e+00
  3.1897297e+00
 -1.0081756e-02
 -2.7499609e+00
  7.7708650e-01
 -2.8369850e-01
  3.4962293e-02
  2.0282156e+00
  1.5298709e+00
  3.2983831e-01
 -2.7267587e+00
  1.8370610e-02
 -1.3991421e+00
  2.0989662e-01
 -4.7619247e-01
 -2.9364440e-01
  9.5131576e-02
 -1.3055575e-01
 -2.2058364e-02
  6.7299759e-01
 -2.9543866e-03
 -1.1004938e+00
  5.5293180e-02
  3.6747642e-02
  1.5926036e-01
  1.4472243e+00
  5.2167785e-01
 -3.0432466e-01
  9.2352617e-01
  3.7073340e+00
  1.2348852e-01
 -1.2427036e+00
 -7.3595494e-02
 -3.1132123e-01
  2.0097695e-01
 -8.3337259e-01
  4.5560355e+00
 -1.0819237e-01
 -6.2123358e-01
  7.5592017e-01
  2.9533548e+00
  9.9817860e-01
  2.7114491e+00
 -6.0291290e-01
  2.6897614e+00
  1.7718407e+00
  5.4906673e+00
  3.0855937e+00
 -1.9931771e+00
  5.6555238e+00
 -1.5792769e+00
  9.9224389e-01
  4.6648011e+00
 -1.6025659e+00
 -1.4107399e+00
  2.1535105e-01
  8.5364610e-01
  8.3822769e-01
 -1.0218273e+00
  3.6647415e-01
  4.5336242e+00
  2.6187623e+00
 -1.1906575e+00
  4.6883812e+00
  1.3712679e-01
 -3.2878497e-01
 -3.4049239e+00
  3.6622865e+00
 -1.7675141e+00
  1.3818969e+00
 -3.6042075e+00
 -1.3902394e+00
 -1.0259907e+00
 -2.4312171e-01
  1.1745019e+00
  4.2174802e+00
 -4.8926172e+00
 -7.6789027e-01
  1.2254949e+00
 -1.2557185e+00
 -1.5404915e-02
  5.2547231e+00
 -1.7919363e+00
 -1.0153643e-01
 -1.4714762e+00
 -3.0406709e+00
  4.6189138e-01
 -5.9268694e-02
  3.6393094e+00
  2.8866367e+00
 -3.5097136e+00
  1.1918044e+00
  3.8668942e-01
 -5.6784291e+00
 -1.5954177e+00
  2.5079522e+00
 -5.7948494e-01
 -4.7714801e+00
 -1.1495193e-01
 -1.9658375e+00
  3.0611691e+00
 -9.4028786e-02
 -1.1761106e+00
  3.6671254e-01
 -2.3945646e+00
 -1.2545496e-01
 -9.2740282e-02
 -4.5612964e-01
 -8.6256834e-03
 -5.8880992e+00
 -1.1534727e-01
 -1.6166046e-03
 -8.4921008e-01
 -1.1795778e+00
 -1.4131016e+00
 -2.1119030e+00
  9.6834540e-01
  2.4714354e-01
 -2.2733333e+00
 -4.4452133e+00
  5.4407191e+00
 -1.0401926e+00
  1.0719085e+00
 -6.3898122e-01
 -4.8386016e+00
  2.3292429e+00
 -1.6323633e+00
  4.5679337e-01
 -4.9513310e-01
  2.5431921e+00
  3.5965855e+00
 -2.4647980e+00
  6.6912994e+00
  2.2998435e+00
  2.2624305e-01
 -4.4352752e-01
  3.9224231e+00
  6.4385012e-02
  8.5932404e-02
 -3.4940131e+00
 -3.1961083e+00
  2.0932290e-01
  7.8077383e+00
 -5.4826684e+00
  3.0182850e+00
  4.9754631e-02
 -1.6929386e+00
 -2.2007844e+00
  3.4979358e+00
  8.6551428e-01
 -1.9835101e-02
  1.2040387e+00
  7.9316624e-02
 -1.1596510e+00
 -8.1356460e-01
  9.4423914e-01
 -2.1962047e-01
  2.4697708e-01
 -3.1207958e-01
 -2.2043325e-02
  1.1372925e+00
  1.7505119e-02
 -6.3317657e-01
  8.5464440e-02
  1.3477506e-01
 -5.4127995e-02
 -3.0678038e-02
 -3.5419483e-02
  3.4361705e-02
  3.4006354e-01
 -9.7080797e-02
 -5.2075051e-03
  2.0415640e-02
  6.7795143e-02
  6.3392997e-02
 -3.8399067e-02
 -4.6715777e-02
 -3.2180583e-01
  8.0236666e-02
  4.5385039e-03
  1.3983917e-02
 -5.9372079e-02
  2.0126686e-01
  9.0893827e-02
 -5.3388640e-02
  1.9626884e-01
  1.7940953e-01
 -1.0841089e-01
  3.7481111e-02
  2.3111203e-01
  1.8533844e-01
 -8.0308631e-02
 -2.8346179e-02
 -5.4630235e-02
 -1.0375980e-01
 -2.8024536e-01
 -2.4007852e-01
  2.5616590e-02
  1.5357821e-01
 -1.5117115e-01
  6.6456234e-01
 -3.9775321e-01
 -2.1299343e-01
  1.8074491e+00
  4.8288798e-01
 -1.8898931e-01
 -4.8306829e-01
 -1.7231023e+00
  1.6458336e+00
  2.3645833e+00
 -4.1728863e-01
 -6.4954469e-03
 -2.5521762e+00
  4.5027983e-01
 -1.1558096e-01
 -1.5500503e+00
 -1.9554015e-01
  1.4468347e+00
 -6.2729847e-01
 -7.8233081e-01
 -3.2826401e-02
  2.8134304e-01
 -1.2572418e-01
 -1.2751721e+00
  1.8084010e-01
  9.3426180e-01
 -3.6261493e-01
 -9.7505599e-02
  9.9528320e-02
  4.1851991e-01
  1.2300501e+00
 -1.2412049e-01
  1.2121888e+00
 -4.5467624e-01
 -1.3175653e+00
  6.9669940e-02
 -5.8567965e-01
  4.3922279e-02
  1.9103537e-01
 -1.1104208e-02
 -9.3094632e-02
 -5.8591795e-01
 -1.5129067e-01
 -7.3645554e-02
 -7.0233005e-01
 -2.0911736e+00
 -7.7415526e-02
 -2.1033389e-02
  3.2055273e+00
  5.8598620e-01
 -7.0277363e-01
  3.7645377e-02
  7.1913016e-01
 -1.6942364e-01
  3.3274496e-01
 -1.6090691e-01
  5.4010894e-02
 -2.8172672e-02
 -1.8313175e-01
  1.0589078e-02
 -3.2137698e-03
  2.2988468e-02
 -3.7062225e-01
 -1.0419113e-02
  4.4260837e-02
  2.5692478e-01
  8.2619242e-02
  9.8344743e-02
  2.3395183e-02
  2.8961110e-01
  5.4946002e-02
 -2.4104900e+00
  2.1368399e-01
 -9.1874760e-01
 -4.3095157e-02
 -3.3320972e-01
  3.7520202e-03
  8.7315582e-02
 -1.6002095e+00
 -2.8875597e+00
 -4.8305169e-02
  1.2199821e-01
 -8.8380672e-02
 -4.5165271e-01
  1.4116208e-01
 -1.5488693e-02
 -9.4702188e-04
 -1.3577803e-02
 -4.6907058e-01
 -7.0155257e-01
  5.8133378e+00
 -1.0017217e+00
  2.7326186e+00
  3.5959490e-02
 -1.5471536e+00
 -1.1516736e+00
  1.2262338e+00
  6.8153143e-01
  1.8058202e+00
  3.6776251e-01
 -8.1652749e-01
  1.9752355e+00
 -4.1265610e-01
 -3.3068728e-01
 -2.0007454e-03
 -8.8401452e-02
 -1.3471138e+00
  6.7385800e-02
 -1.1114623e-01
 -1.9859012e+00
  5.0041848e-01
  3.2321775e+00
 -1.1172555e-01
  9.1261405e-01
 -1.1121102e-01
  5.1542699e-01
  2.2114494e+00
  5.0208318e-01
 -3.9115965e-02
  9.9617839e-02
 -9.9386819e-02
  1.3605338e-01
 -1.4709926e+00
  5.8838046e-01
 -3.8720372e-01
 -1.2009765e-02
 -5.5402603e-02
  3.6375936e-02
 -4.5789409e-01
  1.5852244e-01
 -5.3340536e-01
  2.3667015e-02
 -1.3756393e+00
 -2.1493082e+00
 -1.5500672e+00
 -1.8194779e+00
  5.6906772e-01
  1.2734714e+00
 -2.3895626e+00
 -1.2905216e+00
  3.5635743e+00
 -4.2557526e-01
 -1.7908756e+00
  7.0539325e-01
  5.4620147e-01
 -5.1687407e-01
 -3.6716278e+00
 -1.1680350e+00
  4.0237448e-01
 -5.6446404e+00
 -3.4385173e+00
  2.0273438e-01
  3.3006546e+00
  3.2186129e+00
 -3.0343348e-01
  2.8677544e-01
  4.2220654e+00
 -3.8600546e-01
 -8.7959573e-02
 -6.2357321e-02
 -6.8832798e+00
  2.5063386e+00
  4.8338785e+00
  3.3557272e+00
  1.8327941e-01
 -1.8203768e+00
  9.9028088e-02
  2.3684270e+00
 -5.1126873e-01
 -1.2513837e+00
 -1.0613586e-01
 -5.2184582e+00
 -3.3098480e-01
 -5.1633825e+00
  1.7185827e+00
 -3.1095538e+00
 -3.6197099e-01
 -3.6759601e+00
  3.5850980e+00
  1.0995485e+00
  8.2929894e-02
 -6.4121073e-01
 -3.0827663e+00
  2.9990556e+00
  2.6092343e+00
 -6.1575776e-01
 -3.4465613e+00
  2.0486755e+00
 -1.2039927e+00
 -2.1761000e+00
 -6.4431733e-01
  2.3112054e+00
 -7.2940379e-02
 -2.6750805e+00
  2.6077514e+00
  5.2327359e-01
 -3.0306759e-01
  2.7688228e-02
 -2.0441673e+00
  3.8576877e+00
  4.8417053e-01
  4.4963584e+00
 -5.8559018e-01
  1.1755230e+00
  3.0597013e-01
  2.7089000e+00
  3.7612009e+00
  3.5331763e-02
 -3.2277193e+00
  2.6447055e+00
  1.4679881e+00
  4.8012402e-02
 -1.0620608e+00
  1.6848326e-01
 -2.6483333e-01
 -6.6439873e-01
  3.5901743e-01
 -8.2126975e-01
 -1.2116996e+00
  1.6480498e-01
  4.8825037e-01
  9.0107864e-01
  2.8286271e+00
 -6.4907342e-01
  7.3697373e-02
  1.3335203e+00
  8.7542519e-02
  2.3755837e-02
 -1.6200840e-01
  1.7011002e-01
  9.6464172e-02
 -1.5866753e+00
  2.2171965e-01
 -9.0771204e-01
  1.0706786e-02
  1.6673867e+00
  6.5784544e-02
 -1.9940910e-01
  3.9817922e-02
  1.1645377e-01
 -2.1160424e-01
 -2.6888204e-01
  1.4933406e-01
 -7.5120771e-01
 -2.0325963e-01
  2.2163083e-01
  5.5944717e-01
  2.9095205e-02
 -6.9985145e-01
 -1.0497123e-01
 -1.7712104e-01
  6.8611577e-02
 -1.2887608e+00
 -1.2904059e-02
  4.5427349e-01
  2.7281630e+00
  2.5851029e-01
  6.8533838e-01
  3.5040163e-02
  9.7921945e-02
  4.4193771e-02
 -6.6657163e-02
 -6.0128015e-02
  1.5448534e+00
  1.8114002e+00
 -1.7979718e+00
 -3.7078699e-01
  8.3235121e-01
 -1.4384416e+00
  2.6766929e-01
  3.0660682e+00
 -1.2485614e+00
 -3.4678423e-01
  2.6666683e-01
 -1.5926156e-02
 -1.6858211e-01
 -3.4643412e-01
 -6.0210633e-01
  1.0927987e+00
  1.8848611e-01
  5.0253004e-02
 -2.5007142e-02
 -3.3399751e+00
 -2.2664254e+00
 -4.1830570e-01
 -1.2322484e+00
 -2.5195954e+00
 -1.4921293e+00
 -2.4688026e-01
  2.1983981e-01
  8.0718726e-01
 -7.8690022e-01
  1.2337246e-01
 -1.8691580e+00
 -1.3139722e-01
 -4.4842877e+00
  1.2638555e+00
  9.8082441e-01
  1.7263901e-01
  1.7511892e+00
  6.4347613e-01
  1.2486902e+00
  1.9169638e-01
 -3.4252161e-01
 -3.2220104e-01
  1.0385679e-01
 -3.2862654e-01
  3.9367777e-01
  3.0307552e-02
  2.7081197e-02
  7.4203503e-01
  3.9703332e-02
 -3.7118530e+00
  1.3901566e-01
  1.0224754e+00
  6.8559080e-01
  2.3047950e-02
  2.5541351e+00
 -2.8482276e-01
 -3.0783012e+00
 -2.3152449e+00
  4.7325554e-01
 -6.0638204e-02
  3.4213535e-02
  1.3508745e-01
 -7.5704455e-02
 -8.9749062e-01
 -3.6818705e-02
 -1.6752756e+00
 -4.5246449e-01
  1.7441300e-01
  1.6366534e+00
 -9.3397593e-01
 -3.5607287e-01
 -5.1735044e-02
  5.6361037e-01
  1.6812514e-01
  2.4424317e+00
  2.6833963e-02
 -2.3569959e-01
 -1.3148844e+00
 -4.9246922e-02
 -1.2553859e+00
 -3.6316326e-01
  1.0265135e-02
 -6.0037039e-02
 -9.6235871e-03
  7.7428274e-02
 -6.2243380e-02
  3.9000633e-01
 -1.7423877e-01
  1.3810566e-01
  1.5083030e-01
 -1.2790304e-01
 -7.4968003e-02
  5.2491855e-02
 -1.5823130e-02
  2.7253723e+00
 -7.5642012e-02
 -4.8285853e-02
 -1.2603723e-01
 -4.0711183e-02
  2.9647363e-02
  1.7551403e-02
 -2.4047883e-02
 -1.3238710e-01
 -4.0432733e-02
 -5.6113750e-02
 -2.8694481e-02
  8.6928055e-02
  5.1240489e-02
  7.7714294e-01
 -2.3418125e-02
  4.2284150e-02
 -7.4730590e-02
 -6.3305400e-02
 -3.3775988e-01
  3.2695010e-01
  4.5741059e-02
 -2.6212493e-02
 -2.4155496e-02
  4.2391777e-01
  3.2928120e-02
  2.5864297e-01
  1.0186153e-01
  3.3758226e-01
 -2.2560950e-01
  1.4188850e-01
  3.1116858e-02
 -1.0477368e-01
 -3.4461647e-02
  3.4692518e-02
  2.8851017e-01
  5.1848635e-02
  3.7204602e-01
 -3.7125230e-02
 -5.1431787e-01
 -2.1532259e+00
 -8.0620170e-01
  5.0621903e-01
 -2.0116053e+00
  2.9288533e+00
  3.3197746e-01
  2.4677141e+00
 -3.4500849e+00
 -8.8939112e-01
  4.3985555e-01
  6.1778188e-01
 -1.5388701e+00
  3.2268980e+00
 -1.4008261e+00
 -1.2090104e+00
 -1.1427338e+00
 -3.9737313e+00
 -4.3715076e+00
 -2.5609732e+00
  8.8512201e+00
 -1.1601914e-01
 -6.0955044e-02
 -3.4866776e+00
  1.8462529e+00
 -1.0430221e-01
  7.7072406e-01
 -5.8242601e-01
 -7.2650008e+00
  6.2176456e+00
  4.5248890e-01
  6.5406851e-02
  1.7595953e+00
  5.4650271e-01
  6.0600775e-01
 -3.3800876e+00
  1.8716203e+00
 -1.6793211e-01
  3.4811132e-02
  4.1450024e+00
 -3.3473535e+00
 -2.8388873e-01
 -1.5319809e-01
  4.8708767e-01
 -5.3980488e-01
  8.6657596e-01
  1.2196764e-01
 -9.0854168e-01
  7.4623960e-01
 -1.3855910e+00
 -1.1903402e+00
  6.6807771e-01
  2.1175613e+00
  2.5934404e-01
  1.9486159e+00
 -2.3433330e+00
  3.2171950e-01
  1.2065600e-01
 -1.1137455e+00
  1.3942008e+00
  3.2785268e+00
 -2.5318167e-01
  5.4682994e+00
 -3.2792850e+00
  1.6481546e+00
  5.2959752e-01
 -1.5048236e-01
  8.5272670e-01
 -1.6679534e+00
 -2.4260657e+00
 -3.1446731e-01
  3.5526440e+00
 -9.3300498e-01
  2.1370616e+00
 -4.1369338e+00
  2.1240695e+00
 -4.5416923e+00
  2.9403171e-01
  8.3881259e-02
  6.7094648e-01
 -6.1012244e-01
 -1.3486845e+00
 -8.7790377e-02
 -3.6232202e+00
 -4.3416962e-02
  2.6877584e-02
  1.9835643e+00
  2.6721442e-01
  3.1881125e+00
  3.3869019e-01
 -6.9012308e-01
  2.0217502e+00
  4.3675500e-01
  1.8277211e-01
  4.6340494e+00
 -5.0903445e-01
  2.8319745e+00
 -2.6500413e-01
  8.4843189e-03
  2.4394652e-01
 -3.4346990e-02
 -6.9085259e+00
 -1.0589405e+00
  8.1137013e-01
 -8.3715594e-01
  8.2536966e-02
 -1.8318602e+00
 -3.8872480e-02
 -6.3198006e-01
 -2.9787323e-01
 -3.7789690e-01
 -5.8150725e+00
 -4.1631818e+00
  6.0056157e-02
  6.5120481e-02
  6.9723220e+00
 -3.5043390e+00
 -1.2233260e+00
 -1.7021381e+00
  1.1572876e+00
  1.3497679e-01
 -3.5212883e-01
  3.7515089e-01
 -3.0987203e+00
  2.1961832e+00
 -2.1721029e+00
  1.9433901e-01
  2.6644049e-02
  4.7574311e-02
  1.0036011e+00
 -7.8757070e-02
  4.5616063e-01
 -1.8718741e+00
  3.3393968e-02
 -5.2790457e-01
  3.1282866e-01
  6.3885460e+00
  4.7417991e-02
  5.0627455e-02
 -2.7284428e-02
 -5.2743860e-02
  5.7692180e+00
  8.5727900e-02
  8.7470554e-02
  4.1404136e-02
 -2.0009655e-01
 -3.1589828e-02
 -2.0680641e-01
 -7.2626793e-03
 -4.3491278e-02
 -1.7005321e-01
  4.0305007e-01
 -1.4876725e-01
 -3.1498936e-01
  3.5184300e-01
 -1.0481302e+00
 -2.7930012e-01
  8.2551010e-02
  1.9137348e-01
 -9.0931517e-01
  3.5744160e-02
 -1.2057775e+00
 -9.5908964e-01
  8.0386356e-02
 -3.4776855e-02
 -1.8897043e-01
 -9.5499784e-01
  3.9961632e-02
  4.0411577e-04
  1.5986510e-02
  6.4427271e-02
  2.5106601e-02
 -1.6924791e-01
  2.7092227e-01
 -5.8745958e-02
 -3.0972689e-01
  6.3708323e-01
 -1.4997959e+00
  1.4558856e+00
 -6.7631781e-02
 -1.6726481e+00
 -1.0841058e+00
 -3.3507749e-01
 -2.1259880e+00
 -1.1558222e+00
  2.0481355e-01
  1.2880529e+00
  1.0381988e+00
 -1.0806133e-01
  3.0821667e+00
 -4.9413610e+00
  2.3626707e+00
 -2.4284400e-01
  1.3129359e+00
  1.5236195e+00
 -1.4380647e-01
  1.7646189e-01
  2.1985779e+00
 -1.1202538e-01
 -3.1953712e+00
  1.5489051e-01
  2.8476844e+00
  1.1488766e-01
  1.8589945e-01
 -2.0777734e-01
 -2.6791722e-01
 -5.7185691e-02
 -7.5890213e-01
  6.1453426e-01
 -1.7820564e-01
  1.0131450e+00
  1.4858294e+00
  1.5443532e-01
 -3.6925960e-02
 -2.7418394e-02
  1.6183612e-01
 -2.2586498e-01
  3.2604069e-02
 -2.0365927e-01
 -1.1186475e-01
  1.8941996e+00
  1.0789106e+00
 -2.8034756e+00
 -4.8049170e-01
  1.4406248e+00
  8.8235545e-01
 -1.5650997e-01
 -3.7475643e+00
  8.6842522e-02
 -1.2678012e+00
  2.0790143e+00
 -2.4655302e+00
 -1.9829966e-01
 -4.4365396e+00
  2.9672980e+00
  9.2064285e-01
 -3.3123934e+00
  4.3073481e-01
 -7.9665053e-01
 -2.3573616e-01
  2.6087358e+00
  2.8068244e+00
 -3.1258020e+00
 -2.3990216e+00
  5.4130397e+00
  2.3420875e+00
 -4.1230276e-01
 -5.8921176e-01
  7.6655631e+00
 -3.0980468e+00
 -2.0765312e+00
 -1.5862803e+00
 -1.2071989e+00
 -5.2396256e-01
  6.5189511e-01
 -3.7188480e+00
 -2.3221035e+00
 -1.3951951e+00
 -1.5047047e-01
  3.8999295e-01
 -6.9146752e-02
  2.6543798e+00
  9.7015816e-01
 -7.1712178e-01
  6.3913469e+00
  4.6435890e-01
 -3.5758638e+00
  4.9205661e+00
  1.3901623e+00
  4.2494789e-01
  5.1462526e+00
 -1.9992557e+00
  4.4801196e-01
  1.8205132e+00
 -2.9770753e+00
  5.7633001e-01
  9.4612259e-01
  1.8662480e+00
 -1.7853011e-01
 -1.3322294e-01
 -9.4992226e-01
 -8.6709380e-01
  1.0793544e+00
 -3.0984235e-01
  7.9267097e+00
  7.2428524e-02
  4.8127031e-01
 -5.3785911e+00
  2.2063880e+00
  1.6489898e+00
  1.6797816e+00
  5.9899101e+00
  4.4303894e+00
 -3.3181670e+00
  1.0432979e-01
 -1.6872175e-01
  3.1708355e+00
 -1.6171443e+00
  1.9716839e+00
 -6.6259134e-01
 -8.0691278e-02
 -1.7528266e+00
 -1.0721916e-01
  4.2797440e-01
  7.9136178e-02
  1.0774343e+00
  3.8565868e-01
  2.0467107e-01
  2.3517952e+00
 -3.9080957e-01
 -2.3266357e-01
  1.5764607e+00
 -2.5562613e+00
 -1.8999377e+00
  5.0126119e+00
  1.0692902e+00
 -4.5078640e+00
 -2.1670763e+00
  1.6106984e-01
 -5.7114953e-01
 -1.6931486e+00
 -2.0498291e-02
 -1.8158287e+00
  1.8203150e+00
  3.8902972e+00
  4.2370383e-02
  4.5846936e-01
  1.6058667e-01
  4.8170042e+00
 -6.2023228e-01
  4.9042788e+00
  4.3316293e-01
  3.6792815e+00
  1.1014278e+00
  5.9781354e-02
  3.5942843e+00
 -2.0353942e+00
  1.4508349e+00
  3.0114522e+00
  5.4866811e-03
 -2.4087260e+00
  3.1697728e-02
  3.1311202e+00
  1.4988986e-01
 -5.1208073e-01
  1.0760878e-01
  4.6721514e-02
  3.1533307e-01
  6.6420920e-03
  2.4186273e+00
  1.6339319e+00
 -2.1651021e-01
  1.8210964e+00
 -2.6345689e+00
  1.2494051e+00
  3.3645880e+00
 -2.0296946e+00
  6.8320996e-01
  2.0834837e+00
  1.9851495e+00
 -2.0592937e+00
 -3.3691683e-01
  1.7554055e-01
 -3.2252288e-01
  4.2938209e-01
 -3.8083189e+00
 -4.4032276e-01
 -1.1199594e+00
 -6.1631389e+00
  5.2677698e-02
  4.5865345e+00
 -4.8572174e-01
 -2.7757052e-01
  6.1046969e-02
 -6.3715495e-02
 -3.9411480e+00
  2.1781260e-01
  2.4115341e+00
  1.6027589e+00
 -3.1123831e+00
 -1.7840654e-01
 -1.7444454e+00
  1.6377716e-01
 -4.7908133e-01
  3.3786470e-01
 -1.9594917e-01
 -9.4964200e-01
 -5.0141317e-01
  8.9274958e-02
  4.5156309e-01
  5.4131402e-03
  3.3286574e+00
 -6.7813374e-02
  7.7851593e-02
 -2.9862835e+00
 -3.9075282e-01
 -7.9597794e-02
  1.2399577e-01
 -1.9058456e-01
 -2.6551908e-02
  1.5010057e-01
  7.7016987e-02
  2.9790857e+00
 -9.7628438e-01
  1.5581453e-01
  4.0008688e+00
 -3.9751011e-01
 -4.3055806e-02
  3.9804537e-02
 -4.0612914e-02
 -2.1789223e-01
  3.4191482e-02
 -1.0685998e-01
 -1.6059014e-01
 -1.9053073e-01
  1.7169900e-02
  1.0705493e-02
 -1.1206300e+00
  6.6696294e-02
 -4.3147722e-01
  4.1786935e-02
 -1.2853490e-02
  7.5458055e-03
 -1.9503401e-01
  3.7692122e-02
  3.2174066e-02
 -1.6997235e-01
 -1.0460944e-01
  1.2709549e-01
  5.7246357e-02
 -8.7171584e-02
 -3.3140904e-01
 -1.7088166e-01
 -4.1816252e-01
  9.5874034e-03
 -1.1007938e-01
 -1.6944300e-01
  8.8127658e-02
 -8.9633115e-02
 -4.8044287e-02
 -5.2695137e-01
 -3.4624213e-01
  1.8977951e+00
 -8.1342322e-01
  3.6477921e+00
 -1.0475069e+00
 -1.6540692e+00
  1.3090637e+00
  2.2037330e+00
 -2.8612779e-02
 -2.3274975e+00
 -1.4755479e+00
  2.7278511e-02
  5.9949784e+00
 -1.9787893e-01
  2.3720052e+00
 -1.1869889e-01
  5.6490272e-01
 -9.7270423e-01
 -4.3330598e+00
  3.3760062e-01
  1.6446440e+00
  4.8868147e-01
  8.7879014e-01
  7.3232406e-01
 -3.0967081e+00
 -7.3750038e-04
 -1.1739995e-01
 -1.9039583e+00
  5.2019942e-01
 -7.2964534e-02
  8.7287873e-03
 -1.8244479e+00
 -1.6937320e-01
 -4.6113734e+00
 -2.2851460e-02
 -2.1194702e-01
 -9.9591441e-02
 -1.5944031e-01
  1.1857526e-01
  1.0007561e-01
 -2.9371882e-02
 -8.8824324e-02
  6.6270001e-02
 -9.6798800e-02
 -5.7209622e-02
  7.1105677e-01
 -1.9874036e-01
 -6.1371398e-01
 -3.1089051e-02
  2.6043957e-02
  1.8050642e+00
  1.9102134e-02
 -7.4472952e-01
  8.4857124e-01
 -5.8022994e-01
 -5.2642030e-01
  1.3456030e+00
  9.8409367e-01
  1.2501855e-01
 -1.6066721e-01
  5.0425909e-02
 -1.9343888e-02
  2.5250810e-01
 -9.9458200e-01
 -4.7852707e-01
  4.1275048e-01
 -4.4990626e-01
  9.7960077e-02
  6.7270631e-01
 -2.8788263e-01
 -5.3276026e-01
  8.3350847e-03
 -1.4231420e+00
 -9.7600019e-01
 -2.5615433e-01
 -1.8861339e+00
  1.2572002e-01
 -3.1433102e-01
 -3.4128711e-01
  3.9368436e-01
 -5.5073556e-02
  1.8557627e-02
 -4.7059365e-02
  1.7611714e-01
  6.6954702e-02
  3.6446374e-02
  3.3639827e-01
 -1.1554514e+00
  1.2063441e-01
  2.6252401e-01
  8.7122446e-01
  2.3519911e-01
 -3.7473661e-01
  2.0984191e-02
 -4.3879673e-02
 -2.7470970e+00
 -1.2600465e-01
 -1.4042490e-02
 -2.6220068e-01
 -1.6951285e-01
  2.0505448e-01
 -1.9685237e-02
 -2.1114372e-02
 -1.3423416e-01
  8.3509190e-03
 -4.8335154e-02
 -4.0738648e-01
 -1.7679769e-01
 -1.1915500e-01
 -2.4999291e-02
 -3.8559583e-01
  1.3579750e+00
 -2.1613711e-02
 -1.1780585e-01
 -6.0808856e-02
  5.5440021e-01
  8.2755528e-02
  9.2388876e-04
 -2.7610365e-02
  6.9759525e-03
 -2.1332573e-02
  1.1457624e-02
 -1.9741544e-01
 -1.4100359e-01
 -1.6938406e-01
 -3.3021528e-02
 -1.4485607e-01
 -4.3130085e-02
  4.0171627e-02
 -1.4516948e-01
  2.4594766e-01
  2.6186904e-01
  1.5648526e+00
 -3.0705514e+00
  7.3610014e-01
  4.2422840e-01
  1.5750244e+00
 -2.2093196e+00
 -1.8727093e+00
  1.8120863e-01
 -3.5186098e+00
  1.8940775e+00
 -1.1989949e+00
 -8.3964169e-01
 -2.4922481e+00
 -2.5864856e+00
  5.6202918e-01
 -6.0731091e+00
 -3.0930802e-01
  3.9565156e+00
  3.4494575e-03
 -7.3491483e+00
  2.5939741e+00
  1.1811692e-01
  4.5877612e-01
 -1.3368845e-01
  5.5732880e-02
 -4.9471918e-02
  3.3197517e+00
 -9.7988081e-01
  2.0596519e+00
 -6.0605850e+00
 -3.7943152e-01
  1.2257528e-01
  2.2451645e-01
 -3.8480234e-01
 -3.3204465e+00
  2.5853965e+00
 -6.3777220e-01
  1.2468929e-01
  2.1677244e-01
  4.3223809e-02
  1.5177530e+00
  6.1995547e-02
  2.7533956e-02
 -1.7378092e-02
  1.8147670e-01
  2.3457933e-02
 -5.9614807e-01
  1.0695114e+00
 -1.1414173e-01
  2.4943964e-01
 -9.4733909e-02
  5.3229176e-02
 -4.8802423e-01
 -1.9902743e-01
  3.6616649e-02
 -3.7168000e-02
 -1.2349463e-01
 -2.6385523e-02
  3.7240833e-01
 -1.3042104e-02
  2.0335395e-02
  9.9246427e-02
 -2.6401806e-01
 -1.2396653e-01
  5.0292969e-02
 -9.8113105e-02
  2.3861903e-01
  1.5344584e-01
  2.9865745e-03
  1.8105036e-02
 -1.2707895e-01
 -9.7319350e-02
 -3.0350006e-01
 -1.6705986e-02
 -1.3304848e-02
  4.6020094e-02
 -1.8854053e-01
 -2.1344236e-01
  4.4144088e-01
 -4.2098057e-02
  9.1109738e-02
  1.9362062e-01
  9.3384068e-03
 -4.7517311e-02
  2.1260709e-01
  4.4872209e-01
  6.6327155e-02
  4.1834456e-01
 -1.4569221e-02
  5.5039799e-01
 -7.7330774e-01
  1.1595217e-01
 -3.8622107e-02
  4.9376068e-01
 -5.2508559e-02
 -1.8153511e-01
 -5.5084133e-01
 -2.4316981e-02
 -2.1714422e-01
 -7.2217196e-01
 -1.5090953e+00
 -8.1246209e-01
 -2.7382802e-02
  3.0578863e-02
 -1.8659741e-01
 -2.4251445e-01
  4.2022163e-01
 -5.6993689e-02
 -2.7745992e-01
  8.4863864e-02
  5.3208321e-01
 -1.0315977e-01
 -1.0382580e-02
  1.4756447e-01
 -7.0731324e-01
 -2.4671382e-01
  1.8651456e-01
 -1.9529462e-01
 -2.1766670e-02
 -2.2677152e+00
 -2.3505058e-02
 -4.9550527e-01
  9.8298806e-01
  5.0436258e-02
 -1.1586590e-01
 -8.7482834e-01
  1.8958998e-01
 -1.1073647e-01
  1.0988525e-01
 -3.0878071e-02
 -1.9899088e-01
 -3.0173135e-01
  1.5856843e-02
 -1.7743936e-01
  2.0037644e-01
  3.3571692e+00
  6.4118817e-02
 -1.7945906e-02
  4.9162030e-02
 -1.9515559e-01
 -3.5609320e-02
  1.2719488e-01
 -2.1774823e-02
 -1.9052143e-01
 -2.7168784e-02
 -1.1404630e-01
  2.8747465e-02
 -1.0668393e-01
  7.0214137e-02
 -4.5052364e-02
 -1.9737533e-01
 -3.4096569e-01
 -1.5090695e-01
 -4.3615498e-02
  4.0581565e-02
  6.2294930e-02
 -1.6331438e-02
 -5.8184810e-02
 -2.4317360e-02
 -4.6533983e-02
 -1.9961134e-01
 -2.0354149e-01
 -9.7602621e-02
 -1.5845450e-02
  1.2550084e-01
 -6.6955966e-01
 -8.9325547e-02
  6.5549001e-02
 -3.3245131e-03
 -1.1197720e-01
 -7.5163960e-02
 -4.8102126e-02
 -5.3867891e-02
  3.7129635e-01
 -8.4309775e-01
 -1.1742289e+00
  5.4208622e-03
  2.6833597e-01
 -1.3931833e-02
  5.0113881e-01
 -1.4761277e-01
  8.4557301e-01
 -8.0509609e-01
 -7.3510170e-01
 -4.0459076e-01
  1.0377809e+00
  3.9191282e-01
 -2.3491405e-01
  4.3083528e-01
 -1.3425936e-01
  1.5156559e+00
 -2.0618873e-02
  4.5027828e-01
  4.4840908e+00
 -8.0641985e-02
  7.0646989e-01
  2.0206513e-02
  2.0948079e-01
  1.5725925e+00
 -1.4918348e-02
  1.8810461e+00
  4.4161626e-03
 -1.9669551e+00
  1.3576780e-01
 -1.0002766e+00
  1.3064913e-02
 -3.7121597e-01
 -3.7055218e-01
  1.5297261e-01
  3.4707260e-01
 -1.6978437e-01
  1.1316709e-01
 -1.7804696e-01
 -1.1681417e-01
  4.6514085e-01
 -1.4646056e+00
  5.9292465e-01
 -1.8736117e-02
  7.0769452e-02
  6.2996082e-02
 -6.0249902e-02
  8.8491607e-03
  3.1892261e-01
 -8.5433137e-01
 -4.1493848e-02
 -2.2430336e-01
 -2.9717024e-02
 -4.8795703e-01
  8.1790343e-02
 -5.9053016e-01
  2.3132315e-02
  4.9045689e-02
  4.3609780e-03
  4.3168470e-01
 -3.6979504e-02
  6.2402844e-01
  1.0705014e+00
  6.4157024e-02
 -4.5901494e+00
 -4.0123656e-02
 -5.1574003e-02
  1.4009848e+00
 -1.5248217e-01
 -1.3261979e-02
 -9.8029718e-02
 -5.3856187e-02
 -1.1345450e+00
  1.4093978e-02
  4.5181572e-01
  8.6472273e-02
  1.2294669e-02
 -1.0388094e-01
 -1.2249277e-01
 -2.8705344e-02
 -3.0057091e-01
  3.7485287e-01
 -2.2817707e-02
  4.3581977e-02
 -2.0437716e-01
 -3.6053598e-01
 -2.9162344e-02
  5.4863237e-02
 -9.5744021e-02
  6.8202913e-01
 -6.1366591e-03
  3.1654526e-02
  1.6863511e+00
  2.2618227e+00
  4.0449288e-02
 -5.4845452e-01
  8.1341304e-02
  3.7221413e-02
 -3.5365053e-02
 -3.6401367e-01
  9.6180849e-03
  9.2608422e-02
 -2.2440623e-03
 -1.0653116e-01
 -5.0271833e-01
  4.5247637e-02
  2.7502534e-01
  3.2313946e-01
  1.9895110e-02
  3.5743943e-01
  3.3958605e-01
  1.2540635e-01
  5.9680074e-02
  6.3606369e-01
 -1.3909584e-01
 -7.7325737e-01
 -2.1945311e-01
  1.0979053e+00
 -4.4555071e-01
 -1.3145510e+00
 -2.9628626e-03
 -5.1827520e-02
 -4.6420485e-02
  9.9510901e-02
 -5.2910652e-02
  3.6829878e-02
  7.8514978e-02
 -3.9568491e-02
 -5.6033451e-02
 -3.0763024e-01
  1.1564219e-01
 -2.4347685e-03
 -8.9987263e-02
 -3.3129040e-02
  4.8404384e-02
  2.9671624e-02
 -3.1356171e-01
  3.5252854e-01
 -1.8650237e-01
 -1.3542266e-01
  2.3736973e-01
  1.4208235e-02
  8.2762644e-02
  1.2473014e-01
  1.8364207e+00
 -7.4548952e-02
 -2.3547526e-01
 -1.5233497e-01
  9.3904054e-03
 -1.6249312e-01
 -4.9780458e-02
 -2.1167128e-01
 -5.0131448e-02
  1.4243959e-01
 -3.8693164e-02
  4.0414479e-02
  1.0669225e-01
  1.9047283e-02
 -5.4605667e-02
 -1.9605946e-02
 -1.6482943e-03
 -3.6029601e-01
 -3.9007065e-01
 -2.3852316e-01
 -2.3778565e-01
 -9.8507769e-02
 -1.1716835e-01
 -4.5001107e-01
  2.5037724e-01
  2.3645591e-02
 -7.1958832e-02
 -9.8719746e-03
 -5.0145634e-02
  7.2591402e-02
  5.6441501e-02
 -1.0879973e-01
 -9.0041701e-03
 -7.3592299e-01
  5.4988928e+00
 -4.6195608e-01
  1.2819870e+00
  2.0441358e+00
  6.8163592e-01
  1.2179603e-02
 -7.6469928e-01
  1.4893084e+00
  3.2250950e+00
  7.2493559e-01
 -1.8519761e-01
  1.3407788e-01
  2.7599606e-01
 -9.8147202e-01
 -3.8346937e-01
  3.5260842e+00
 -2.5101673e-02
  4.6016198e-01
 -5.6327802e-01
 -3.1184344e+00
  4.6836371e+00
  6.1326373e-01
  5.1109796e+00
 -3.3665268e+00
 -1.1633451e+00
 -1.9853625e-01
  2.1199415e+00
  1.7007496e+00
  4.6419868e+00
 -1.8364323e-02
  1.2978913e+00
  1.0015659e+00
 -7.5054459e-02
  4.9299747e-02
  1.2055678e+00
  3.2325387e+00
 -5.8029696e-02
  5.0030500e-02
  1.1761139e-01
 -1.4871623e-02
 -1.7635664e-01
  7.8669059e-01
 -4.1243888e-02
  7.8291275e-02
 -1.2659205e-03
 -7.0001349e-02
  8.2748868e-03
  5.6770337e-01
 -2.8998339e-01
  2.6677843e-02
  1.3925388e-02
 -6.9317408e-02
 -3.5588503e-01
  1.0283303e-01
  5.0601263e-02
  2.6860514e-01
  2.1957371e-01
 -4.8766315e-01
 -3.0740544e-02
 -9.1074623e-02
 -2.2781786e-02
  2.2797937e-02
 -7.2844073e-02
  8.6217634e-02
  9.0973631e-02
  2.2541380e-01
 -4.9117923e-02
  2.5683752e-01
  4.8105337e-02
 -1.1889861e-02
 -3.7217323e-02
  7.7110045e-02
 -2.5374432e+00
 -2.7007198e-01
 -1.4471136e-01
  1.1976287e-01
  9.1721058e-02
 -3.1190909e-02
  7.7784926e-02
 -9.6788548e-02
 -1.0523761e-01
 -1.6867527e-01
 -5.6662664e-02
  4.1569997e-02
  6.8771553e-01
 -1.9173498e-01
 -1.8325680e-01
  1.3341067e+00
  4.1108942e-01
 -8.3197361e-01
  2.4663937e-01
  1.0305943e+00
 -2.3885156e-01
 -2.1380544e+00
 -5.7011598e-01
  5.7766633e-03
  3.3469861e+00
 -2.0116825e-02
 -2.0893717e+00
 -1.8308216e-01
  2.8073964e-01
 -1.2653752e-01
 -6.6446096e-01
 -3.1150868e+00
 -3.1181750e-01
 -8.0256753e-02
 -5.2773529e-01
  4.4051555e-01
 -2.9471242e-01
 -7.7324939e-01
  9.4460732e-01
  2.7083872e-02
 -5.4294729e-01
  4.6972796e-01
  6.2682712e-01
  5.4511461e-02
 -1.3596329e-01
  4.0887352e-02
  8.4923759e-02
 -5.1798904e-01
  4.4119418e-01
  2.7527889e-02
 -1.3985409e-01
 -1.9785050e-02
  3.2851778e-02
  1.0063081e-01
 -4.2110258e-01
  1.6024467e-01
 -9.5656645e-03
 -4.2767957e-02
 -9.5719218e-02
  1.5852658e-01
 -2.0212106e-01
 -6.9923393e-02
  3.4906089e+00
 -2.1353841e+00
  2.3296498e-02
 -5.4428894e-02
 -1.5456438e+00
 -5.6916632e-02
 -1.1547146e-01
 -1.5959302e+00
 -1.0849874e+00
  1.0409621e-01
 -2.7449896e+00
  8.0113094e-03
  3.6259019e-01
  9.3360752e-02
  3.4441818e-02
  2.1762590e-01
  1.0829156e-01
 -5.1785428e-02
  5.6837291e-01
 -2.1994017e-01
  2.2084620e+00
 -7.2672331e-01
 -1.5784987e+00
 -3.9500475e-02
  3.0479634e+00
  4.4550771e-01
  1.9211663e+00
 -2.5294784e-01
 -1.2453974e-02
  1.7308509e+00
 -1.4422958e-01
  1.3478069e+00
  5.1289034e-01
 -1.1983614e-01
 -1.5210755e-02
 -9.0303235e-02
  1.7402697e+00
 -1.7185226e-02
  2.8704306e-01
 -4.0106690e-03
  1.7810937e-02
  5.2010900e-01
  1.5539336e+00
  8.1523162e-01
  2.1766926e-01
  4.0608862e-01
  3.2367690e+00
  1.1186508e+00
  1.3497261e+00
 -3.2241652e+00
  3.8498217e-01
  1.5315641e+00
 -1.0444990e+00
 -1.1553391e+00
  2.2048093e-01
  1.0878577e-01
  1.0964485e-01
 -2.1362780e-02
 -7.7296156e-01
  1.4646719e+00
  9.7831137e-02
 -7.5802886e-01
 -4.8538420e-01
  3.1936847e-02
 -1.9888702e-01
  7.2857477e-02
  3.5718203e-01
 -8.5463333e-01
  2.2997744e+00
  7.6001114e-01
  7.6867938e-02
 -2.9645615e+00
  8.0021232e-02
  2.6428866e+00
  3.6774102e-01
 -1.7477798e+00
  7.1059704e-01
 -1.3376752e-01
  1.1068249e+00
 -6.4166687e-02
  1.0470016e-01
  3.2054168e-01
  1.7746703e-01
  9.8467581e-03
 -8.2718855e-01
 -6.5079038e-03
 -1.3890211e-03
 -3.6945589e-02
 -7.5045213e-02
 -6.7741141e-02
  6.2765306e-01
 -6.0675614e-02
 -2.2325824e-01
  1.7177187e-01
  3.6449198e-02
 -8.5272752e-02
 -1.1116149e-01
 -2.6902189e-02
 -2.8610080e-01
 -1.0945632e-01
  3.5635386e-02
  8.1833899e-02
  2.7900845e-01
  2.5830152e-02
  1.9770464e-01
  1.3268741e+00
 -3.3097848e-02
 -4.9041234e-02
 -2.8387296e-01
 -1.5280515e-01
  2.8957155e-02
 -1.0686059e-01
  2.4088597e-01
 -8.6988233e-02
  1.4752695e-01
 -1.0457623e+00
 -1.3343322e-01
  2.9204962e-01
  7.2266519e-02
 -3.0480385e-02
  4.2615078e-02
 -1.0771671e-01
 -2.0984259e-01
  2.5693504e-02
  2.7285492e-01
 -8.7346792e-02
 -1.3189436e-01
  1.5959065e-02
  6.5178677e-02
  4.7220567e-01
  1.0683619e+00
  9.7316033e-01
 -3.9606065e-01
  4.0975910e-01
  3.4048970e+00
 -1.3644401e+00
  4.4182637e-01
 -1.3014922e+00
 -4.1079679e-01
 -3.8339004e-02
 -1.9323140e+00
 -4.6731779e-01
 -3.4619999e+00
 -6.9311559e-01
 -2.8184244e-01
  6.3601375e-02
  3.8393787e-01
 -1.0712709e-01
  7.5743365e-01
  1.8778576e-01
 -3.9934658e-02
  2.0006211e+00
  4.8504140e-02
  6.2355882e-01
 -2.3566136e+00
  2.5074589e-01
  2.4688144e+00
  2.3901615e-01
 -9.8113292e-01
  2.1213265e-03
  6.6078894e-02
 -2.8217411e-01
  5.6220144e-02
 -1.6769102e-01
 -2.0705947e-01
  6.3267276e-02
 -7.5800225e-02
  3.3411331e-02
 -2.3168093e-01
  2.8090686e-01
  2.9514602e-01
 -7.6363929e-02
 -3.9984643e-01
 -6.1212417e-02
 -1.9427708e-01
  1.0506911e+00
  1.0039115e+00
 -1.7765783e-01
  6.7837171e-02
  3.3009911e-01
  9.3856342e-02
 -3.6004969e-01
 -1.2531987e+00
  2.3575516e+00
 -7.6772332e-01
 -1.4376961e+00
 -4.6076083e+00
 -3.6451679e-01
  2.9380432e-01
  5.7962832e+00
  2.2138751e+00
 -3.2561336e+00
  7.8993365e-03
 -3.0351899e+00
  4.9913064e-02
  3.9140239e+00
  2.5819366e+00
  1.7560894e+00
  5.3981769e-01
 -7.2659306e-02
  5.9052820e+00
  5.0263214e+00
 -2.7588646e+00
  9.4872582e-01
  4.3109792e-01
  6.5393180e-02
 -9.9126595e-01
  8.3935648e-01
 -2.0332310e+00
  2.1135881e+00
 -4.2710010e-02
  3.8409391e-03
  1.4650676e+00
 -1.4907653e-02
  2.3891702e+00
  7.1766776e-01
  3.1900829e-01
 -3.1828204e-01
  4.2738089e-01
  2.4614076e-01
 -1.2749283e-01
  4.0845138e-01
 -3.9208520e-02
  5.6617524e-02
 -1.9511233e-01
  1.9854896e-01
  1.9294848e-01
 -1.9796789e-01
  1.1838645e+00
  1.5595038e-01
  5.2005937e-03
  4.0618155e-02
 -1.9550979e-02
  3.2248315e-01
 -4.9149476e-02
 -3.0721548e+00
  1.8575703e-01
  3.4589839e-01
 -9.8564789e-02
 -1.7999816e-01
 -2.6970228e-02
  9.3201566e-03
 -1.1003568e-01
  7.7585447e-01
 -7.8159380e-01
 -9.0975471e-02
 -6.0552828e-02
  4.0686097e+00
 -1.7880877e-02
 -1.0874815e-02
 -3.5055336e-01
 -1.0901075e-02
 -7.9606079e-02
 -6.2511854e-02
 -1.2751091e-02
  2.7855352e-01
  2.2359160e-01
  3.2741826e-02
  4.9691841e-02
  3.3356927e-02
 -1.5658580e-01
  1.2803137e-01
  3.7368605e-01
  2.5998741e-01
  4.3708503e-01
 -8.2869059e-01
  8.6473018e-01
 -1.2817042e+00
 -9.2263621e-01
  1.0605717e+00
 -3.7130752e-01
 -7.2805512e-01
 -3.1402770e-02
  1.5407311e+00
  5.6125271e-01
 -1.1680751e-01
  4.6686748e-01
  4.7593185e-01
 -1.3876812e-01
 -1.5312362e-02
  1.2499263e-01
  6.5713876e-01
  1.1945137e-01
  5.9153317e-03
  1.3927537e-01
  1.2562326e-01
  2.4202782e-01
  1.0513039e-01
  8.4783733e-01
 -1.9644488e-01
  9.8091328e-01
  1.2111351e+00
  1.4619547e-01
 -2.0464247e-01
 -1.1865077e+00
  2.8090307e-01
 -3.3063371e-02
 -6.4812131e-02
 -2.2888007e-02
 -1.2359329e-02
  1.2130352e+00
  1.6407944e-01
  2.7055201e-01
  1.6778390e-01
  9.7965151e-02
  3.6270300e-01
 -1.8504254e+00
 -9.0730929e-01
 -5.4590702e-01
 -9.2013049e-01
 -3.0035323e-01
  1.5558709e+00
  1.1181639e-01
 -9.5769918e-01
 -8.6825538e-01
  4.7267128e-02
 -3.7011552e-01
 -4.2626414e-01
 -1.5124407e+00
  2.5644911e-02
  2.9095322e-01
 -7.5206244e-01
 -3.3484779e-02
  8.1649810e-01
  3.6963794e-01
 -1.4813123e+00
 -2.4825938e-01
 -5.7647723e-01
 -1.2506940e+00
  1.7055489e-02
  5.0028896e-01
 -1.4918014e+00
  2.9892187e+00
 -9.9770784e-01
  1.6930999e-01
 -1.0362381e+00
 -2.2164810e+00
  1.8082979e-01
  1.6913708e-01
  6.2440306e-01
  2.3394074e+00
  4.1393739e-01
 -4.6399775e-01
 -4.4591617e-02
  8.2684553e-01
  2.8358313e-01
  2.0101139e-01
 -6.3475883e-01
 -1.2509953e+00
  2.5754964e-01
 -6.9201714e-01
  2.9801235e-01
  2.6848173e-01
 -1.1457243e-01
 -1.7589868e+00
 -6.4512992e-01
  3.9081812e+00
 -2.0320976e+00
  5.6249338e-01
 -8.5013014e-01
  3.7763983e-01
  4.9748579e-01
 -7.7397323e-01
 -8.9091945e-01
  4.7738798e-02
  4.6728635e+00
  8.6338007e-01
 -4.0563102e+00
  3.1797702e+00
 -7.6412296e+00
  5.9603987e+00
  1.1142702e+00
  2.6521189e+00
 -2.5255030e-01
 -3.6784828e+00
 -2.5553298e-01
  1.0545913e+00
 -9.4704404e-02
  1.7839135e+00
  1.3958089e+00
 -1.4391014e-01
  3.3914551e-01
  1.2157190e+00
  1.4038695e+00
  1.8557274e+00
  3.6061120e-01
  8.6188942e-01
 -5.7685823e+00
 -1.9304593e+00
 -3.2038510e-02
 -2.6045251e-01
  2.1240821e+00
 -3.0632019e+00
 -3.0537322e+00
 -5.8581151e-02
  3.2513598e-01
 -1.3466852e+00
 -3.4364266e+00
 -1.5864854e-01
  2.0075293e+00
 -1.5196416e+00
 -9.8214722e-01
 -9.5506676e-02
  1.9487902e+00
  3.5638756e-01
 -1.5273887e+00
 -2.2925017e+00
  1.0814739e-01
  7.6147340e-02
  2.2285411e+00
  1.6920911e-02
  1.2153076e+00
  6.0580218e-01
 -1.4660416e+00
 -6.8471044e-02
 -1.8830116e+00
  2.0765004e+00
  2.9170883e+00
 -4.2657676e+00
 -2.2931213e-02
  1.3482485e+00
  6.1310667e-01
  4.3908820e-01
  9.7479051e-01
 -1.9160581e-01
 -2.4007351e+00
  2.2910590e+00
 -1.5269420e-01
 -3.2876871e+00
 -2.4830811e-02
  1.5454148e-01
 -8.5882209e-02
 -1.1197981e-01
 -4.2648613e-03
  9.2590231e-01
 -2.8522279e+00
 -8.1915475e-02
 -1.2827168e+00
 -8.2988703e-01
  4.0260613e-01
  4.2367116e-02
  5.4641068e-01
 -4.1379049e-01
 -5.8478916e-01
  4.5405933e-01
  4.7787902e-01
 -7.1638215e-01
 -3.6538428e-01
 -7.4382335e-01
  7.5673498e-02
  5.0051051e-01
 -1.1282586e+00
  2.9724723e-01
 -3.4774157e-01
 -1.8346715e-01
 -1.9561034e-01
 -9.8066103e-01
  1.3571470e-02
 -1.7567451e-01
 -7.3967117e-01
  1.7000747e+00
  3.1530563e-02
 -6.9690967e-01
  2.9586664e-01
  2.6780288e+00
  2.0267355e-01
  7.9518296e-03
 -4.3054906e-01
  1.3247550e-01
  1.1463659e+00
 -7.7393520e-01
 -3.8906413e-01
  5.3178284e-02
 -9.5563781e-01
 -2.8462172e-01
  1.1095679e-01
  1.4506795e-01
  3.3124182e-01
  2.0946324e+00
  5.0370741e-01
  3.7003256e-02
 -2.5370007e+00
 -2.8087592e+00
  9.6151739e-01
  1.3133680e+00
  1.7501116e-01
  2.6205702e+00
 -1.2337047e+00
 -9.4512653e-01
 -3.0742357e+00
  1.1020496e-01
 -1.0156833e+00
 -1.6282392e+00
  1.5507370e+00
 -3.6138913e-01
 -1.0346849e-01
 -1.3135753e+00
  6.1053985e-01
  1.7149468e-01
 -4.0787476e-01
  1.1786092e-01
  1.6723783e-01
  8.5184258e-01
  2.7957392e-01
 -3.3175652e+00
  2.7713792e+00
 -3.0774242e-01
 -2.5925596e+00
  2.3406527e+00
 -1.2807363e+00
 -2.8415320e+00
 -1.2575786e+00
  1.0347077e-01
  6.6623431e-01
 -5.1920705e-02
  1.0956399e+00
  1.3532375e+00
 -1.2096089e+00
  1.5391797e+00
  2.3361647e+00
  5.1516733e+00
 -1.6006625e+00
  4.7134173e-01
  2.3647058e+00
 -1.5580519e-01
  1.8098520e+00
  2.9226377e+00
 -1.4888055e+00
 -6.1345690e-01
 -1.0829955e+00
 -1.0670071e+00
 -1.2556746e+00
 -1.7917296e-01
  5.1748353e-01
  1.0994548e+00
  3.8434780e-01
 -2.1315596e+00
  8.8477290e-01
 -1.9392982e-01
  1.2293530e+00
 -3.7510967e-01
  2.3131661e+00
  5.1782519e-01
  8.2463139e-01
 -4.7725454e-01
  1.4433738e-02
 -3.7236398e-01
 -7.0667022e-01
 -2.2115915e-01
 -3.2642743e-01
  1.5618356e-01
 -4.2165825e-01
 -1.6460741e+00
 -2.2776062e+00
  1.5414857e+00
 -7.2985274e-01
  2.2784935e-01
 -2.1558280e+00
  7.4891222e-01
  3.6715963e-01
 -1.1966366e+00
  8.8463321e-02
 -1.0037430e-01
 -1.2955737e-01
  4.8891135e-02
 -5.2082968e-01
 -1.5732402e-01
 -8.6585987e-01
 -6.4571071e-01
 -1.0785676e+00
  2.1069442e-01
  8.3971876e-01
  1.4763527e-02
 -9.7478473e-01
 -6.3929558e-01
 -1.3653424e+00
  1.0390390e+00
  2.8131931e+00
 -1.6798954e+00
  2.1789441e+00
 -4.6236321e-01
  2.8585234e+00
 -8.6490798e-01
 -6.8516248e-01
 -1.8593245e+00
  1.4052097e+00
  8.7257737e-01
  4.9316272e-01
  3.4395444e-01
 -2.0717280e+00
 -9.4985127e-01
  1.2367483e+00
 -3.9331591e+00
  1.1611716e+00
  6.4705968e-01
  1.5541711e+00
 -1.1588892e+00
  1.6539024e-01
  8.6171503e+00
 -4.4878559e+00
  4.8845692e+00
  3.9329636e+00
  4.3459085e-01
  3.1740904e+00
  1.5648620e+00
 -2.0897985e+00
  1.4137352e+00
 -2.8872204e-01
  3.7161722e+00
 -8.8745946e-01
  3.8197541e+00
 -5.8152789e-01
  1.1279875e+00
  5.4892009e-01
  3.2698677e+00
  1.2964934e-01
 -5.5115700e+00
  4.0370588e+00
  1.6920641e-02
  1.1915599e+00
  3.5596747e+00
  6.2509358e-01
 -2.5530393e+00
 -2.6506543e+00
  2.6259611e+00
  1.5608823e-01
 -2.1610433e-01
 -1.1431485e-01
  1.9206671e+00
  4.6819159e-01
 -1.3482639e-01
 -1.6151835e+00
 -9.0715027e-01
  4.0849710e-01
 -2.1445927e-01
  1.3232329e+00
 -3.3663559e-01
  1.2337285e-01
  3.8358608e-01
 -1.8556118e-01
 -1.7004166e+00
 -1.5711859e-01
 -1.1051298e+00
  1.6869986e-01
  6.5354258e-02
  1.1593527e+00
  3.3839393e-01
  1.7675493e+00
  2.6402273e+00
  6.4733768e-01
  9.9255502e-01
 -1.6123806e+00
  2.0333817e+00
 -6.7043352e-01
 -1.4231485e-01
  2.7306452e-01
  1.5817230e+00
 -1.4278750e-01
  2.3946915e+00
  1.5816032e+00
 -8.2744145e-01
  1.4812332e-01
 -2.0554036e-01
  8.4123306e-02
 -9.3362627e+00
 -1.9646876e-01
 -8.0026910e-02
 -1.2742738e-01
  3.0422282e+00
  8.2801454e-02
 -3.0828232e-01
 -1.5109642e-01
  5.9244365e-02
 -3.7097225e-01
  2.5729051e-01
  2.9503885e-01
 -2.0667264e+00
  8.1498601e-02
 -3.1809491e-01
 -2.3832119e-01
 -4.2904085e-01
  2.8052965e-02
 -3.8632050e-01
 -2.5711870e-01
 -5.2045528e-02
  6.6692710e-01
  1.3087747e-01
 -1.1908834e-01
 -1.2119822e-02
 -7.9367608e-01
 -4.9545541e-01
 -5.0374269e-01
 -3.8249162e-01
 -1.3409291e-01
 -9.1193938e-01
 -7.8878291e-02
  2.0381618e-01
  1.4198458e-01
 -1.5736845e-01
  8.8071540e-02
  4.9834672e-01
 -3.1793901e-01
 -9.6405871e-02
 -6.0447153e-02
 -6.0472272e-02
 -1.3102705e-02
 -6.6890940e-02
  3.2155952e-01
 -4.1404951e-01
 -5.4219341e-01
  9.6430436e-02
  1.8362868e-01
 -1.2049189e-01
 -1.4880770e-01
 -2.0988719e-01
 -6.2435508e-01
  4.3984532e-01
  6.2843698e-01
  2.0220593e-01
 -5.0559592e-01
  2.8450203e-01
 -7.4694008e-03
 -3.5481763e-01
  2.7647874e-01
 -4.9796084e-01
 -1.9342566e-01
  5.3056672e-02
 -5.9850633e-01
  1.1113685e+00
 -1.0190481e-01
 -1.5544160e-01
 -6.5093851e-01
  1.4371308e+00
 -4.5336586e-01
 -1.2178186e-01
  2.2289330e-01
  5.0058377e-01
 -7.7626652e-01
 -8.3050406e-01
 -9.0554249e-01
 -5.2029088e-02
  1.4830795e-01
 -2.1802133e-01
 -3.1398779e-01
  3.3318061e-01
  8.3758570e-02
  2.7464068e-01
  5.6315994e-01
  3.9294943e-02
  3.4089494e-01
 -3.5167101e-01
  2.3785205e-01
 -3.4892771e-02
 -6.4721763e-02
 -2.6759043e-01
 -2.7545375e-01
  2.3747120e-02
 -8.2305759e-01
  2.5990483e-01
  4.1901648e-01
  5.2782619e-01
 -9.9362485e-02
  4.4504786e-01
  2.0277096e-02
 -5.9837069e-02
 -3.2758636e+00
 -4.5700353e-01
 -3.0469760e-01
  2.7319843e-01
 -1.7315017e-01
 -4.9764151e-03
  8.0572262e-02
 -2.0149074e-01
  1.4232187e+00
 -3.3185124e-02
 -1.4178200e-01
  3.8524073e-01
 -5.7952788e-02
 -7.4407511e+00
 -5.7593379e-02
  2.3374224e-01
  2.5904522e+00
 -7.8764164e-01
 -1.7438063e-01
 -3.9986038e-01
 -2.0676377e-01
  7.7687182e-02
  1.6041544e-01
 -2.4824604e-02
 -3.6850908e-01
 -2.9420638e-01
  7.7940422e-01
  3.3485118e-01
  5.2150160e-01
  1.1891351e+00
 -1.6577093e-01
  5.3897154e-01
 -3.4231216e-02
  1.1585677e-01
 -6.0702387e-02
 -3.7681658e-02
  2.6427486e+00
  2.5813491e-03
  2.1418192e+00
 -2.9118365e-01
  1.5643291e+00
  2.4515135e+00
 -6.3868076e-01
 -5.8009583e-01
 -3.0911282e-02
 -1.0992924e-01
  7.5069594e-01
  8.5411412e-01
  6.6141856e-01
 -4.3582675e-01
  7.3169219e-01
  2.2526426e-02
  1.4808597e-02
  7.0461667e-01
 -8.5845566e-01
 -2.8231430e-01
 -2.4789855e-01
  2.1274590e-01
  8.4670967e-01
 -4.0609304e-02
  4.9328852e-01
 -2.3001616e-01
  2.6241481e-01
 -3.1454022e+00
 -1.0041610e+00
  7.4872357e-01
  7.7258453e-02
 -2.9644024e-01
  7.1933484e-01
 -1.1408973e-01
 -7.4215883e-01
  1.3798523e-01
 -3.8442519e-01
  3.9343801e-01
 -2.5071710e-01
 -4.8261218e-02
  1.0909260e-01
 -9.9762321e-02
 -4.0349790e-01
  4.8697162e-02
  2.1270265e-01
  6.7919230e-01
 -1.0877631e+00
  3.5759509e-01
  9.4482493e-01
 -1.1411096e+00
  1.8392062e-02
 -9.7413361e-01
  1.9368306e+00
  5.0620532e-01
 -1.1408983e+00
 -2.2055948e-01
  1.9598566e-01
 -1.6078969e+00
 -3.1736827e-01
  1.2048483e-01
 -2.8895453e-01
 -1.0386423e+00
  1.8512015e-01
  3.5923937e-01
 -2.0136684e-01
 -5.9122866e-01
  3.4551597e-01
  2.8441313e-01
 -6.2993610e-01
 -5.4726677e+00
 -1.8863951e+00
  1.4810111e-01
  7.9070699e-01
 -9.3189585e-01
  6.1180359e-01
 -5.4761726e-01
 -1.9150267e+00
 -5.8491118e-02
  8.3987072e-02
 -3.1808050e+00
 -3.5087696e-01
 -1.7358208e-01
 -3.2047880e+00
  1.5760253e-01
  3.5922077e-01
  2.0816227e-02
 -1.9646190e-01
 -6.0308278e-01
 -2.3401332e+00
  2.5068709e-01
 -5.3576022e-01
 -2.5372844e-02
  1.9559485e-01
  2.6257477e+00
 -8.4701248e-02
  8.3500421e-01
  2.3441415e+00
 -2.1918297e-01
  9.5346846e-02
  1.9661844e-01
 -4.1753668e-01
 -2.0104180e-01
  1.5479717e-01
 -2.2412017e-01
  2.0364904e-01
  1.7625178e-01
  2.0782325e-01
 -7.9800463e-01
 -2.9387400e-02
  7.0218551e-01
 -5.8107123e-02
  1.1583546e-01
 -7.0634723e-01
  3.4048945e-01
 -3.9388543e-01
 -2.0313901e-01
 -4.6293071e-01
 -5.4210353e-01
  8.7513983e-02
  7.4972045e-01
 -1.2973273e-01
 -3.5380372e-01
 -5.4991093e-02
  3.0266211e+00
  6.5316069e-01
 -2.7959293e-01
  1.0049012e+00
  5.3216213e-01
  6.0432911e-01
  1.2767613e-01
  6.5736836e-01
 -8.1365123e-02
  6.4450145e-01
  2.2871666e-02
 -3.8919541e-01
  3.6877587e-01
  2.0982197e-03
  2.6023378e+00
  2.0032164e-01
  3.0462561e+00
  2.5405124e-01
  9.9868196e-01
  3.3159897e-01
  6.6680700e-01
  5.7528891e-02
  1.3887008e-01
  1.3993171e+00
  2.1256123e-01
 -4.8327520e-02
  3.5097849e-01
  2.4013489e-01
 -5.9066850e-01
  2.0607437e-01
  4.7992536e-01
  6.7697264e-02
  1.4379328e-01
 -8.0374891e-01
  1.2650836e-01
 -2.7580032e-01
  1.7975887e+00
 -5.8101863e-02
  6.4800388e-01
 -4.0801004e-01
  1.4261702e-01
  8.5870826e-01
  8.9621814e-03
  6.0288209e-01
  4.3180876e+00
 -3.9669508e-01
 -7.1233082e-01
  1.0494824e-01
  5.9585851e-01
 -4.6443617e-01
 -1.3122859e+00
  4.1047253e-02
  3.7811303e+00
 -7.6590228e-01
 -8.3709307e-02
 -1.3806202e+00
  5.9157200e-02
 -1.4073043e-01
 -3.5564497e-02
  1.8738787e-01
 -3.6826918e-01
 -7.1043745e-02
  7.5080508e-01
  2.9250693e-02
 -3.9391646e+00
 -8.9551084e-02
 -5.8853120e-01
 -5.3252243e-02
 -1.1076758e-02
  2.2393692e-01
 -1.3395943e-01
  2.5497995e-02
 -1.6056029e-02
  5.7784784e-01
 -3.9740021e+00
  3.5323483e-01
  1.7733055e-01
  3.5150859e-01
 -2.7186570e-01
 -3.4455913e-01
 -3.8408879e-02
 -1.4060986e-01
  1.6556016e-01
 -4.7019944e-01
 -1.0270758e-02
  1.0104624e-01
  3.1388368e-02
  9.7479463e-02
  6.2601566e-03
  1.3631544e-01
  5.7426167e-01
 -4.8896507e-03
 -2.3322647e-02
 -6.4483726e-01
 -1.3304518e-01
  1.5404189e-01
  1.3757448e-01
  3.8568911e-01
 -4.3307949e-02
  2.4408841e-01
 -6.1215770e-01
 -1.9643070e-01
  5.4956096e-01
 -9.0101886e-01
 -6.1187136e-01
 -1.5060258e+00
  8.6937629e-02
  2.7367074e-02
 -1.5180141e-01
 -6.7230284e-01
 -1.4031085e+00
 -2.7540821e-01
  7.9694504e-01
  1.2726957e-01
 -2.6740193e-01
  1.4082670e-02
 -3.4675946e+00
  1.2708807e-01
  2.2954598e-01
 -9.0291664e-02
  1.5198036e-01
  9.9098384e-01
 -1.9016899e-02
 -3.2358631e-02
 -9.6219313e-01
 -5.9688801e-01
 -4.3279338e-01
 -6.9716364e-02
 -5.3907067e-01
 -4.1062176e-01
 -3.2306996e-01
  8.5205361e-02
 -1.4674844e-01
  2.3412615e-01
  2.0782335e-01
 -1.0800538e+00
 -3.0159107e-01
  9.3308955e-02
  9.2868462e-02
 -5.1071852e-02
  6.1876416e-02
 -3.2485199e-01
 -3.4863657e-01
  1.8926887e-01
 -4.4432409e-02
  2.5049642e-02
 -1.2243418e-01
 -6.6241169e-01
 -2.4920508e-01
  3.1573009e-03
 -1.7735982e+00
 -5.3839654e-02
 -2.1861090e-01
  9.7469479e-02
 -8.3132826e-02
  1.3612010e+00
  7.0208192e-02
 -7.4417822e-02
 -2.3474096e-01
  9.0619989e-02
 -1.8370262e-01
  3.1118068e-01
  2.0706771e-01
 -6.1620366e-02
  1.0802758e-01
  3.1014401e-02
 -8.4517173e-02
  1.4265463e-01
 -1.0030161e-01
  4.1687420e-01
 -8.9804254e-02
 -8.2711205e-02
 -1.7656744e-01
  5.6266290e-01
 -6.5843034e-01
  2.4904184e-01
 -1.5638233e+00
  6.1219692e-02
 -3.7960216e-01
  9.4767340e-02
 -2.4393940e-01
 -2.8090182e-01
 -6.8701878e-03
  8.7126926e-02
  5.1285321e-01
 -4.2677060e-01
 -3.6391929e-01
 -1.0082306e+00
  6.9661200e-01
  9.5415872e-01
  9.5320737e-01
 -1.0897163e-01
  9.8556131e-03
  9.8320150e-01
  3.1075491e-02
 -1.4640613e-01
  2.9032615e-01
 -1.9186187e-01
  2.7877951e-01
 -3.7072486e-01
 -1.1308664e-01
 -5.2500427e-01
  1.3478757e+00
  8.3598167e-02
 -3.0742231e-01
 -9.0901041e-04
  2.4961536e-01
 -1.6043210e-01
 -3.6565833e+00
 -2.6573399e-01
  9.4878212e-02
  1.3531378e-01
  8.6514041e-02
 -8.3776897e-01
 -1.5697879e-01
 -6.5287536e-01
  3.3968225e-02
 -2.9242194e-01
  2.3134612e-04
  2.4170788e-01
  5.6210724e-03
  1.0380143e-01
 -5.6349468e-01
 -4.5009223e-03
  8.1385314e-01
  2.0242424e-01
  2.0463756e-01
 -5.0622731e-01
 -9.2755669e-01
 -1.4381311e+00
 -5.0324243e-01
  2.3254675e-01
 -4.7996858e-01
  4.6646848e-02
 -1.9399509e+00
  1.0162157e+00
 -2.7470594e-02
 -3.3691502e-01
  3.8104296e-01
  1.6284151e-01
  2.1256736e-01
  3.2520786e-01
 -5.9184749e-02
 -1.9266003e+00
 -3.9786637e-02
  3.3135465e-01
 -3.3631617e-01
 -5.9486830e-01
 -5.6842881e-01
 -2.3795061e-02
 -5.0474584e-02
 -3.5409200e-01
 -1.8494478e-01
  1.6238061e+00
  1.3124185e+00
  2.9178539e-01
  1.0200452e-01
 -2.4935613e+00
 -7.8881577e-02
  6.1338562e-01
 -8.7336741e-02
 -9.3890391e-03
  2.4364814e-03
 -3.8771802e-01
 -8.8530004e-02
 -7.2228335e-02
  2.7358499e-01
  2.9803159e-02
 -1.5877937e-01
  2.8575033e-01
  1.2760058e-01
 -2.4889736e-01
 -2.3935060e-01
  4.1518923e-02
 -7.8573614e-01
  1.2947655e-02
 -1.5030091e-01
 -8.0621409e-01
 -1.4490914e-01
 -8.9569616e-01
 -2.6400259e+00
  1.0302311e+00
  5.7578444e-01
 -2.5926748e-01
 -3.5500252e-01
  7.5748122e-01
 -6.1946161e-02
  9.8196250e-01
 -1.9642326e-01
  1.4120876e+00
 -2.2106364e+00
 -8.4952933e-01
 -3.8811472e-01
 -1.2872531e+00
  7.2753167e-01
 -2.1549761e+00
 -1.5212274e-01
  2.3443042e-01
  1.4236484e-01
 -6.3447076e-01
  1.1115457e-01
 -6.9387639e-01
 -1.3342533e-01
 -1.8160215e-01
 -3.4735295e-01
 -2.9453713e-02
 -2.1494384e-01
  2.3133729e+00
  9.1340564e-02
  3.4595551e+00
  3.8372505e-02
 -3.5493678e-01
  2.0172012e+00
 -1.0305704e+00
  7.7965844e-01
 -1.1714759e+00
 -1.1090536e+00
 -1.1821934e+00
  4.9620295e-01
  3.6015487e-01
 -2.4161662e-01
  1.1655488e-01
 -2.1313761e-01
 -7.2432287e-02
  7.8843394e-03
 -1.8258667e-02
 -2.8698361e-01
  2.9856575e+00
 -6.1279185e-02
 -5.6839764e-01
  2.7443767e-03
 -9.0148494e-02
 -1.5651488e-01
  1.2313998e-02
  9.1058068e-02
  3.1260241e-02
 -2.6374003e-01
 -1.1093804e-01
  5.5581826e-01
  1.9499961e-01
  3.5188839e-02
  1.4428960e+00
  8.6204952e-01
  5.7713521e-01
  3.6940348e-01
  4.0064678e-02
  2.7186909e-01
  3.7214011e-01
 -5.5584066e-02
 -7.1050912e-01
  2.2326836e-01
 -2.8626308e-01
 -2.0991108e-01
  1.9987959e-01
 -2.8208673e-02
  1.7907026e-01
  4.8129208e-02
 -3.2694381e-02
 -3.8986915e-01
  4.7932902e-01
 -5.8314276e-01
  1.1986651e-01
 -9.1277790e-01
  4.4768173e-02
  7.0181480e-03
  9.4855016e-01
 -8.1577152e-01
 -2.6372319e-01
  8.3779490e-01
  2.8836472e+00
 -3.8586631e-01
  1.2723522e+00
  1.5629126e+00
  4.9687152e+00
  3.8231187e-02
  1.2313826e-01
 -1.6133143e+00
 -4.9289875e-02
  2.8776422e-01
  3.9887661e-03
  5.3460693e-01
 -3.6187625e-01
 -6.0713384e-02
 -8.5294670e-01
 -5.0662524e-01
 -1.7756128e+00
 -7.8584306e-02
  1.0956284e-01
 -7.9308614e-02
 -1.5700634e-01
  2.6435375e-01
 -3.8209572e-01
  4.4453053e+00
  9.1892171e-01
 -2.0368095e-01
 -2.8999364e-01
  1.5356646e+00
  2.7032349e-01
  4.6448892e-01
  2.8425815e+00
 -3.8466060e-01
 -1.4549789e-01
 -1.3152358e-01
 -5.1952803e-01
  4.7963616e-02
 -1.1726463e+00
 -7.3306960e-01
  1.4113776e-01
  8.7239869e-02
  5.9074467e-01
 -1.5251470e+00
 -3.2648039e+00
 -1.8325146e+00
  2.2565393e+00
 -3.9301261e-01
  6.6568172e-01
  1.8936735e+00
  1.1528332e+00
 -1.0466065e+00
 -2.2012789e+00
  2.1184103e+00
  3.7247866e-01
 -6.4467835e-01
  4.4380465e-01
  2.3912222e+00
  2.3430116e-01
  1.3289632e+00
  1.7555368e+00
 -2.0869503e-02
 -9.5659524e-02
  2.3709385e+00
  6.1406815e-01
  9.3296069e-01
  5.8596057e-01
  1.0041480e-01
  3.4397274e-01
  1.7330271e+00
 -1.3627329e+00
 -7.3839301e-01
 -2.9994297e-01
  4.8396597e+00
 -1.6407655e-01
  1.0008927e-01
  3.5988572e-01
 -6.8943962e-02
 -2.5783122e-01
  3.2768449e-01
 -7.7034019e-02
  4.8422331e-01
 -4.4524951e+00
  1.2069103e+00
  2.2447221e+00
  2.1358436e-01
 -1.1659169e-01
  3.4263840e+00
 -1.4710128e-01
 -1.4448684e+00
  2.8807564e+00
  2.1856198e+00
 -5.8716583e-01
  4.8524728e-01
 -1.1964079e+00
 -2.2959547e-01
 -5.6488182e-02
  3.2090425e-01
  9.7651348e-02
 -1.0754875e+00
 -5.9989098e-02
 -1.2659099e+00
  4.8761120e+00
  7.2315961e-01
 -3.7515702e+00
 -6.4754111e-01
  1.0630597e+00
  1.7616522e-02
  1.6645970e+00
 -1.0547734e+00
  3.0259004e-01
 -3.0961435e+00
 -2.0673507e-01
 -2.4125050e-01
 -1.6077675e+00
  1.1808622e-01
 -1.0577576e+00
  6.6268390e-01
 -1.2246288e-01
  5.0860386e-02
  6.0606357e-03
 -1.0166893e+00
  1.1142009e+00
  2.7042383e-01
  5.0382197e-01
  1.2187063e-01
 -2.1939546e-01
 -6.8703163e-01
  9.6736774e-03
 -1.3956866e+00
 -2.1803421e-01
 -1.5057641e-01
 -1.3865772e+00
 -4.2896041e-01
 -1.1270341e-01
 -6.7159933e-01
  2.6658157e-01
  1.4924935e-01
  1.6590064e-02
  3.4582996e-01
  1.3629934e-01
  4.3931821e-01
  1.3612047e-01
 -1.4715329e-01
  3.7652782e-01
 -2.0761965e-03
 -3.8528225e-01
  1.9243744e-01
 -3.6452364e-02
  5.1848078e-01
  3.5075614e-01
 -1.2628451e-01
  4.1182476e-01
  6.8267584e-02
  4.0971953e-01
  7.7689976e-02
 -8.9589901e-02
 -2.2658637e-01
 -7.1631467e-01
  9.1778117e-01
  2.0119660e-01
  1.2324449e-01
 -4.7407236e-02
  6.5771386e-02
  3.1704709e-01
  3.5115191e-01
  2.9569780e-02
  9.2807226e-02
  4.3081251e-01
 -2.5959551e-01
  4.0304354e-01
 -6.6440210e-02
  3.9273828e-02
 -8.7540048e-01
 -7.1301049e-01
  1.2487253e-01
  1.3665295e-01
  2.1756482e+00
 -4.0021464e-01
  7.2406328e-01
 -6.3885093e-02
 -2.3444109e-02
 -2.1478441e-01
  2.5415909e-01
  4.2997593e-01
  6.7507440e-01
 -2.8517571e-01
  5.0104309e-02
  8.2205129e-01
  1.4071446e-03
 -1.7071372e-01
  4.1499296e-01
  4.2844597e-01
 -1.6890739e-01
 -1.2166783e-01
 -1.1961495e+00
 -4.9000704e-01
  3.5714127e-02
  1.7522343e-01
  4.5541053e+00
 -3.7984872e-01
  6.3405089e-02
  1.8393796e-02
  4.5858052e-01
  5.2565491e-01
  5.4826790e-01
  1.2025995e+00
 -1.1355528e-01
 -5.0363636e-01
 -3.4518789e-02
 -5.1353514e-01
 -4.7950041e-01
  2.7939442e-01
  1.2010678e+00
  7.1678215e-01
  1.8486062e-01
  3.3914432e-01
  2.5491226e-01
  1.3426216e-01
 -9.7370071e+00
 -1.3550423e-02
 -1.0853534e+00
 -7.0035495e-03
  1.2768667e-02
  4.3974206e-01
  2.6275411e-01
 -2.0743264e-01
  1.1202390e-01
 -5.7881403e-01
  1.2506526e-02
  5.1433802e-01
 -3.9442700e-01
 -1.2600259e-01
  1.8167621e-01
  1.6544796e+00
  1.6624388e-01
 -3.1371012e-01
 -9.7849965e-02
  6.3709006e-02
  2.3905417e-01
 -3.8268864e-01
 -8.1232321e-01
 -8.3097801e-02
 -5.7943009e-02
  6.4903527e-02
  7.7181980e-03
 -1.3422826e-01
 -2.3339528e-01
 -9.8875612e-02
  4.2726022e-01
 -1.7406756e-01
  1.2690364e-01
  2.7139518e-01
  2.1402615e-01
  5.1065385e-01
 -3.6072865e-02
  4.3172461e-01
  7.3050082e-02
  2.3907010e-01
  1.1511396e-01
  6.3375726e-02
  2.1630125e-02
 -4.2528111e-01
  4.7147074e-01
  1.2112342e-01
  5.5106270e-01
  3.4373578e-01
  5.9881549e-02
  5.7073498e-01
 -1.3988684e-01
 -6.3204074e-01
 -3.5009748e-01
 -4.1800685e-02
  1.7510468e+00
 -9.7128630e-02
  2.4440525e-01
  5.2314378e-02
 -3.9857951e-01
  6.5778117e-03
  2.7302850e-02
 -1.6581188e+00
  2.8090063e-01
 -5.7981461e-01
 -2.9258078e-01
 -4.6560839e-01
  2.8041068e-01
 -1.3015033e-01
  4.1763279e-01
  1.9995227e-01
 -3.5002351e-02
 -3.1360009e-01
  1.7594446e-01
 -1.8347281e-01
  4.6576900e+00
 -1.9350827e-01
 -3.8183010e+00
  3.6608446e-01
 -2.2104204e-01
  3.8211390e-01
  3.1676129e-01
  4.1079093e-02
  2.9375893e-01
  1.3016225e-01
 -5.8012432e-01
 -6.4992338e-01
  3.9025187e-02
  3.1011354e-02
  5.2099724e+00
 -3.6622497e-01
  2.8587635e+00
 -5.7906646e-01
 -7.8959209e-01
  5.0882417e-01
  2.4057350e-01
 -2.1261612e-01
  8.8198043e-02
  2.3402207e+00
 -1.9724306e-01
  6.9691114e-02
  5.6304196e-03
  4.1341925e-01
 -1.5420410e-01
 -2.0586145e-01
 -2.7873414e-02
 -3.3331069e-01
  2.1922994e-01
 -1.5433048e-01
  9.3158059e-02
 -2.2531074e-01
 -3.1571656e-01
 -4.7045413e-01
 -1.0772823e-01
  1.4632633e-01
  6.8580776e-02
  2.5143376e-01
  6.2861569e-02
 -7.8134194e-02
 -3.4276646e-02
 -1.4423977e-01
 -6.2081195e-02
 -3.2002911e-02
  4.4303206e-01
 -4.7465093e-02
 -1.4122240e-02
  3.9042972e-02
  1.1568356e+00
 -2.4663794e+00
 -4.8546802e-02
 -5.5362120e-02
 -1.1047968e-01
  4.2742515e-01
  2.2355268e+00
 -5.8059967e-01
 -3.1673402e-01
 -4.6534032e-01
 -9.4711140e-02
  2.9991087e-01
 -2.1244098e-01
  2.6955113e-01
  8.9239411e-02
 -9.8814762e-01
 -4.0776369e-01
 -1.8892877e-02
 -1.9502926e+00
 -1.0498230e-01
  3.6482400e-01
 -4.3636906e-01
 -2.4048979e+00
 -2.1150509e-01
  1.9768829e+00
 -7.3683476e-01
  7.3292118e-01
 -4.5497627e+00
 -5.3445625e-01
 -9.5494520e-03
  8.2259083e-01
 -1.1120594e-01
 -1.6379112e+00
  4.3381506e-01
  2.9944205e-01
 -3.7731072e-01
  1.8728534e+00
  1.1596191e+00
 -1.8756899e-01
  1.4896788e-01
  1.2754808e-01
  2.0234387e-01
  2.7692490e+00
 -1.0805014e-01
 -3.7562910e-02
  1.8768184e-01
 -8.2386714e-01
 -2.3518384e-01
 -3.9732277e-01
  3.4431353e-02
 -8.4603065e-01
  1.5382656e-01
  3.1944390e-02
  1.2215685e-01
  3.9499268e-02
  2.7209538e-01
 -1.5519552e-01
 -1.4845333e-01
  4.2302758e-01
  4.0194068e+00
  1.7452158e+00
  3.0628866e-01
  5.1596838e-01
 -1.0547024e-01
 -1.8114938e+00
  5.8988288e-02
  2.6570389e-01
  1.7583646e-02
  1.0472540e-01
 -1.6428381e-01
 -6.0282536e-02
  1.1062316e+00
  2.8255088e-03
  2.6664180e-01
 -4.4873849e-01
  6.0637635e-01
 -1.9814500e-01
  3.2709023e-01
  1.5579796e-01
  2.3642728e-01
 -8.3350159e-02
  1.3786973e-01
 -4.5069280e-01
 -2.2111677e-02
 -2.2043109e+00
 -5.4330564e-01
  2.0023364e-01
 -1.9899973e-01
 -3.5105756e-01
  2.4402697e+00
 -4.1937360e-01
  6.0175472e-01
  6.6881701e-02
 -6.2115324e-01
  1.2316352e+00
 -3.8612843e-01
  2.8292423e-01
  4.9966532e-01
  1.9302295e-01
  3.0263960e-02
  1.4270972e-02
  5.4533558e+00
 -2.6301834e-01
 -1.5398724e+00
 -2.1952514e-02
 -3.5288244e-02
  9.8157281e-01
  1.6227740e-01
 -1.0140450e-01
  1.0917093e-01
  5.6081778e-01
  1.9974731e-01
 -3.3806610e-01
 -8.7317222e-01
  1.8132133e-02
 -5.5747473e-01
  4.6789053e-01
 -9.0440571e-01
  1.3217463e-01
  2.0492597e-01
  1.9916172e-01
  3.4757011e-02
  3.0841285e-01
  5.1120126e-01
 -1.6828661e-01
  6.1673498e-01
  2.4902081e+00
  4.4465777e-01
 -2.2274691e-01
 -2.3536249e-01
  9.9782236e-03
  9.9616110e-02
  3.0978575e-01
 -1.5918328e-01
  1.8834315e-01
 -3.5861202e-02
  3.3898780e-01
  3.0851763e-01
 -2.4795429e-01
 -3.0236727e-01
 -4.5489982e-01
 -3.4044983e+00
  3.7319303e-01
 -2.5636861e-01
  5.4979879e-02
  1.7204706e-01
 -2.9935983e-01
 -2.5924212e-01
  8.0019277e-01
  4.2238477e-01
  5.9741065e-03
  3.2431528e-01
 -4.4986807e-02
  7.4785185e-01
 -5.8938697e-02
 -3.8250297e-01
  2.1103726e-01
  1.2377998e-01
  3.9113595e+00
  1.2392246e-01
  3.0420515e-01
 -1.2436883e-01
 -1.1714349e-01
 -8.3178051e-02
 -5.7550478e-01
  4.8596460e-02
 -1.2875725e-01
  1.2065776e-01
 -3.5728833e-01
  2.8508651e-01
  3.0484694e-01
  1.5201730e-01
 -4.7428336e-02
 -9.9427268e-02
  1.4532961e-01
 -2.0289183e-01
 -1.1345012e-01
  1.8202133e+00
  1.6577035e+00
 -2.4508188e+00
  1.0072109e+00
 -3.1879494e-01
 -1.9653356e+00
 -1.0768532e+00
  1.1330352e+00
 -1.6325260e+00
  8.6774904e-01
  1.0112910e+00
  2.8601277e-01
 -3.1004822e-01
  2.5331897e-01
  1.4694735e+00
  4.0798339e-01
  6.2802717e-02
  2.8210468e+00
  3.3537176e-01
  1.1666818e-01
  8.7754619e-01
  1.5825850e+00
 -5.0568384e-01
  1.2445728e+00
  3.3667397e-01
 -1.3757548e+00
  2.5267880e+00
 -2.1995865e-01
  2.3556302e+00
  5.8551122e-02
  1.0737276e-01
 -6.9796729e-01
 -1.1985791e+00
 -4.1282766e-02
 -1.5660183e-01
  3.2251754e+00
 -6.2113255e-01
 -1.6595544e-01
 -5.7387418e-01
  2.4018954e-01
 -6.1126137e-01
 -7.4128866e-01
 -1.3612148e+00
 -3.8445631e-01
  9.1558969e-01
  2.4180627e-01
 -3.5588738e-01
  1.6571841e-01
  2.3969617e-01
 -5.9328967e-01
 -1.1475423e-01
 -1.6638009e-01
 -1.0209235e+00
  9.7443342e-01
 -5.9580457e-01
 -3.5011461e-01
 -3.2960591e-01
 -4.1024346e+00
 -6.6833740e-01
  5.1633161e-01
 -7.1402037e-01
 -8.9358054e-02
  1.5104724e-01
 -1.3167723e+00
 -5.1209822e-02
  3.5073824e+00
 -2.4408683e-01
  4.0837166e-01
 -1.2193222e+00
  1.2796754e+00
 -1.9445756e-01
  4.0575176e-01
  1.1717809e+00
  6.7194450e-01
  1.0682545e-02
 -4.2335197e-01
  4.0937835e-01
 -8.5709172e-01
  7.2673035e-01
  5.6761168e-02
  6.9459945e-01
 -2.3833933e-01
 -1.6468318e-01
  1.4681397e-01
  9.8445237e-01
 -1.3755931e-01
  2.4956606e-01
 -1.1121585e+00
  1.5786588e+00
 -1.4317030e-01
  1.5824553e+00
 -5.2524996e-01
  2.1732895e-01
  1.3107321e+00
 -3.0075660e+00
  2.0772583e+00
 -8.3048773e-01
 -2.5919054e-02
  1.6168110e-01
  6.9287521e-01
 -2.6140055e-01
 -7.4903518e-01
 -5.2322228e-02
  1.6605071e+00
  7.0678964e-02
  1.9506441e-01
 -1.6356283e+00
  1.3501318e+00
 -6.0179207e-02
 -1.1028495e+00
  7.2352281e-03
 -2.1606568e-01
  5.0515252e-01
  6.2714428e-01
  4.6329212e-01
 -1.7833234e-01
 -3.8075500e+00
 -6.0223501e-02
 -1.0416338e+00
  9.0231769e-02
  4.3716651e-01
 -5.7217598e-01
 -1.1457394e+00
 -4.6648735e-01
 -1.7946677e-01
 -1.4793485e-01
  1.1277259e-01
 -3.4930557e-01
 -5.1081311e-02
 -1.8087393e-01
  5.0128078e-01
 -2.6128194e-01
  1.8668753e-01
 -1.5628098e-01
  3.1173167e-01
 -1.8146936e+00
 -5.6534731e-01
  3.2409894e-01
  1.7829820e+00
 -4.1692907e-01
 -2.1199262e-01
  1.5335560e+00
 -4.7209676e-02
  5.2656375e-02
 -5.7901654e-02
  1.5002829e-01
  2.1048626e-01
  9.3055779e-01
  3.5448715e-01
  1.7912034e+00
  4.4214848e-01
  9.2690128e-01
  6.6078913e-01
  1.4393330e-01
 -2.2989941e+00
  4.4300026e-01
  1.0419205e+00
 -6.1751801e-01
  2.1123679e+00
 -5.1846266e-01
 -1.7808196e-01
 -1.1529602e+00
  4.8697668e-01
  5.5634922e-01
  6.0247421e-01
  7.1618155e-02
  1.9381359e+00
 -2.0844934e+00
  5.0118756e-01
 -6.6085243e-01
  6.9119602e-01
  9.6570474e-01
  1.3681105e-01
  2.6921588e-01
 -8.0104363e-01
  9.0001989e-04
 -6.5851134e-01
 -7.6194233e-01
  4.6291763e-01
 -1.1512127e+00
 -1.3779038e+00
 -2.5365779e+00
  2.4925427e+00
  1.8169165e+00
  2.4760015e+00
  9.7993904e-01
  1.6463354e-01
 -7.9025686e-01
 -1.3577756e-01
 -7.0298702e-02
 -2.0832806e+00
 -3.5959873e-01
  1.6064191e+00
  1.7169014e+00
 -1.1263894e+00
  3.3402473e-01
 -2.6291419e-02
 -1.0840485e+00
  6.2398976e-01
  9.0761721e-02
 -1.3197252e+00
 -1.6076478e+00
  2.9592211e+00
 -7.4573219e-02
  2.8699002e-01
 -2.1377452e-01
  1.2543619e+00
 -9.1292858e-02
  2.4934027e-01
  4.9243245e-01
  1.8079314e+00
 -8.6121678e-01
 -5.1256979e-01
 -7.8673482e-02
 -1.1671026e+00
  8.6727184e-01
 -8.0147885e-02
 -2.1255465e+00
 -1.3088965e+00
  1.5391432e-01
 -2.1377819e+00
 -5.6853014e-01
 -6.1970222e-01
  1.0199841e+00
  9.2955071e-01
  8.8840252e-01
 -1.5803944e-01
 -1.3876595e-01
 -8.2660657e-01
  3.5977504e-01
  5.8225995e-01
  2.5149846e-01
  7.6938510e-02
  7.2483480e-02
  9.6345790e-02
 -8.5670429e-01
  1.6176365e-01
  1.1853661e-01
 -7.6512933e-02
 -1.2869593e-02
  5.7599115e-01
  1.1083976e+00
 -1.1798561e-01
 -3.8847342e-02
  5.7817203e-01
 -1.9636388e+00
 -2.5834647e-01
 -3.4891185e-01
  3.5697716e-01
  2.0926543e-01
 -2.3535961e-01
  3.2488152e-01
  7.6297283e-01
  4.8091751e-02
  4.4086131e-01
  3.2203224e+00
  7.0947483e-02
 -1.0661812e-01
 -4.6233389e-01
 -8.0092236e-02
  1.8533581e-01
 -1.1059475e-01
 -2.2944933e-01
  1.1473281e-01
 -5.5602324e-01
 -1.4421824e-01
 -7.3729962e-01
  2.9261675e-01
  3.5015810e-01
  5.8340406e-01
 -1.8012840e-01
  1.0316662e-01
  4.4507269e-02
 -5.9899563e-01
 -5.0348330e-02
  3.5593081e-02
  3.6734082e-03
  4.2099252e-01
  3.1696954e-01
 -4.8832381e-01
 -3.9192453e-01
 -5.2080505e-02
 -3.9553237e-01
 -5.3192627e-01
  2.6244092e-01
  5.3811431e-02
 -3.0713495e-02
  2.2169673e+00
  3.9938104e+00
  3.7497425e-01
  3.2957692e+00
 -2.1597192e+00
  1.5898590e-01
  1.0079664e+00
 -9.9748150e-02
 -8.0900574e-01
  4.4427329e-01
 -2.6531376e-02
  1.5151538e-01
  7.1450099e-02
  2.2701076e-01
  1.6910017e-01
  3.1924181e-02
  1.4761056e-01
 -9.7437546e-02
  3.5068654e-03
 -1.3519354e-01
 -5.3227806e-01
  4.0508024e-02
 -3.5306129e-01
  1.2350217e+00
 -1.9436868e-01
 -3.9200047e-01
  5.8625412e-01
 -5.8121663e-01
  1.8360609e-01
  2.8529853e-01
  8.5196987e-02
  1.2534525e-01
 -2.1527812e-01
 -8.0244251e-02
  8.1789953e-01
  4.4172835e+00
 -2.2839230e-01
 -7.5257361e-02
 -1.7370017e-02
  2.1636795e-01
 -1.8281362e+00
 -4.8791912e-01
 -6.0506141e-01
  7.7744651e-01
  2.7488351e-01
 -3.2489533e+00
  5.1687038e-01
 -6.0256851e-01
  3.2070866e-01
  1.6395330e+00
 -4.7852111e-01
  8.9504525e-02
  1.3487041e-02
  6.8232954e-02
 -2.1779981e-01
  1.7641991e-01
 -3.4487914e-02
  1.8971698e+00
 -1.5176241e-01
  1.7554876e-01
  5.0829880e-02
 -9.5717926e-03
 -1.3467555e-01
 -3.6406115e-01
 -1.1989912e-01
 -4.9356541e-01
 -1.7702695e+00
 -3.2801819e-01
  6.2252540e-02
  4.7209591e-01
 -6.1646473e-01
  1.0291482e-01
  4.3077640e-02
  1.1964051e+00
  9.2420876e-01
 -2.6336551e-01
 -4.7709312e-02
  7.5452107e-01
 -4.1272707e-02
 -1.1148620e+00
  4.8582739e-01
 -3.7644044e-01
  2.3414662e-01
 -1.4152093e-01
 -6.3277960e-01
 -1.3332770e+00
 -2.3606639e-01
 -2.9790336e-01
 -3.1614402e-01
 -3.3967495e-01
  2.7637851e-01
 -7.7611679e-01
 -1.4849970e-01
  9.9813771e-01
 -5.2965168e-02
 -1.7925790e-01
 -2.0374827e-01
  7.9620481e-03
 -5.8273697e-01
 -1.9145605e-01
 -1.5263240e-01
  1.9635354e-01
 -3.7717921e-01
  1.6652976e-01
 -1.2759935e+00
  1.3702929e-01
  1.6397844e-01
  2.0232318e-01
 -4.2909193e-01
  1.3389349e+00
 -4.5746082e-01
  6.9909900e-01
  3.3203921e-01
 -8.2812858e-01
  3.0999404e-01
 -1.4734495e+00
 -1.3675725e-01
  6.7959410e-01
  3.4327191e-01
  3.3116722e-01
  1.3964609e+00
  1.4307187e-01
  5.7460222e-02
 -1.8961945e-01
  2.5127268e-01
  2.1848682e-01
 -6.6198945e-02
 -4.8568812e-01
 -3.3341384e-01
  3.5515673e-02
 -1.1292527e-01
  3.4408197e-01
 -5.9411932e-02
 -2.3142271e+00
  2.4626136e-01
 -1.8244477e-01
  4.5377627e-01
 -8.9358920e-01
 -2.3497939e-01
 -5.4515636e-01
 -6.7386121e-01
  2.0204689e-01
  4.4143993e-01
 -5.1923740e-01
 -3.8801849e-01
 -1.3480031e-01
 -3.5047513e-02
 -1.6172415e-01
 -2.1845852e-01
  8.8337594e-01
 -1.7742062e-01
 -9.3676329e-02
 -1.7407881e+00
  5.7851896e-05
  3.3678301e-02
 -2.2579137e-02
  4.3909913e-01
 -2.3232624e-01
 -4.8057598e-01
  1.3522847e-02
  1.0647401e+00
  5.6168717e-01
 -4.1139837e-02
 -2.9980648e-01
 -1.0667573e+00
 -6.5968465e-03
 -2.1051480e-02
 -2.0433155e-01
  1.9911268e-01
 -2.6664934e-01
 -6.8394989e-02
  3.4050468e-01
  1.0815920e-01
 -7.8201875e-02
  2.9109225e-01
  9.1096330e-01
 -4.6257335e-01
 -7.6290652e-02
 -2.0566180e-01
 -3.4056818e-01
 -1.8414354e-01
 -2.5060892e-01
 -1.6331572e-02
 -1.7623059e-01
  6.5460704e-02
 -1.6839798e-01
 -2.8631585e+00
  8.8584565e-02
 -4.5715291e-02
  1.4691218e+00
  2.4591419e-01
  9.9338472e-02
  4.3379739e-02
  1.7350577e-01
  1.1322530e-01
  2.1160755e-01
  7.9440296e-02
 -5.9314027e+00
 -3.3987856e+00
  2.7769199e-01
 -2.3054357e+00
 -6.1644382e+00
  2.9140747e+00
  1.9096977e-01
  2.0738408e-01
  1.3434756e+00
  2.1595984e+00
 -2.5569925e+00
 -5.6735235e-01
 -4.4314522e-02
 -1.2741066e+00
  1.5035200e-01
  6.8387306e-01
  6.2878180e-01
  5.1527679e-01
  5.0793391e-02
 -4.1201543e-02
 -1.4673544e-01
  7.0026225e-01
  1.0010200e+00
  5.0515575e+00
 -1.8709198e+00
 -4.8670902e+00
  3.8325799e-01
  2.3430946e+00
 -1.9571869e-01
  3.3478111e-01
 -2.6091951e-01
 -4.4308648e-01
  7.8003150e-01
  1.1802853e+00
 -5.9912123e-02
 -3.3173649e+00
  6.5380487e+00
  3.2308179e-01
  3.6089206e-01
 -1.7607166e-01
 -6.3507587e-02
 -1.3303722e-01
  1.5378785e-03
 -3.9899853e-01
 -7.1458826e+00
 -3.3519778e-01
 -1.0592479e-01
 -6.4740944e+00
  8.9169711e-02
 -5.3056657e-02
 -4.6686478e+00
  3.3531272e+00
  2.4337106e+00
 -3.3374327e-01
  2.3558331e-01
 -6.2690562e-01
 -4.0951127e-01
 -1.3932323e-01
 -2.7367244e+00
 -2.7335393e-01
  5.0765771e-01
 -7.9351008e-02
  2.9184416e-01
  1.5437114e-01
 -6.4260584e-01
  2.9276061e-01
 -1.0207264e-01
  2.7702338e-01
 -1.1279557e+00
 -1.1207465e+00
  7.5678615e-04
 -6.9074072e-02
 -1.3100370e+00
 -7.3003906e-01
 -2.3828670e-01
  1.4672235e-01
 -1.7897591e-02
  2.0931326e-01
  1.9953491e-01
 -7.0264064e-02
 -3.9714593e-01
  5.7179011e-02
  2.4171934e-01
  3.1535292e-01
  4.3101966e-01
  3.5199749e-01
  2.9505390e-01
 -1.9105187e-01
 -1.2320112e+00
  1.2975603e-01
 -5.5437672e-01
  2.7409792e-01
  4.7762108e-01
  1.9586922e-01
 -4.8688680e-01
 -1.1163425e-01
  6.6909713e-01
 -6.4241046e-01
 -1.1470023e-01
  4.0553722e+00
  8.7205432e-02
 -1.1629585e+00
  1.5535441e-01
  3.2374874e-02
  1.7023607e-01
  2.0817472e-01
 -1.2521616e-01
 -1.7784183e-01
  2.0268217e-01
  9.4240911e-02
  3.3217728e-02
  2.1932660e-01
  1.0568341e+00
 -2.2271591e-01
  3.3505741e-01
  4.1449231e-01
  1.1431429e+00
  2.3355775e+00
 -4.1344231e-01
  8.5799634e-02
  6.1959618e-01
  1.0290110e-01
  3.9965686e-01
  2.3114370e-01
  5.8624965e-01
  4.9111668e-02
 -1.6010250e-01
  3.5188085e-01
 -2.0475637e-02
 -1.0232281e-01
  2.7161920e-01
  8.3131254e-01
 -9.7531074e-01
 -1.0759413e+00
  8.7733728e-01
 -1.2429228e+00
 -7.0902263e-03
 -5.6394961e-02
  1.5611610e+00
  1.5940884e-01
 -2.7010798e+00
  4.7153838e-02
  5.8721554e-02
  1.8764050e-01
 -8.5914886e-01
  4.5546971e-02
  5.7413310e-01
  1.4203818e-01
 -9.5258996e-02
  1.4848894e+00
  1.9177735e+00
  1.1444339e+00
 -4.1904859e-02
  2.9584785e+00
 -2.2659719e-01
 -3.1986210e-01
 -2.0650028e-01
 -4.8008746e-01
 -2.8080398e-01
  2.7571115e-01
 -7.6556109e-02
  2.8243467e-01
  9.1176838e-02
 -9.3452573e-01
  1.9887308e+00
  3.4710956e-01
 -1.0436169e+00
 -8.5286856e-01
  8.9241035e-02
  1.5807595e-02
  1.2187481e-01
  5.1486659e-01
  8.0700219e-02
 -1.5916663e-01
  2.4213731e-02
 -4.7202972e-03
 -1.2130650e+00
  1.3044834e-01
 -8.6218190e-01
 -1.1276288e-01
  2.8701153e+00
  1.4996424e+00
  8.1554747e-01
  6.4258647e-01
 -1.2659632e+00
  3.8576764e-01
 -1.4000326e-01
 -1.6514639e+00
 -6.4091265e-01
  2.9053718e-01
 -7.7227253e-01
 -3.2069245e-01
  1.0599731e+00
  6.2215918e-01
  1.8280880e-01
 -1.8268350e+00
 -9.4230682e-01
 -6.5286595e-01
 -1.2891300e+00
  6.4180240e-02
  2.2649355e-01
 -2.1471007e+00
 -5.8724135e-01
  7.8890556e-01
 -1.5677922e+00
  2.9267986e+00
  1.4093350e-01
  5.0478315e-01
  7.0691401e-01
  9.6515387e-01
  8.1107400e-02
 -1.2574171e+00
  1.0121374e+00
  4.2744163e-01
  6.1033112e-01
 -3.3051980e-01
 -1.0995279e-01
 -1.3983908e-01
 -1.2264898e-02
  2.7852312e-01
 -1.3412943e+00
  1.8082753e-01
  1.4415897e-01
 -2.2444852e-01
  1.6626893e-02
 -1.7195673e+00
  6.3151807e-01
 -1.5996147e+00
 -3.4648142e+00
 -2.9191077e-01
  4.8583367e-01
 -1.3156345e-01
  1.6389094e-01
 -7.3293751e-01
  3.2050723e-01
  1.6988353e-01
 -1.8600842e+00
 -2.4151297e-02
 -1.7343609e-01
 -1.5909147e-01
  6.0782772e-01
  4.6795756e-01
  1.2116235e-01
 -3.3299956e-01
  2.5771644e+00
  3.3768538e-01
  2.1916296e-02
  2.6995310e-01
  1.5691204e-01
  3.1943667e-01
  4.7424573e-01
  5.3259611e-01
 -1.7493814e-01
 -2.7385619e-01
  1.2716533e-01
  4.1463459e-01
  1.0989413e-01
 -8.9487486e-02
 -6.9851506e-01
 -6.8506372e-01
  4.9673265e-01
 -3.6742887e-01
  5.0708905e-02
  1.9435389e-01
  2.0736171e-01
 -6.1983263e-01
 -1.4264522e-01
 -3.3212356e-02
  2.9463705e-01
 -1.0806411e-01
 -5.6009096e-01
 -2.2254956e-01
 -3.4700692e-01
 -1.8754841e-01
  5.7786340e-01
 -3.1784482e-02
 -1.9227965e-03
  5.5560577e-01
  3.8082445e-01
  1.3691920e-01
 -2.0117109e-01
 -1.2545964e-01
  1.3467161e-02
 -7.8168035e-02
 -4.2353816e-02
 -1.4964066e-01
  3.7174925e-02
 -2.1682352e-01
 -1.1856177e-01
  1.8525258e-01
  2.0035088e-01
  5.1626205e-02
 -1.2357250e-01
  1.3731350e-01
  5.7604754e-01
 -1.7845197e-01
  1.1309012e-01
 -9.7668931e-02
  1.1066362e-01
 -1.2800556e-01
  4.8318902e-01
 -1.5178147e-01
 -2.5322536e-01
  1.0581140e-01
 -1.3321021e-01
  2.8139824e-01
 -2.3284744e-01
 -7.7378958e-01
  1.3613300e+00
 -3.8734373e-02
 -1.4840582e-01
  1.1177748e+00
  1.6168799e-02
  2.3092284e+00
 -6.0025251e-01
 -1.1530995e-01
  9.7190875e-01
  6.1357450e+00
 -7.6369625e-01
  2.0539995e-01
  1.7658289e-01
 -1.8162467e-02
 -1.2461999e-03
  5.0703168e-01
 -1.5639009e-01
 -9.2429930e-01
 -4.3667771e-02
 -2.0194365e-01
  1.7579049e-01
  3.2260548e-04
 -4.3108221e-02
 -2.4454144e-01
 -1.3097325e-01
  1.2986641e-01
 -1.5808494e-01
  4.4266802e-01
  1.0754402e-01
  4.8287243e-02
 -3.5337499e-01
  3.9494779e+00
  4.9497601e-02
 -3.0330715e+00
 -1.1048009e-01
 -6.6428378e-02
  7.1077931e-01
  6.3486671e-01
  6.4961022e-01
  3.0352518e-01
  3.0920766e-03
 -1.2343965e-01
 -2.5961301e-01
  3.7539753e-01
 -2.2176332e+00
 -8.7838119e-01
 -1.4907908e-02
  1.0361794e+00
 -1.4854014e+00
 -1.3084917e+00
  6.8842912e-01
  1.9095129e+00
 -3.9933236e+00
  8.8491267e-01
 -9.6084052e-01
 -7.5683665e-01
  1.2628154e-01
  7.5137275e-01
 -9.6103358e-01
  1.1334269e+00
 -4.9003550e-01
 -2.2870507e+00
 -1.7415918e-01
  5.5884773e-01
 -9.4918050e-02
  1.6223717e-01
 -1.5065308e-01
 -2.4792176e-01
 -3.6510587e+00
  6.5958148e-01
  6.4203691e-01
 -6.5602416e-01
  9.8240882e-01
 -2.5783956e+00
  3.7178565e-03
 -1.3914080e-02
 -5.7936376e-01
 -3.6860850e-02
 -1.3230473e-01
 -3.0560422e+00
 -1.4198093e+00
 -9.8126277e-02
  3.1180592e+00
 -1.1902016e+00
 -1.0958208e+00
 -8.4850520e-02
  2.3576133e-01
 -1.6360436e-01
  1.7842229e-02
 -1.4263226e-01
 -2.3567311e-01
 -1.6596147e-01
 -4.5192373e-01
  8.0798173e-01
 -5.9527159e-02
  1.2960250e+00
  1.6415164e+00
  6.0603887e-02
  3.0227854e+00
 -4.9235737e-01
  7.4312456e-02
 -1.3499689e+00
  1.1668465e-01
 -2.9030092e-02
  2.2077408e-01
 -5.2668148e-01
  6.4897782e-01
 -5.8751483e-02
 -2.5616679e-02
 -1.5627344e+00
  3.9732289e-02
 -1.8840745e-01
 -1.9671268e+00
 -1.4619310e-01
  3.2776684e-02
 -1.4678185e-01
 -8.5062897e-01
  1.4838997e-02
  1.1045378e-01
  1.8285630e+00
  3.9279976e+00
 -1.7331824e-01
 -2.9377275e+00
 -6.7917514e-01
 -2.6302820e-01
 -5.3554177e-01
  1.5372436e-01
  4.0173307e-01
 -5.2928548e-02
  2.1012037e-01
 -2.2272250e-01
  2.2391206e-01
 -2.3550627e-01
 -1.0588933e-02
 -1.1070250e+00
  1.4231597e+00
  6.5675402e-01
  1.0617822e+00
  6.0455400e-01
 -1.4319861e+00
 -3.6524603e-01
  9.8925129e-02
 -3.3251017e-01
  1.9593145e-01
  3.4238493e+00
 -7.1593010e-01
  2.5465471e-01
  1.5068218e-01
 -2.6706772e+00
  1.6363485e-01
 -4.0334636e-01
  1.8078905e-01
  4.4251122e-02
  1.3501476e-01
  3.4261495e-01
  1.4716697e-01
  1.2916456e+00
  2.3051213e-01
 -7.0657003e-01
  5.0860411e-01
  2.4530798e-01
 -1.5681520e+00
  4.5168492e-01
 -1.7975345e-01
 -7.7896826e-02
  5.9750181e-01
 -6.2120515e-01
 -2.8048167e-01
 -8.1894219e-01
 -4.6346243e-02
 -8.1258816e-01
  1.2791325e+00
 -1.5139709e-01
 -1.2598034e+00
 -5.1558010e-02
  2.3942798e-01
 -1.0952657e+00
  2.3849428e+00
 -8.2097483e-01
  8.9377892e-01
  1.7654935e+00
 -3.0221212e+00
 -2.7150900e+00
  3.8402396e-01
  2.4472438e-01
 -4.1254425e-01
  6.5619752e-02
 -2.8888185e+00
  1.3943866e+00
 -7.1435547e-01
 -1.2089548e+00
 -6.5942430e-01
  9.3521327e-01
  3.7378092e+00
  4.9920771e-01
 -2.8421858e-01
  1.0630729e+00
 -1.5690140e+00
  1.3302478e+00
 -2.1580104e-02
  2.0520263e+00
  4.2678485e+00
 -6.7045679e+00
 -2.9208973e-01
 -5.3271157e-01
 -2.2951512e+00
 -6.3428724e-01
  2.8005633e+00
  1.3184772e-01
 -3.4576917e-01
 -1.9856337e+00
  1.4798728e+00
  9.1535372e-01
  1.5590227e-02
  1.7844003e+00
  1.3811515e-01
  4.9329785e-01
  2.4528079e+00
  3.6182466e+00
  2.8495073e+00
  2.4241486e+00
 -1.2120227e+00
  6.9964433e-01
  2.1879647e+00
 -1.1731682e+00
 -2.4735466e-01
  3.9956877e-01
  1.0437220e+00
 -3.8755268e-01
  3.6431956e-01
  5.1810540e-02
  7.9269387e-02
 -3.4353234e-02
  3.2964826e-01
 -1.8105333e+00
  2.2174630e-03
 -9.6753001e-02
 -6.5140212e-01
  1.1151092e+00
 -9.6670341e-01
 -1.0250949e+00
 -2.5323731e-01
 -1.9695270e+00
  8.2529700e-01
 -1.4703308e-01
 -6.0797114e-02
  7.2810149e-01
  2.1535940e+00
  2.3285407e-01
  2.2223778e-01
  3.6314741e-01
  2.6227790e-01
  1.6784774e+00
 -6.5802521e-01
  7.1111709e-01
  1.4879363e+00
 -2.3100393e+00
  5.0533015e-01
  2.6636448e+00
  7.4569577e-01
  4.1333218e+00
  1.6319687e+00
 -8.0768627e-01
  1.4423387e+00
  1.3546282e+00
  1.6875213e-01
  1.5758988e-01
 -5.9262078e-02
  6.1821431e-02
 -1.4065688e+00
 -4.2607400e-01
  1.6183724e-01
 -2.3427971e-01
 -9.8073050e-02
  2.3626061e-01
  2.0599740e+00
  3.2313475e-01
  4.0351000e-02
  1.0240558e-01
 -1.6121164e-01
 -9.0329930e-02
  1.4252220e-01
  1.0411415e-01
 -5.6141913e-03
 -7.3234320e-01
 -2.2437774e-01
  5.6919980e-01
  2.9806453e-01
 -2.4611838e-02
 -1.0552244e-01
  1.8870458e-02
 -2.8420019e-01
  1.1085615e-01
  6.9611892e-04
  2.2630377e-01
 -2.0906951e+00
 -7.0524931e-02
 -3.1275019e-02
  1.4720343e-01
  1.5059151e-01
 -6.8061697e-01
  1.4860047e-01
 -2.0043483e-01
 -2.3103425e-01
 -3.0351434e-02
 -2.3508865e-02
  2.8703335e-01
  5.7025135e-01
  2.5733182e-01
 -1.4334269e-01
  1.8102482e-01
  1.2460619e-01
 -1.0764412e-01
  4.3498632e-02
  2.7515659e-01
 -2.6684541e-01
  1.0855660e-01
 -6.4260624e-02
 -6.8738088e-02
 -2.2186659e-01
  2.9049164e-01
 -3.0780151e-01
 -1.1939391e-01
 -9.1462231e-01
 -8.5509676e-01
  7.9643887e-01
  1.5922754e+00
 -1.9086267e-01
  9.0930450e-01
 -2.8878406e-01
 -1.3750424e+00
 -1.3406633e+00
  2.2561621e-02
  8.5526240e-01
 -2.9987174e-01
  5.5370474e-01
  8.4144723e-01
  1.2423317e+00
 -8.0558948e-02
 -3.5729223e-01
 -1.1363991e+00
 -6.7451306e-02
  1.1659180e+00
  1.8044010e+00
  1.9397624e-01
  1.1615618e-01
  3.6194617e-01
 -3.3034173e-01
  1.3242382e-01
 -2.6201468e+00
  1.3585690e+00
 -1.9533869e+00
 -1.3337358e+00
  6.2389806e-02
 -2.2241144e-01
 -9.2836624e-01
  6.0883975e-01
  1.3517359e+00
  5.4382503e-01
  8.3410096e-01
 -2.0837829e-01
 -3.1481957e-01
 -4.4613743e-01
  1.3100013e-01
 -2.3945577e+00
 -6.1980164e-01
  5.9724297e-02
  2.3747499e-01
  1.7248825e+00
  2.0095928e+00
 -1.4116033e+00
  1.2151221e+00
 -1.6114225e+00
  4.3944123e-01
 -2.9411200e-01
  4.5107841e-01
  8.8532048e-01
 -3.7063801e+00
 -7.8611541e-01
  4.2316565e-01
 -6.5710038e-01
  3.9386767e-01
  1.7612661e-01
  9.9327117e-03
  2.2587819e-01
  5.9106648e-01
  5.4014349e-01
 -2.0439446e+00
 -1.9669116e+00
  6.6823941e-01
  2.0129690e+00
 -5.8704238e-02
  7.3802061e+00
 -3.6692734e+00
  2.8385346e+00
 -8.7766325e-01
 -2.1997072e-01
 -1.2896671e+00
  1.6481470e+00
 -3.7274040e-02
 -2.9412347e-01
  4.2827554e+00
 -3.2595614e-01
 -1.5619057e-01
  4.4468481e-02
 -7.5829998e-02
 -3.8354957e-01
  4.6760282e-01
 -4.7712131e+00
 -1.4682915e+00
 -1.0545752e+00
 -1.5963201e-01
  5.4150271e+00
  1.0020967e+00
 -3.3755324e+00
  6.8230563e-01
 -4.7962582e-01
 -1.3075923e+00
  1.4004892e+00
  7.8114700e-01
 -8.9078099e-01
 -1.7533207e+00
  5.3887659e-01
  3.4300487e-02
  2.1618204e+00
  9.1254391e-02
 -1.8060483e+00
 -1.3460044e+00
 -7.1585339e-01
 -6.7280383e+00
 -2.0396199e+00
 -1.9607758e-02
 -7.5444460e-02
  6.4836855e+00
  1.1330765e+00
  1.2386152e+00
 -3.3392769e-01
  7.0557505e-01
  2.1924877e+00
 -3.4735086e+00
  1.4317280e+00
 -4.6394973e+00
  1.9651868e+00
 -2.7310780e-01
  2.5027077e+00
 -7.1328139e+00
  1.7987727e-01
  1.9587815e+00
 -1.8472923e-01
 -3.0778927e-01
 -1.5138756e-01
 -2.6563200e-01
  3.8882110e-02
 -6.8169162e-02
  1.8604206e-01
 -1.8768144e-01
  6.9808975e-02
  1.4189516e-01
  1.8833034e-01
 -1.2171129e-02
  4.1862257e-02
  1.0047084e+00
 -6.7148879e-03
  1.0235441e-01
  1.5837348e-01
  3.1021333e-01
  6.8789083e-01
  2.9739213e-01
 -3.6179242e-01
  6.3231364e-02
  2.0674501e-01
  3.0793166e-01
  5.2542013e-01
  1.1272036e-01
  9.9345076e-01
  3.4128485e+00
 -1.6301000e-01
  5.0242835e-01
  4.3146685e-02
  2.5644937e-01
  8.8793986e-02
  8.4143524e+00
  3.3770498e-02
  5.3238291e-01
  9.7361201e-01
 -2.0322736e-02
  1.6937447e-01
 -4.0675408e-01
  4.6576567e-02
  4.6897608e-01
 -5.5506475e-02
 -1.9754294e-01
  3.9937991e-01
 -1.5441757e-01
 -1.4962801e-01
 -2.9232839e-01
  3.8348404e-01
  1.2908113e-01
 -4.6094793e-01
  4.7773048e-01
  1.5538361e+00
 -3.7639028e-01
 -3.5080798e+00
 -4.4240049e-01
 -9.2021435e-01
  7.6943171e-01
 -2.6136029e-01
 -5.4392719e-01
 -9.6649028e-02
  8.6460598e-03
 -1.0912219e-01
 -2.3895991e-01
 -2.3513465e-01
 -1.8687987e-01
  2.0855959e-01
 -5.1708812e-01
 -5.6573939e-01
  5.4179502e-01
 -2.1428059e-01
  1.5328654e+00
  6.9739485e+00
 -1.4109135e-02
 -1.5334468e-01
 -5.7799596e-01
  5.5960882e-01
  1.9258498e+00
  1.0677811e+00
 -2.8979421e-01
 -2.9442143e-01
 -5.6464133e+00
  1.6037229e+00
 -3.8546458e-01
 -1.1802413e+00
 -2.7963631e-02
 -3.3238590e-02
 -6.4992040e-01
  4.4397220e-01
 -3.5093576e-02
 -9.0496939e-01
  2.0613611e-01
  1.6686063e-01
 -1.8305127e-01
  4.2726827e+00
 -4.0608756e-03
  3.3525191e-02
 -1.5030074e+00
  4.9752694e-01
 -6.3910502e-01
 -2.4318967e+00
 -5.3852324e+00
  1.3757455e+00
  1.4109866e-01
 -8.2870618e-02
 -2.6143628e-01
 -6.1648041e-02
  2.5960034e-01
 -8.5105598e-03
 -7.2174691e-02
 -1.7942259e-01
 -3.0181739e-01
  2.7444401e-01
  7.3807657e-01
  6.2619179e-02
  5.1279712e-01
 -5.1225406e-01
 -6.7419976e-02
 -6.6916364e-01
  4.0145591e-01
 -3.7922453e-02
 -2.0835966e-01
 -4.5208108e-02
  2.6600704e-01
  7.1522462e-01
 -9.7734854e-04
 -5.4831891e+00
  1.6216317e-01
 -4.6602688e+00
 -1.8869348e-01
  6.7812246e-01
  9.3400806e-02
 -1.3461834e-01
 -8.9462739e-01
 -4.5674360e-01
 -1.6081911e-01
  4.0137501e+00
  3.3881664e+00
  1.4310999e+00
 -1.4178231e+00
  8.8863224e-01
 -4.8324108e-01
 -3.0524552e-01
  1.2890830e+00
  1.3796605e+00
 -3.9473927e+00
  7.1519881e-01
  1.6910911e+00
 -2.4704792e+00
 -5.2632575e+00
 -1.2700610e+00
 -1.8719951e+00
 -2.8751473e+00
 -4.6285406e-01
 -4.8313329e-01
 -1.1044226e-01
 -3.3984561e+00
 -3.9786952e+00
 -3.1341033e+00
 -3.7178305e-01
 -2.4122705e+00
  3.9692752e+00
 -1.4899408e+00
 -2.8450022e+00
  1.0588897e+00
  2.6704803e+00
  2.6338208e+00
 -2.5965712e+00
 -2.8653741e-01
 -6.5717429e-02
  3.4897864e-02
  1.2445077e+00
  2.0231762e+00
  6.9791168e-01
 -7.3673017e-02
 -2.2112764e-01
 -1.3320342e-02
  1.0411854e+00
  7.3021835e-01
 -1.9284193e-03
 -1.6555433e+00
 -8.4140408e-01
  7.0065404e-03
  5.3661573e-01
  4.5904879e-02
 -1.1550322e+00
 -1.4594393e+00
  6.1065203e-01
  3.5627306e-01
  3.5661481e-02
 -9.6790716e-03
  2.4734490e+00
 -6.4309705e-03
  5.5423772e-01
  1.3471622e+00
  7.6128870e-01
 -3.3085176e-01
 -4.3766789e-02
  6.0356382e-02
  1.0739104e-01
 -5.8587410e-02
 -6.1704695e-02
  2.5413421e-01
  5.5557954e-01
 -9.8710525e-01
 -1.4426462e-02
  2.6001123e-01
  1.2350465e+00
 -4.0264496e-01
 -2.0790128e-01
 -2.0634948e-01
  2.9083982e-01
 -1.6450107e-01
 -3.7217349e-01
 -2.3117214e-01
 -6.4860022e-01
  7.5609672e-01
  1.2288885e+00
  4.4913006e-01
 -4.5536332e-02
 -1.1535993e+00
  1.9045395e-01
 -2.4019000e-01
 -3.6758724e-01
 -7.3470426e-01
  1.6330303e+00
  4.1391069e-01
 -7.4861509e-01
 -3.9544454e-01
 -2.1703413e+00
  2.2962880e-01
  7.0603810e-02
 -1.8562889e-01
  2.8354371e+00
  1.8224535e+00
 -1.8640284e-01
 -1.9787006e+00
  1.0972843e+00
 -2.2592964e+00
 -1.9239601e+00
 -4.0353508e+00
 -1.9771839e+00
  5.5632997e-01
 -2.6490595e+00
 -3.1009076e+00
  1.0816202e+00
  1.5405140e+00
 -3.8706422e+00
 -1.1789541e+00
  4.4074774e-01
  2.6904356e+00
 -4.6555752e-01
 -2.2888935e+00
  3.4710679e+00
 -2.7240722e+00
 -1.3860108e+00
 -8.2486194e-01
 -1.3810278e-01
 -2.4793863e+00
 -2.3234994e+00
  6.9649690e-01
  1.2664509e+00
 -3.7641281e-01
 -2.6886445e-02
 -3.8396639e-01
 -7.1656093e-02
 -3.1938024e-02
 -8.3171165e-01
  4.8794984e-03
 -9.8596521e-02
 -4.1876319e-01
  3.9166605e-01
 -2.3468356e-01
  4.3775454e-01
 -1.8669833e-01
  3.0708253e-01
  7.0892975e-02
 -2.5123829e-01
 -1.3016109e-01
  6.2642798e-02
  1.2726189e-01
  2.0744410e-01
  2.5078574e-01
  1.1707466e-02
  2.1383481e+00
  4.0100494e-01
  1.4302275e-01
  1.9362354e-01
  6.3125201e-02
  7.4481480e-02
  6.0563618e-01
  3.2024202e-01
 -3.0467346e-02
  3.2346550e-01
  8.0147684e-01
  1.8040894e-01
  6.6344254e-03
 -1.8795650e-04
 -1.7198420e-01
 -8.3377436e-02
  5.0932482e-02
  1.6144158e-01
 -1.0019117e-01
 -1.7481858e-01
  4.0010422e-01
  1.7810397e-02
  8.4745899e-02
  4.4792652e-02
  2.6497656e-01
  5.6901747e-01
  1.3403460e-01
 -1.6086388e-02
 -4.3473449e-01
  2.8768107e-02
 -1.1550043e-01
  3.0450979e-01
  1.5238200e-01
 -3.9838172e-02
  1.5016996e-02
  2.2303522e+00
  2.2452907e-01
 -3.3832783e-01
 -5.5942111e-02
 -1.1789507e-01
 -3.3132249e-01
  4.0750604e-02
 -1.0272771e+00
 -7.7819467e-02
  1.2832116e-01
 -5.0329918e-01
 -5.9012093e-02
  3.1577057e-01
  1.7859051e-01
 -7.2832137e-01
  2.1170941e-01
  4.3615741e-01
  1.8507792e-01
 -1.7991711e+00
 -3.1701443e-01
 -2.0211531e-01
  3.6157402e-01
 -7.3185980e-02
  4.1895747e-01
  4.4347105e+00
 -1.6579951e-01
  9.9108472e-02
 -1.8321545e-01
 -2.3558977e-01
  1.1233114e-02
 -1.3110168e-01
 -4.3519902e-01
  1.3073164e-01
  1.1025922e-02
  2.2269821e-02
 -1.6553867e-01
  2.4799395e-02
 -4.0199921e-01
  1.5941681e-03
  2.0986953e-01
  2.4204390e-01
 -8.4013700e-01
 -3.8098433e+00
  1.1917055e+00
  1.6695461e-01
  1.4948254e+00
  1.3668552e-01
  3.3115868e-02
 -7.4539281e-02
  6.7771673e-02
 -1.3260992e-01
  6.8884432e-02
 -3.4906822e-01
 -3.3718944e-01
  1.8024909e-01
  3.9608724e-02
 -1.8599902e-01
 -2.9950276e-02
 -2.2986872e-01
 -9.8269038e-02
 -1.3393011e+00
 -3.7244484e-02
 -1.5305337e+00
  1.3566165e-01
  3.6552560e-01
 -1.0713205e-01
 -2.3204874e-01
 -1.4843994e+00
  2.3905344e+00
 -1.2745606e+00
  2.4154374e-01
 -2.9276016e-01
 -1.3733573e-01
  1.9942272e-02
 -1.0528599e-01
  2.3353048e-01
  6.1859279e+00
  7.6581538e-02
 -4.7904529e-02
 -1.2789524e-01
  6.8526143e-01
 -2.1572475e-01
 -4.9958520e+00
  3.5759395e-01
  4.0881371e-01
  5.7285666e-01
 -4.5012856e-01
 -2.7349055e+00
  2.7260962e-01
  4.3241405e-01
 -1.2424144e-01
 -9.4382876e-01
 -1.1889720e-01
 -2.7544516e-01
 -5.1463318e-01
  2.9758468e-01
 -7.8587256e-02
  2.8730673e-01
  5.6637235e-02
  4.3412887e-02
  6.1862093e-01
  3.2236671e-01
 -4.6438992e-01
  4.7569555e-01
 -7.3459941e-01
 -1.2279523e-01
 -3.4949720e-02
  3.5114297e-01
  8.3275780e-02
  2.4995874e-01
  5.2383894e-01
 -2.2469419e-01
  5.9986466e-01
 -1.6566655e-01
 -3.3124564e+00
  7.4556419e-03
 -3.4944195e-01
  6.5951437e-01
  1.9595914e+00
  1.7673138e-01
  2.3861286e-01
 -3.2826513e-04
 -1.9206515e-01
  5.4252458e-01
 -7.1168773e-02
  2.3436506e+00
  3.8104572e+00
 -1.6000040e-01
 -4.8645434e-01
  1.3252341e+00
 -1.4182004e+00
  7.7521640e-01
  8.4645462e-01
  1.5441666e+00
  3.6830163e+00
  2.4564655e+00
  7.6066631e-01
  1.0422344e-01
 -9.7112328e-01
  5.0935823e-01
 -1.8868223e+00
 -3.5176095e-01
 -1.7898961e+00
 -3.5457391e-02
  1.2862454e-01
  1.4993754e-01
  5.9894193e-02
 -5.2010190e-01
  8.1498528e-01
 -8.9403844e-01
  8.2735866e-03
  1.1740353e+00
  4.5030460e-01
 -3.5079487e-02
  4.4225112e-01
 -9.2410004e-01
 -4.5780328e-01
  1.2700580e-01
 -1.6239963e+00
  7.1357864e-01
 -6.4253968e-01
 -7.4892771e-01
 -1.1405194e+00
 -6.6537872e-02
  1.3596592e+00
 -2.2181119e-01
  3.4769639e-02
 -2.5446111e-02
  1.4599374e-01
  3.1914121e-01
 -1.7991939e+00
 -4.6323594e-03
 -3.6512730e-01
  5.9902608e-01
  1.2707439e-01
  2.0535645e+00
 -5.3605783e-01
  2.1077281e-01
  1.6270024e+00
  6.7689568e-01
 -5.4809010e-01
  1.6034534e+00
  2.1355037e-01
 -3.7268111e-01
  5.7509238e-01
  1.6003569e+00
  1.6819760e-02
 -6.8587339e-01
  7.3352739e-02
  8.1599221e-02
 -2.2212632e-01
  3.2003307e+00
 -6.1199576e-01
 -1.3216847e+00
 -1.7210899e-01
 -1.4103338e+00
 -6.7112371e-02
 -8.1623560e-01
  3.6422312e-01
 -6.2959778e-01
  1.8359102e+00
 -8.1690975e-02
  7.6348454e-01
 -5.8820444e-01
  9.4195031e-02
 -5.0464892e-01
  1.1878755e+00
  6.8722290e-01
  2.9998147e-01
 -7.9011070e-03
 -8.1331414e-01
  2.1286263e-01
  1.8490620e-01
  2.2069997e-01
 -2.4102352e+00
  1.5057604e+00
 -9.5464736e-03
 -1.1862439e+00
 -4.5629779e-01
  6.0453391e-01
  4.2733297e-01
  3.1064710e-01
 -1.6483598e+00
  5.6300658e-01
  5.1478732e-01
 -1.9127165e-01
  1.2894920e-01
  1.5597084e-01
  9.7923361e-02
 -2.6941404e+00
 -8.4063476e-01
  1.6381779e+00
 -2.0061016e+00
  2.0765519e+00
  1.0767666e+00
  6.8847769e-01
  1.3306100e+00
  1.1169900e+00
 -9.5539540e-01
  7.8969556e-01
 -1.3663824e+00
  2.2815228e+00
  4.3485117e-01
  3.7608245e-01
 -3.9625970e-01
 -1.7858758e+00
  8.0538350e-01
 -3.9136428e-01
 -7.0231599e-01
 -4.0561411e-01
  3.8462913e-01
  4.1987699e-02
 -2.4981835e-01
 -4.0747952e-01
 -8.9706294e-04
 -4.3026200e-01
 -4.2934669e-03
 -1.2328099e+00
 -2.5506508e-01
 -6.4550905e+00
  1.2937303e+00
 -4.4672340e-03
 -1.5386981e+00
  7.0590921e-02
  6.7872494e-02
 -3.6637533e+00
 -5.9258378e-01
 -2.5119996e-01
 -1.3987964e-02
 -2.3254348e-02
  7.1847193e-02
 -7.3671333e-02
  8.3717513e-01
 -3.8244185e-01
  2.3628984e-02
  6.8575585e-01
  1.3762104e-02
 -7.4633695e-02
  1.4736205e-01
  2.9262051e-02
 -1.1683466e+00
  2.1344291e-01
  6.1396390e-01
 -3.2329586e+00
 -3.5972217e-01
 -1.7148147e+00
 -2.1600353e-02
  2.3982315e+00
  2.2504735e-01
  6.8610895e-01
 -5.4227227e-01
  1.0932159e-01
  4.2179006e-01
  3.1586289e-02
 -5.2667707e-01
  1.8898356e-01
  2.3032766e-02
  1.0800130e+00
 -3.3837414e-01
 -9.0955213e-02
 -2.4692252e-01
  1.7098482e+00
 -2.2980133e-01
 -6.4487462e+00
 -9.6654052e-01
 -8.2684441e+00
 -2.5850320e+00
  5.5330071e+00
  4.6563048e+00
 -3.6592168e-01
  2.1627009e+00
  5.7916712e-02
 -9.1751987e-01
 -1.9740862e+00
  1.5466872e+00
  3.1278436e-03
 -9.3834981e-02
 -3.4106622e+00
  1.5116801e+00
  2.7546835e+00
 -1.3061239e+00
  2.9595412e-02
  9.8605913e-01
 -1.4311923e-01
 -2.8689992e+00
 -9.7700280e-01
 -4.2045646e+00
  3.8496727e-01
 -2.0691648e+00
 -1.9128646e-01
 -2.2564557e+00
 -2.9922230e+00
 -5.5291212e-01
  1.6622819e-01
 -4.7829807e-01
 -2.7220068e+00
 -8.6136985e-01
 -1.4442468e-01
  6.7196381e-01
 -1.6114144e+00
 -8.3560663e-01
 -6.1738664e-01
 -4.2849368e-01
 -2.9949486e-01
  1.0287389e+00
 -6.2408000e-01
  5.0794208e-01
 -4.4945309e-01
 -7.0827664e-03
 -1.5014330e-01
 -3.5225075e-01
  1.4493600e-01
 -1.5483934e-02
  1.0005675e-01
  3.0317837e-01
 -6.2698275e-02
 -4.6185920e-01
  1.6057335e-01
  2.7653798e-02
 -9.4192944e-02
 -1.3765293e-01
  6.9697022e-02
 -5.6592520e-02
 -2.3109983e-01
 -1.0792997e-01
 -4.0556047e-02
 -9.7046703e-02
 -2.3284885e-01
  5.4609749e-02
  1.9366711e-01
 -6.6407017e-02
  1.0175944e-01
 -8.7004185e-01
 -7.4047290e-02
  5.0083917e-01
  1.4752138e-02
  1.4862296e-01
 -1.4621846e-01
 -7.3467270e-03
  3.0430359e-01
 -7.3706254e-02
  4.2436831e-03
 -1.9143708e-03
  4.1742507e-02
  7.6165326e-02
  1.3021393e-01
  1.4777000e-01
 -4.4588941e-01
  3.5755575e-02
 -8.8479316e-01
 -1.1793822e+00
 -1.2972008e+00
 -4.0056337e-02
 -1.6538008e+00
  1.5972912e+00
  3.5161512e+00
 -4.0948838e-02
 -1.7572634e+00
  1.2103788e-01
 -1.1842908e-01
  2.3849505e-01
  1.2100570e-01
 -2.5642473e-01
  2.3746981e-01
 -1.6634881e-01
  4.2434230e-02
 -2.0435626e-02
 -7.1884833e-02
  1.1698732e-01
 -2.2751180e-02
 -8.0448854e-01
 -1.6728887e-01
  1.0485236e-01
 -3.3624133e-01
 -4.7036698e-01
 -6.9108438e-01
 -1.1504791e+00
 -2.8108247e-02
 -1.4033452e-01
  6.4348325e-02
 -3.5331333e-01
 -3.9622739e-01
  8.2963836e-01
  5.5509742e-02
 -3.9318785e-01
  6.9218986e-02
 -4.9623147e-02
  2.1062322e+00
 -1.1865823e-01
  1.7123422e-01
  1.2673399e-01
  4.1245595e-01
  1.7176747e-01
  1.4485612e+00
 -4.1877526e-01
  1.1590351e+00
  9.3145394e-01
  4.6699138e+00
  3.7780263e+00
  6.7281163e-01
  3.7464187e-01
  1.2967772e+00
  2.9800103e+00
 -1.2975293e+00
  3.7003624e+00
 -3.2857370e+00
  7.6890141e-01
  3.2690477e-01
 -1.0545034e-01
 -2.4526076e+00
 -6.8284148e-01
  1.4566690e-01
 -2.1415038e+00
  1.0700030e+00
  3.5635707e+00
 -2.8118721e-01
 -1.7864289e+00
 -1.8547837e+00
 -1.6315480e+00
 -3.9487724e+00
 -9.8406917e-01
  2.5725484e-01
 -1.6813991e+00
 -2.0764687e+00
 -1.0922056e+00
 -4.0723363e-01
  8.6610347e-01
  1.7172618e+00
 -9.4580233e-01
  3.6186722e-01
  4.2608160e-01
  3.5896398e-02
 -2.3159277e-01
  8.9137214e-01
  3.0505705e-01
  3.9164886e-01
  2.4078684e-01
  2.0719497e+00
  1.8554075e+00
  2.4574747e+00
  2.0519063e+00
  2.4008491e+00
 -1.1118587e+00
 -1.3517943e-01
  1.6996573e+00
 -2.7538488e+00
 -1.1132602e-01
  1.7130430e-01
  4.7634134e-01
  8.2036293e-01
 -4.6485555e-03
  2.2878146e-01
  1.0654069e+00
 -1.8586469e-01
  1.4074592e-01
  1.1928824e+00
 -3.3700410e-01
  1.0995467e-01
  1.7238539e-01
  2.7750003e-01
  1.5044795e+00
  1.9511476e-01
  1.0483878e-01
  2.2792253e+00
  8.4058505e-01
  5.0578094e-01
  4.2618334e-01
 -2.0647714e+00
 -4.1868329e-01
  1.6605772e-01
  4.5598760e-01
  2.4149230e+00
  1.7961396e-01
  5.0597793e-01
  3.7613883e+00
 -3.1316873e-01
  8.0119327e-02
  4.8591432e-01
 -1.3342246e-01
  6.2306490e-02
  4.6659175e-01
 -6.8448342e-02
 -4.6977513e-02
  3.5005541e+00
  1.1325780e-01
  8.7794781e-01
 -7.8265488e-02
 -2.8575148e-02
  3.1100202e+00
 -3.1206302e-02
 -5.2998681e-02
 -6.1031565e-02
  8.1520602e-02
 -2.5883341e-01
  2.7415431e-01
  2.4041310e-02
 -3.6817148e+00
 -4.4789255e-02
 -4.0102366e-01
  2.5200576e-01
  3.1286091e-02
 -7.4736061e+00
 -2.1747993e-01
  9.5504187e-03
  6.4879715e-02
  1.7859703e-01
 -3.3421358e-01
  2.4352200e+00
 -3.4314981e-01
 -1.3292538e-01
 -4.9638912e-02
 -5.6092393e-02
  1.2105779e-01
  1.8215108e-01
  6.3984871e-02
 -1.8932422e-01
  3.5302866e-01
 -5.6378722e-02
 -3.5203735e-03
 -7.2485626e-02
  1.5540990e-01
 -4.4053861e-01
 -1.4240345e-01
  6.2512539e-02
 -2.7545068e-01
  8.5851371e-02
  1.8423113e+00
  1.7040635e+00
 -7.7977121e-01
  9.5696473e-01
  2.2661904e-01
 -2.3208618e-01
 -2.1885746e+00
  3.0649393e+00
 -9.4052130e-01
 -3.9042700e-03
  1.3081473e+00
 -3.5057178e+00
  6.7226160e-01
 -1.6356876e-01
 -7.5643617e-01
 -1.3556616e-01
  1.5732728e+00
 -8.7278619e-02
 -5.2620071e-01
 -2.9938105e-01
 -1.0666502e-01
  4.8154458e-02
 -3.5303816e-01
  3.2823843e-01
  9.9878520e-01
  2.5170283e+00
 -1.4259870e-01
  9.9735337e-01
  1.2382339e+00
  6.2337691e-01
  2.8464148e+00
  3.3204439e-01
 -1.1705163e+00
 -4.2902074e+00
  7.8142369e-01
 -5.3423983e-01
  2.1563077e+00
  6.9893979e-02
 -3.4270048e-01
  1.8086677e-02
 -1.0334753e+00
 -1.1683848e-02
 -4.8982922e-02
  1.7328387e-02
  3.3095860e-01
 -2.6799996e+00
  1.5228653e-01
 -6.4789027e-02
 -6.1063990e-02
  3.5863397e-01
  1.5155891e-01
 -6.7833751e-02
 -9.4119556e-02
  1.3684240e-01
  2.5984988e-01
  3.9197551e-04
 -8.4355846e-02
 -6.3029770e-03
 -3.8223749e-01
  7.4517107e-01
 -6.1036237e-03
  1.1042718e-01
 -1.3488162e-02
 -1.3169686e-01
  3.1259552e-01
 -8.1587955e-02
  3.8281664e-01
  5.8487020e-02
 -3.6316124e-01
 -5.1882410e-01
 -2.7635926e-02
  4.1320696e-01
  7.2722748e-02
 -5.0596994e-01
  1.7822650e-01
 -7.1980126e-02
  3.1818392e+00
  7.7884495e-02
 -6.1851673e-02
 -1.6439214e-01
  2.0158595e-01
  1.4944327e-02
 -3.8144115e-02
 -3.2518603e-02
 -2.5044627e-02
 -2.1834176e+00
  2.1237956e-01
  6.5240002e-01
 -4.7165704e-01
  2.2628832e-01
 -6.2442553e-01
 -9.7204506e-02
 -2.5372398e-01
  3.9912099e-01
 -3.1615210e-01
 -3.6563703e-01
  1.2044441e-01
  8.6070448e-02
 -1.7161782e-01
 -1.8391414e-01
  1.6183108e-01
  7.9023761e-01
 -3.7597385e-03
  2.3673216e-02
 -2.8245006e-02
  1.3674697e-01
 -5.1010195e-02
 -6.9638770e-03
 -2.1117706e-02
  2.9087898e-01
 -8.4914587e-02
 -2.4180634e-01
 -1.0450915e+00
  1.6382261e-01
  9.3542235e-03
  4.2078444e-01
 -5.5781507e-01
 -1.4147500e+00
  3.3374307e-01
 -6.0378641e-02
 -3.7670004e-01
  1.1987233e-01
  3.3115204e-02
 -4.8208013e-02
 -1.4863577e-01
  1.9561568e-01
  2.3024252e-01
 -2.9099062e-01
  6.4982222e-03
  7.9938047e-02
  2.5730780e-01
 -5.6051546e-01
  3.1793100e-01
  6.2506688e-01
  3.3014059e-01
 -6.0182914e-02
 -9.4763088e-01
 -5.4557806e-01
  6.2090140e-02
 -1.9891485e+00
 -4.3544731e-01
 -4.5184621e-01
  7.2094120e-02
 -1.2658620e-01
 -6.8307303e-02
  1.7644978e-01
 -1.4895327e-02
 -3.9586499e-01
  1.0178258e-01
 -5.0073367e-01
 -3.9550838e-01
 -6.2531906e-01
 -1.7210832e-01
  4.1641608e-01
  1.4682102e-01
 -1.5454365e-01
  3.1088419e-02
 -2.5703479e-02
  2.4924853e-01
  9.9647008e-02
 -2.0001565e-01
  5.7289404e-01
 -5.0480224e-02
 -3.7262353e-01
 -9.6322410e-03
 -3.0992049e-01
 -2.1642067e-01
  1.2409027e-01
 -1.5812205e-01
  2.1024628e-01
  8.1872337e-02
  1.1787421e-01
 -2.6220530e-02
  1.3842772e-01
 -2.5829858e-01
 -1.3097666e-01
 -1.4128751e-01
  1.4488833e+00
 -2.2401468e-01
 -3.3833644e-01
  3.5851121e-01
 -8.0119312e-01
  8.4149593e-01
  1.0810533e-01
 -5.7837409e-01
  6.3482201e-01
 -3.3255529e-01
 -4.4720840e-01
  4.2851686e-01
  8.5893221e-02
  2.3924680e-01
 -4.5435391e-02
 -1.0245434e+00
  7.4107397e-01
 -3.2943082e-01
  2.3731484e-01
 -1.4961353e-01
  5.8769107e-01
 -3.8358863e-02
 -7.7503875e-02
 -5.7561272e-01
  9.9814957e-01
  9.1866829e-02
 -2.6204202e-02
 -6.9648720e-02
 -6.8786647e-03
  3.8380694e-02
 -1.9333165e-02
  7.4473038e-02
  2.8884792e-01
 -4.0875226e-02
 -1.6693455e-01
 -7.3649848e-01
 -2.8852719e-01
  7.7836220e-03
 -9.0961285e-02
 -4.4626084e-01
  4.8612037e-01
  3.8258669e-01
 -9.6586567e-01
