nep4 2 Si Ge 
cutoff 5 5 35 35
n_max 15 15
basis_size 12 12
l_max 4 0 0
ANN 25 0
 -3.0491039e-01
  9.7356623e-01
  1.5357284e-01
 -2.7861246e-01
 -6.2938476e-01
 -4.6645988e-02
  4.0834513e-01
 -1.0865015e+00
 -1.2875621e+00
  7.8036480e-02
  6.8911444e-04
 -6.5209242e-03
 -4.6507436e-01
  1.4796999e+00
  7.2797620e-01
  3.8069539e-02
  1.6908891e-02
 -1.0651433e-01
  1.6227204e-02
  2.2587299e-01
 -1.1405981e-01
 -6.8311542e-03
 -1.0626578e-01
  1.0440961e-02
  2.6883084e-01
  1.3526237e-02
  1.5811546e-01
  1.3701792e-01
 -3.6077207e-01
  1.5836050e-01
 -7.3660277e-03
  1.8752104e-01
 -2.0640509e-01
 -2.7295702e+00
  1.2833435e-02
 -5.1253819e-01
 -2.2813188e-01
 -4.8974165e-01
 -1.2778915e-01
  3.0234829e-01
  2.0591304e-01
 -3.8227436e-01
  2.0026673e-01
  4.3596399e-01
 -1.6258022e-01
  1.2106624e-01
 -9.1177064e-01
  2.8050968e-01
  2.6656341e-02
  7.0480066e-03
 -6.1996985e-02
  2.5263282e-02
  5.6309038e-01
 -3.3733033e-02
 -2.9941645e-01
 -6.6264917e-04
  4.1751420e-01
  8.5762162e-03
 -1.6787220e-02
  5.7619508e-02
  8.0391876e-03
 -1.9948831e-02
  3.2316629e-02
  4.4181570e-04
 -2.0061103e-03
  8.7860093e-02
 -2.0448947e-01
 -6.4982128e-01
 -7.8532457e-01
  1.2664276e-02
  1.5219703e-01
  3.6599427e-02
  5.5004513e-01
 -2.0185029e-02
  8.7720249e-04
  2.1082960e-02
  5.0245076e-02
 -4.3494191e-02
  8.8888653e-02
  1.1830142e-02
  1.3689969e-01
 -1.8408646e-01
  1.8285052e-01
 -7.2300172e-01
 -2.9276518e-02
  5.8447211e-03
 -6.4532191e-02
 -8.2876220e-02
  4.9748171e-02
 -6.8311691e-01
 -5.1800370e-02
  1.0108005e-01
 -1.3005460e-02
  1.3799475e-01
 -1.4403073e-01
 -1.3182221e-01
  1.1193939e-04
  1.7255746e+00
 -1.1163562e-03
  4.3967761e-02
 -3.6028966e-02
  3.2060791e-02
  1.9644890e-02
  1.4374188e-01
  6.6566348e-01
  2.5650818e-02
  6.5542050e-03
  2.2833137e-02
 -2.9656315e-02
 -4.8966624e-02
 -7.8257434e-03
  1.0748954e-02
 -1.8496713e-01
  1.5697197e+00
  3.9033145e-02
 -1.3082803e+00
 -1.5916789e-01
  8.2578111e-01
 -3.9456433e-01
 -3.7775028e-02
  2.6050949e+00
 -7.9185432e-03
  4.6828156e-03
 -8.9831960e-01
  8.8042708e-04
 -1.3169372e-01
 -9.8940916e-02
 -4.0845186e-02
  4.1232679e-02
  1.4131569e+00
  7.1300333e-03
  8.6375788e-02
  3.2344937e-02
  3.9732590e-02
  3.1320296e-02
  4.1780271e-02
  1.5794017e+00
 -2.4823174e-02
 -1.6288534e-03
 -4.7642354e-02
 -3.5628989e-02
 -4.6007788e-01
 -3.3362481e-01
 -5.1059313e-02
 -8.4567174e-02
 -4.2102706e-02
  4.0603681e-03
 -6.3800919e-01
  5.5356664e-03
  2.4092434e-02
  1.7471221e-01
 -4.7912285e-01
 -3.4936783e-01
  1.4352893e-02
 -8.5431412e-02
  4.3559927e-02
  1.7294641e-01
 -8.3092470e-03
 -5.5923115e-02
 -1.4994454e-02
  3.1607774e-01
 -1.1269968e-02
 -5.1427001e-01
  5.2766915e-02
  7.1949947e-01
  3.6252159e-01
 -5.0322318e-01
 -7.7673651e-02
 -4.6424323e-01
 -2.0569468e+00
  2.0346227e-01
  3.5969928e-02
 -1.8455740e+00
 -2.5713002e-02
  1.8673344e-02
  1.3039826e+00
  2.9857042e-01
 -2.6154771e-01
  6.9172078e-01
  3.5688856e-01
 -8.4575486e-01
  4.8722565e-01
  9.4043642e-01
 -9.0866245e-02
 -8.5117549e-01
  4.3370068e-01
  3.7121738e-04
 -3.0614629e-03
 -3.1197262e-01
  5.5806797e-02
 -2.5770435e-01
  1.8153541e-02
  9.7253710e-02
 -1.0217123e-01
 -2.2746590e-01
 -9.3325451e-02
 -9.2613876e-01
  4.0806860e-01
  7.1861076e-01
  5.9915031e-03
 -5.5042034e-01
  5.9423947e-01
  1.6950376e-02
  1.0118191e-01
  4.1295134e-02
 -3.9550841e-01
  1.8784919e-01
 -1.0738653e+00
  1.7492631e-01
 -6.0207289e-01
  3.7085593e-02
 -1.3511074e-01
 -1.1921358e+00
 -1.0572087e+00
 -7.9537076e-01
 -1.0688250e-01
 -1.0561157e-01
  5.3454101e-02
 -1.3836659e-01
  1.5119676e-03
 -1.3958082e+00
  6.4524502e-01
 -1.1259100e+00
  7.3538855e-02
  2.7903019e-02
 -8.3761930e-01
 -1.7145380e-02
  2.1696433e-02
  7.7685946e-01
  1.0964180e+00
 -9.4311118e-02
 -1.7435914e-02
 -1.1023092e-01
  2.4468536e-03
  8.2439698e-02
  2.9298177e-01
 -1.6628952e-01
  3.6876611e-02
 -4.7510017e-02
  2.7079824e-02
 -1.5043693e+00
  8.7780431e-02
  1.7926270e+00
 -3.8168104e+00
  1.9705723e-01
  8.8486791e-02
 -1.6604422e+00
 -8.4260941e-01
  2.1386597e-02
  8.9207226e-01
  1.0236788e-03
  3.0917421e-01
 -5.0615251e-01
  1.2386786e+00
 -1.3664989e-02
  2.7783604e-02
  4.1233182e-02
 -9.8588489e-02
  2.3418993e-02
 -2.6318574e-01
  5.2405301e-02
 -6.4853597e-03
 -1.9567050e-02
 -2.5898200e-01
 -1.0361316e-01
 -5.2179533e-01
  2.1868514e-02
  9.4310068e-02
  8.7550897e-03
 -3.1131100e-02
 -4.8982009e-02
  3.3821452e-01
 -1.6925443e-02
 -2.5358645e-02
 -5.7074374e-01
 -1.0513878e+00
  4.8546076e-01
 -1.9482119e-01
 -3.3042273e-01
 -1.4211919e-02
  5.1459670e-01
 -4.9544849e-02
  4.7555980e-01
 -1.9440597e-02
  3.1387967e-01
 -3.4696970e-02
  1.8721765e-01
  1.4231467e-01
  7.3102784e-01
  6.2764086e-02
  1.0089619e-01
 -1.9691116e-01
 -5.3090852e-01
 -6.3970119e-02
 -1.6270401e-01
 -3.2273266e-02
 -2.1063218e-02
  1.2667134e+00
 -1.4903847e+00
 -2.9848581e-02
 -1.5916549e-01
 -7.6423281e-01
  1.0664482e-01
 -1.5886750e+00
 -6.6486359e-01
 -4.5070808e-02
 -7.5797653e-01
 -4.0119332e-01
 -3.3541165e-02
 -4.6358687e-01
  2.9492872e-03
 -1.6435383e-01
  3.0814562e-02
 -2.6150292e-01
 -3.6153950e-02
  4.3542311e-02
  1.1273648e+00
 -3.8552266e-02
 -2.7358808e-02
 -5.8962731e-04
  7.7381861e-01
 -5.2766144e-01
  8.9651954e-01
  1.4116567e+00
 -3.1439159e-02
  1.2446837e+00
  5.1975168e-02
  8.6203945e-01
 -2.5326860e+00
 -5.5934757e-01
 -2.0536506e+00
  1.9468145e-01
  2.0626509e+00
  6.4871162e-01
  4.9150113e-02
 -3.5994041e+00
 -8.0479518e-02
 -1.9353905e-01
  1.6023966e+00
  1.4522794e-01
 -1.4605476e-01
  1.0573145e+00
  1.0880721e+00
  1.0316572e+00
 -1.6657680e+00
  2.7682233e-01
 -8.5259777e-01
 -3.8307187e-01
 -1.3070545e-01
  1.2108201e+00
 -1.1810404e+00
 -1.6548623e+00
 -1.2059110e-01
 -9.8183669e-02
 -7.8375256e-01
  8.2188541e-01
 -1.3220987e-01
  2.2567497e-01
  2.1735616e+00
 -7.1984001e-02
 -1.3735390e+00
 -1.4491566e+00
  2.3302031e+00
  2.6756801e-02
 -1.0432703e-01
 -1.0485086e+00
  4.9290603e-01
 -1.2773856e-02
  5.5487525e-01
  1.2084596e+00
  2.4484284e+00
  2.5057471e+00
  3.7819174e-01
 -2.2357018e+00
 -1.1545295e+00
 -4.8962769e-01
 -2.7471189e+00
 -1.0631691e+00
  9.6406862e-02
  5.7259321e-01
  1.9838210e+00
 -3.6411574e-01
 -1.9961195e+00
 -1.7951696e+00
 -8.7229395e-01
  1.9723995e-01
  9.5602018e-01
 -4.9178836e-01
  2.2737932e-01
  1.1682421e-01
 -1.6260860e+00
  1.2507930e+00
 -2.5832611e-01
 -1.0737348e-01
 -3.0700061e-01
 -3.5703571e+00
 -3.1120607e-01
 -5.5660129e-02
  3.4664543e+00
 -1.1793867e+00
  9.3490863e-01
  3.9942235e-02
 -1.9743638e-01
 -5.9442556e-01
 -1.7797549e-01
  6.4788330e-01
 -8.6453795e-01
  2.0474045e-01
  4.2127528e+00
  8.3253694e-01
  8.1843221e-01
 -2.7188012e-01
  8.5810721e-01
 -3.6731353e-03
  3.8416958e-01
  4.7985524e-01
 -3.3290273e-01
  1.1283933e-01
 -7.4675375e-01
 -1.2513560e-01
  1.7895263e+00
 -3.9651081e-02
 -4.9862359e-03
 -5.7257704e-02
  6.9599569e-01
 -5.3772748e-01
 -2.9128468e-02
  1.6719259e-02
 -4.7436178e-02
 -7.9694211e-02
 -2.7361338e+00
 -1.8046116e-02
  5.0487403e-02
 -1.9984029e-02
 -6.5502480e-02
  1.5790160e+00
  7.4650142e-03
 -3.2923731e-01
 -4.1109896e-01
 -5.5586029e-02
  1.8361865e+00
  9.7557075e-02
 -4.1053346e-01
 -1.8685706e-02
  6.4935970e-01
  8.7790984e-01
 -6.3339427e-02
 -2.0365143e-02
  2.7529148e-02
 -7.6631397e-02
 -2.8137782e-01
  8.3579496e-03
  1.3849121e-01
 -1.3738935e-01
 -1.1763425e-01
 -1.3621742e+00
  5.9574887e-02
 -2.2817208e-01
  9.2401206e-02
 -2.8629176e-02
 -7.9066329e-02
  8.9716770e-02
  8.9226170e-03
 -5.9129912e-01
  1.1463971e+00
 -9.2921637e-02
  1.2130778e-01
  5.1231760e-01
  1.8665318e-01
 -1.3682118e-02
  4.7540940e-02
 -2.0966846e-02
  2.5897792e-01
  1.4506942e-01
  1.5580410e-01
  1.1133549e-02
  1.7896403e-01
  4.2366099e-01
 -1.7474818e-01
 -1.0588126e-02
  9.6868414e-01
 -5.1681393e-01
 -9.9924433e-01
  2.5039928e+00
 -1.1929362e+00
 -1.2136720e+00
 -2.6836116e+00
 -8.7594932e-01
  1.8219373e-01
 -7.8862369e-01
  8.5787512e-02
 -3.2052896e+00
 -3.4134725e-01
  1.3455592e-01
 -2.3745924e-01
 -2.6572263e-01
 -1.0886070e+00
  1.7765511e+00
 -3.5418102e-01
  1.1495219e+00
 -5.1531196e-01
  1.6855262e-02
  1.1379253e+00
  1.2047505e+00
  3.4361801e+00
  5.1922089e-01
 -4.4353747e-01
  3.3189741e-01
 -3.2628474e-01
 -1.0075351e+00
  1.9542378e+00
 -2.6249966e-01
 -3.5493210e-01
  3.7920296e-01
  1.3714188e+00
  5.3199500e-01
  3.4728300e-02
  1.1550838e-01
  2.5006092e-01
 -8.9907147e-02
  2.8732145e-01
  6.5962411e-02
  5.8338821e-01
 -3.4641400e-01
 -4.3792278e-01
 -3.6512427e-02
  1.6280849e+00
  1.3421613e-03
 -2.5167093e-01
  1.4958207e-03
 -2.8974905e+00
  6.1922282e-01
 -2.3904739e-01
  9.1529548e-02
 -7.0805091e-01
  2.1589355e+00
  1.0100669e-01
  1.1111595e-01
  2.7917388e-01
 -5.9106058e-01
  1.7970426e+00
  5.6938493e-01
 -5.4565620e-01
 -2.6644327e-02
 -9.1614984e-02
  2.4073180e-02
 -1.1011227e+00
 -5.2602929e-01
 -4.0360335e-02
  1.5979923e+00
  4.4321936e-01
 -4.5588534e-02
  8.4238696e-01
 -6.6842800e-01
  1.1114857e+00
 -1.7380886e+00
  1.9297187e-01
  1.1630977e-01
 -6.4490363e-02
 -1.2921661e-01
  9.8348022e-02
  1.5713302e-02
 -8.7327445e-01
 -1.5934609e-03
 -2.9860896e-01
 -9.7665590e-01
 -9.7278312e-02
  1.1129203e-01
 -7.8991222e-01
 -1.1176237e+00
  3.7573493e-01
  2.5628096e-01
 -8.0268586e-01
 -2.8833983e+00
 -1.3777500e-01
 -9.1018981e-01
 -6.5828241e-02
 -9.2559129e-02
 -2.1715473e-01
 -4.9714126e-02
 -1.2139786e+00
 -4.1892990e-01
 -7.9081677e-02
 -1.0599053e-01
 -1.0170545e-01
  2.1896340e-01
 -2.0769639e-01
  3.9934306e+00
 -1.5333705e-01
 -7.1724661e-02
 -4.4907857e-02
  7.8821359e-03
  9.9113598e-02
 -2.7304016e-02
 -1.1088341e-02
 -5.8081541e-02
 -1.1698313e+00
  8.0590710e-02
  3.3534177e-02
  9.4563462e-02
 -2.3440889e-01
  7.5977013e-02
 -4.3081388e-01
  8.0140024e-02
  2.9364163e-01
 -9.3133986e-01
  8.5604437e-02
 -1.8670548e-02
 -8.2963053e-03
 -1.9859539e-01
  1.3016691e+00
  1.4077176e+00
  1.5251738e+00
  7.7090156e-01
  9.5577613e-02
  5.1816845e-01
 -3.1899614e-04
  4.3573156e-02
  7.5580731e-02
  1.8309580e-02
 -2.3712854e-01
  3.4192868e-02
  2.7857783e-01
  2.3400548e-01
  6.2034741e-02
  1.8685199e-02
  1.5951283e-02
 -4.6108766e-03
  8.9581922e-02
  4.7448877e-02
 -2.0688419e-01
 -1.3028419e-02
 -2.3149598e-02
  2.4191013e-02
  3.6134473e-03
  3.5737839e-02
 -1.0758636e-01
  3.9264113e-03
 -2.7997956e-02
 -5.5953145e-02
  2.5797629e+00
  3.8495705e-01
 -3.3964782e+00
 -2.4221353e-01
 -3.3443935e+00
 -8.6649889e-01
 -1.0045143e+00
 -4.2310277e-01
  4.7150846e+00
  2.4411604e+00
 -2.7425804e+00
  1.7468153e-01
  2.3865733e+00
 -2.6560721e+00
  1.2567042e+00
 -1.7850403e+00
  1.4665769e-02
  3.6229974e-01
  1.6099393e-02
 -3.8978416e-01
  6.5764701e-01
  1.0630476e+00
  3.9869511e-01
  9.0675429e-03
 -1.6367762e-01
 -2.7579762e-02
 -1.2256531e-01
 -5.6704409e-02
  2.5798945e+00
  2.3536752e-01
  5.0264865e-01
 -9.6346125e-02
 -5.8940786e-01
  5.4677933e-01
  2.0072559e-01
  5.2580273e-01
 -6.8331480e-01
  7.2928190e-02
  9.4926000e-01
  1.5959159e-01
 -1.2707789e+00
 -3.2743251e-01
  1.6667408e-01
 -3.5318926e-02
  7.5855738e-01
  5.3217906e-01
  9.6384358e-01
  2.3319069e-01
 -1.0707248e-01
 -4.0768793e-01
  3.4930742e-01
 -7.1104683e-02
 -1.6943893e-01
  5.9685085e-02
 -9.3070620e-01
  6.6228211e-01
 -1.7032192e+00
  1.2702245e-01
  3.0319552e+00
  7.4827813e-02
  1.5925368e-02
  1.1208490e-02
 -1.8246768e+00
  3.9599542e-02
 -1.1137813e+00
  4.7217906e-01
  1.6143007e-02
  6.2309753e-02
  2.6384413e-01
 -4.4804597e-01
 -7.2341156e-01
 -1.2418791e+00
 -1.0889660e+00
 -2.2583041e-01
  3.3894267e-02
  1.3378437e-02
 -1.0111952e+00
  3.5038941e-02
 -1.1558692e-01
 -1.0899607e-01
 -1.0315354e+00
 -1.1620852e+00
 -1.5080639e+00
  1.5948337e+00
  5.6269848e-01
  1.6074854e-01
  1.7549907e+00
 -3.5493795e-02
 -7.8745383e-01
  3.8388786e-01
  6.5329343e-02
  1.9967827e-01
 -1.1425438e+00
  4.9248549e-01
  1.4011487e+00
 -2.9509161e+00
 -2.1413557e-01
 -5.1812375e-01
  2.8727293e-01
  2.1768659e-01
  1.6495607e+00
 -1.1372390e-01
  2.0190122e+00
 -7.0340103e-01
 -7.1786970e-01
 -5.2762610e-01
 -1.4204782e+00
  8.4800720e-02
 -1.8391863e+00
 -1.4203398e+00
 -1.7070927e-02
 -3.3049268e-01
  2.6304632e-01
  1.1826273e-01
 -1.8315917e+00
  2.8197331e-02
 -3.9145279e-01
 -2.6848645e+00
  1.1677771e+00
 -7.6177806e-02
 -3.1079907e+00
 -4.0145222e-02
 -2.3988428e+00
  1.7871091e-02
 -1.3631831e+00
  4.4256306e-01
  1.5544680e+00
 -8.3959684e-02
  5.8108028e-02
  1.3551074e+00
  3.3635965e-01
  1.2719846e-01
  1.0812039e+00
 -3.6942616e+00
  1.6944633e+00
 -2.4947797e-01
 -4.4554436e-01
 -1.8593910e-01
  1.9003036e+00
  2.0922421e-01
  3.1851813e-01
 -1.1134343e-01
 -9.2173660e-01
 -1.5259533e+00
 -1.5578713e-01
  6.7042947e-01
  3.9791031e+00
  1.1636335e-01
 -3.7778929e-01
 -2.2178311e+00
 -3.4157947e-02
 -2.1211021e+00
 -4.6373156e-01
 -5.9680748e-01
  8.6962925e-03
  1.8936840e+00
  1.1347921e-01
  1.0439415e+00
  3.6932433e-01
 -2.3537655e+00
  7.4054140e-01
  1.5773222e-01
 -3.1466544e-01
 -3.7050056e-01
  2.9152155e-01
 -3.2505092e-01
  1.5726492e-01
  3.0899558e+00
  7.8319567e-01
 -3.5228301e-03
 -4.1512382e-01
  1.4425406e+00
  8.2985562e-01
  2.2227926e+00
  4.6072055e-02
 -4.3983507e-01
 -5.1778293e-01
 -8.7029308e-02
 -2.2992188e-02
  1.5169088e-02
  2.4819881e-02
 -1.2957035e-02
  9.3357049e-02
 -2.6081294e-02
 -2.7538911e-02
 -1.5530729e-01
  1.1078910e-01
  4.2237576e-02
 -1.0969882e-02
  1.9064842e-01
  3.0317605e-02
 -7.9288714e-02
 -5.5920605e-02
 -1.1877947e-01
  1.6697586e-02
 -9.0988800e-02
  1.7132008e-01
 -1.7403834e-02
 -4.3203462e-02
 -1.0796563e-02
  1.0997102e-02
  1.0360406e-01
  1.0547376e-01
 -1.1589339e-01
  7.1266256e-02
  5.7583056e-02
 -2.6738736e-01
  4.1115798e-02
  2.1803308e-02
  4.7236495e-02
 -3.8488314e-02
 -8.2361221e-01
 -2.5025463e-01
  9.1568261e-02
 -1.1213794e+00
 -2.2908077e-01
 -1.0617900e-01
 -1.7333841e-02
 -2.6882015e-02
 -5.2975602e-03
  8.9747429e-02
 -3.4667049e-02
  8.9408338e-02
  3.4977984e-02
 -3.1055851e-02
 -1.5289210e-02
  2.1903101e-02
 -3.2352638e-01
  1.2356978e-01
 -1.1520443e-02
 -2.9114611e-02
  1.1629055e-02
 -9.1311350e-02
 -2.4391690e-02
  5.1425416e-02
  9.4078273e-02
  4.1127488e-02
 -3.0502565e-03
 -4.2381855e-03
  9.7830489e-02
  1.5805558e+00
 -8.2418376e-01
 -4.1049746e-01
  2.7111065e+00
  1.3510000e+00
 -6.4655952e-02
 -4.1601735e-01
 -2.8930026e-01
 -8.8369161e-01
  1.3753179e-01
  6.5376002e-01
 -1.4246743e+00
  2.0282841e+00
  1.5299773e+00
 -1.2141833e+00
 -1.6198987e+00
  6.0778372e-03
  1.4941303e+00
  2.6972973e+00
  4.4921294e-01
  1.7853218e-01
  2.8172269e-01
 -1.4916230e-02
  4.2623636e-01
  2.8618047e+00
 -2.6513022e-01
  1.1372163e+00
  3.5438842e-01
  7.9510289e-01
  3.4101623e-01
  5.3589845e-01
 -2.4303542e-01
  1.8154433e-01
  4.0941128e-01
 -6.1337638e-01
  4.1353032e-01
 -3.8568154e-01
 -8.8984765e-02
  6.4394635e-01
 -5.7152784e-01
 -7.9691964e-01
 -4.7631119e-03
  8.5892427e-01
  1.1291974e+00
 -1.5174859e+00
 -1.8273900e-01
  2.4152474e+00
  3.8215098e-01
 -1.5940785e-01
  1.3277868e+00
 -3.8421249e+00
  1.2656507e+00
 -3.2742068e-01
 -8.7781173e-01
  1.9774874e-01
 -2.4233176e-01
  8.9569867e-01
 -5.6557301e-02
  1.5394065e+00
 -2.9621166e-01
  6.0690719e-01
  4.7721112e-01
 -1.4128065e+00
 -9.7492397e-01
 -1.0813861e+00
 -8.2297319e-01
 -3.7974203e+00
  5.6242600e-02
  1.3502678e+00
  2.4365985e+00
 -3.0774900e-01
  8.2422233e-01
  2.6949306e+00
 -3.8929456e-01
  5.7808739e-01
  1.9826238e-01
  1.9067354e+00
 -1.0642715e-02
 -3.0343957e+00
  3.4102213e-01
  5.6999620e-02
 -1.9284710e-01
  1.2352414e-01
  6.3821241e-02
  7.4575686e-01
 -1.0623393e+00
  1.2947191e-01
 -1.5037258e+00
 -1.1893494e-02
 -1.3775876e+00
  4.3712746e-02
 -2.8237637e-02
  6.0002303e-01
  7.2160846e-01
  3.6854583e-01
 -7.2335321e-01
 -4.5881949e-02
 -8.4428889e-01
 -8.1678651e-02
  7.8757323e-02
  3.0670884e+00
 -1.5897918e-02
 -3.4620177e-02
  1.2259363e-01
  1.1975971e+00
  6.9703966e-02
  1.0575436e-02
  9.6032448e-02
  6.7495894e-01
  9.4899312e-02
  7.5784975e-01
 -7.1044285e-03
 -3.1722826e-03
  1.4867159e+00
 -6.2388039e-01
  6.8784988e-01
  3.3280545e-01
 -2.2348458e-01
 -2.0131572e-01
 -6.6431600e-01
  1.4936875e+00
  2.1145651e-03
 -3.7645612e-02
  1.4309309e-01
  8.1766909e-01
 -8.8981986e-02
  1.0443006e+00
  4.0110346e-02
  1.3154402e-01
  5.0852716e-02
  1.9990999e-02
 -1.2649268e+00
  5.0422126e-01
  1.4483359e-01
  8.6723059e-01
 -7.4322313e-02
  1.5913210e+00
  1.3596207e-01
  2.2858521e-01
 -2.2317521e-02
  1.5217751e-01
  4.0810588e-01
  3.8648891e-01
 -1.3068238e+00
 -3.7298548e-01
  7.3353178e-03
 -1.1794921e-02
  1.2668006e-01
 -3.8977131e-01
 -3.1350979e-01
 -3.2233186e-03
 -8.3255053e-02
  2.0448713e-01
 -6.8309300e-02
  1.6216454e-01
 -9.5351130e-02
 -4.9243044e-02
 -8.1957690e-02
  1.0426528e-01
  1.1196879e-01
 -7.1854395e-01
 -7.0208573e-01
  9.1920871e-01
 -2.0875804e-02
 -1.0160194e-01
  2.6881618e+00
 -1.5945334e-02
 -1.8220353e-01
  9.9974856e-02
  1.3336893e+00
  2.5053393e-02
  3.4174550e-01
 -9.3246889e-01
  1.1916307e+00
 -4.3846062e-01
  6.2322718e-01
 -1.8294007e-02
  3.7381101e-02
 -8.4483717e-03
 -7.7678780e-03
  2.0797372e+00
 -6.5445732e-03
  2.1644691e-02
  4.3243142e-03
 -8.6051255e-02
  8.4235825e-02
  2.6916519e-02
  2.6625918e-02
 -1.1132441e-02
 -4.0615386e-01
  1.7634092e-04
  5.9716012e-02
  1.7650452e-01
 -3.3650416e-01
  1.6439643e-02
  9.2848159e-02
  2.9878367e-02
  4.0038735e-02
 -8.5164070e-01
  3.5930982e-01
 -6.4133950e-02
 -9.4160445e-02
  2.2373311e-01
  1.6491963e-02
 -3.1247463e-02
 -8.1791788e-02
 -6.1293926e-02
  8.9244157e-02
  1.0327879e-01
  9.7713150e-02
 -4.4188600e-02
  3.2026421e-02
  6.4788975e-02
 -3.1935764e-03
  5.1242411e-02
  1.7306680e-02
 -1.0071562e-02
  1.2724361e-01
 -9.9675134e-03
 -8.3006220e-03
  2.4746889e-01
  1.1480784e-02
  1.7394844e-02
  3.6260262e-02
  5.0294019e-02
  1.6963450e-02
  1.1615537e-01
  2.3471307e-02
  1.5580311e-01
  6.5955210e-01
  9.9213600e-01
  9.8472938e-02
  1.2178247e-01
  3.0862653e-01
  2.4232480e-01
 -5.8773696e-02
  1.8888693e-02
 -1.3572093e-02
  3.6508236e-02
  8.7899409e-02
 -3.4951687e-01
  3.3794702e-03
  1.2913696e-01
  6.7837194e-02
  9.3753809e-01
  2.8889031e+00
  8.1855364e-02
  4.4769004e-01
 -6.8442178e-01
 -8.7824767e-04
 -7.0278540e-02
 -3.1920943e+00
 -1.4224035e-01
  1.7199706e+00
 -1.1956094e-01
 -6.2083259e-02
 -3.8862412e+00
  1.0209923e-01
  1.6074291e-01
  9.1308273e-02
  5.1435549e-02
  4.0287133e-02
 -1.1665033e-02
  1.1092658e-02
  2.0509976e-01
  5.9522525e-03
  7.4448332e-02
 -3.6923476e-02
  4.8408922e-02
 -3.3727564e-02
  1.5932421e-01
 -1.5789859e-02
 -2.2039650e-02
 -6.0574401e-02
 -1.7019296e-02
 -2.0636940e-02
  6.2366170e-01
  5.5081723e-03
  7.0911616e-02
  1.4799440e-01
  1.0415227e-01
 -4.5169249e-01
  9.8919809e-02
  5.8262274e-02
 -2.1813432e-02
  4.3968529e-01
 -4.2067254e-03
  5.5962235e-02
 -2.2684406e-02
 -1.6669419e-02
 -3.9749467e-01
 -2.9823130e-01
 -1.1690907e+00
 -4.4063520e-01
 -2.5775490e-02
 -2.4995795e-02
  8.1960344e-01
  3.8066156e-02
 -1.5249819e-01
 -5.5133019e-02
  8.6959049e-02
 -2.0166356e-02
 -7.9984874e-02
 -1.0437557e-02
  7.4015679e-03
  6.8047523e-02
 -1.2601070e-01
  6.0962308e-03
  2.0705749e-01
  6.3416377e-02
  5.5953301e-02
  5.6605257e-02
  5.6976467e-02
 -1.4169866e-01
  1.6550463e-02
  1.4300184e-02
 -4.6289004e-02
  9.1284113e-03
  2.4593618e-02
 -2.1855408e-02
 -2.3570111e+00
  5.2105901e-03
  1.9162232e+00
  3.4592240e-03
 -2.9842931e-01
  8.1527537e-01
  3.6041753e+00
 -1.5383341e+00
  1.7547657e-01
  2.2085943e+00
  8.6272053e-02
 -7.9358459e-02
 -7.5765902e-01
 -1.5235409e-01
 -2.6537199e-02
  6.9174776e-04
  5.5506617e-02
 -4.2648122e-02
  3.8481470e-02
  8.5449435e-02
  1.3597150e-01
  1.4179546e-01
 -8.3664954e-02
  2.1707803e-01
  3.4538875e-03
 -5.7100568e-02
  5.6689084e-02
 -6.8291691e-03
  6.1345369e-02
  4.0556353e-02
 -6.0363603e-03
 -2.2734994e-02
  2.9087585e-01
 -5.4688625e-02
  5.7929707e-01
  1.2046333e-01
  2.6015216e-01
  3.9207887e-02
 -7.2327629e-02
  2.9594359e-01
 -2.5995010e-01
 -3.9386597e-01
  4.6066043e-01
 -1.4199081e-02
 -1.6825971e-01
  3.0360931e-01
 -1.1402337e-01
  1.1448488e-01
 -5.8525885e-03
  7.4866012e-02
  4.7834817e-02
  1.9118940e-02
  1.6579194e-02
  4.5678940e-02
  1.3523761e-02
 -1.0484848e-03
  9.0974001e-03
  1.0504568e-01
  1.1205451e-01
 -4.7774781e-02
  3.0199869e-02
  1.1308441e-02
 -4.5652498e-02
  4.0241558e-02
  1.8080214e-02
  1.1069855e-01
  9.8809950e-02
  5.6133699e-02
  3.5001116e-03
 -9.8727166e-04
  1.1422437e-02
 -4.2987976e-02
 -3.1351563e-02
  1.5581127e-01
 -9.0575948e-02
 -1.5978266e-01
 -3.3969522e-02
  1.1132060e-02
 -4.3373980e-02
  1.8096870e-02
 -1.1549172e+00
 -1.6094071e+00
 -1.0199885e+00
 -1.0738874e-01
 -2.0811203e+00
 -1.6511374e+00
  6.3566834e-01
  4.3043742e-01
 -1.0103440e-02
  2.0017855e-01
 -1.3654958e-01
 -4.8901117e-01
  2.6643568e-01
 -2.3670378e+00
 -4.3151528e-01
 -7.0252365e-01
  7.2382522e-01
 -1.3129747e+00
 -1.5210276e-02
  4.6159603e-02
  6.6599205e-02
 -1.0945600e-01
  3.2575801e-02
  1.8735200e-02
  7.6702088e-01
  6.7204721e-02
 -1.3474574e-02
 -8.2706079e-02
 -8.1148154e-01
 -3.9552352e-03
  4.5923814e-02
 -5.8951205e-01
 -4.3648887e-01
 -2.1629304e-01
 -2.9487523e-01
 -3.4000346e-01
 -1.0358351e+00
 -1.6678710e+00
 -1.1256447e-01
  9.5612720e-02
  6.9966668e-01
  2.4421827e-03
 -8.2365620e-01
  1.4029412e-01
  1.2711202e-01
 -9.6900034e-01
 -3.6153358e-01
 -3.3074319e-01
  2.4260528e-01
  1.0889240e-01
 -4.8857480e-01
  2.9613402e-01
  3.5503393e-01
  4.2370573e-01
  1.1251429e-02
 -7.9703540e-01
  4.1955876e-01
  1.2570251e+00
  1.1571909e-01
 -1.8731287e-01
 -1.9157009e-02
  1.0803828e-01
  4.5340359e-01
 -6.6983891e-01
 -3.2276362e-01
 -6.3494819e-01
 -8.0243242e-01
  1.1393108e+00
  2.1494718e-02
  3.0100640e-02
 -7.1904415e-01
 -3.5437554e-02
  4.9360955e-01
 -4.8349772e-02
  5.3106537e-03
 -5.9967820e-02
 -6.9477692e-02
  4.4236055e-01
 -7.4613981e-02
 -1.1104088e+00
  3.7292607e-02
  8.6503506e-02
 -1.2460864e-01
 -5.8117907e-02
 -2.8712247e-03
 -1.1118763e-01
 -4.1954629e-02
  2.4605705e-01
 -4.3555681e-02
 -2.5261807e-01
 -1.5694492e-02
  1.8074669e-02
 -4.6310037e-02
  1.8956654e-02
  1.2191834e-01
  1.0970150e-01
 -4.2329662e-02
  6.2816493e-02
  4.0994704e-02
 -1.3864219e+00
 -1.8825356e-02
  1.0656026e-02
 -4.7960691e-04
  7.3634073e-02
  2.9558748e-02
  4.4279825e-02
  4.1151121e-02
 -3.3810332e-01
 -8.3823755e-02
  1.0201564e-01
 -2.4796238e-03
  1.0011823e-01
  1.3320002e-01
  1.0728710e-02
  5.3553134e-02
  5.6346510e-02
 -4.5040175e-02
 -3.3340011e-02
  1.4010745e-02
 -4.5265459e-02
  1.2557717e-01
  1.2322979e-01
 -2.9790372e-02
  7.6131344e-02
 -1.1652485e-01
  3.2145351e-03
  5.0601274e-02
 -9.0841100e-02
  3.2999221e-02
 -4.3489933e-02
 -3.6019113e-02
 -5.5133410e-02
  5.8180350e-03
 -1.6771346e-02
 -6.2959039e-01
  8.7571116e-03
  6.5098390e-02
 -4.0796489e-02
  1.1272564e-01
 -1.6957231e-02
  3.0828971e-02
 -6.8100849e-03
 -7.6876476e-02
  1.1237518e-02
 -1.7793190e-02
  5.4668803e-02
 -1.7100948e-01
  3.6047235e-02
 -7.7976756e-02
 -3.6122836e-02
 -5.6474663e-02
 -4.5541897e-02
 -5.5339072e-02
  7.6812074e-02
  1.6994219e-02
  1.2316639e-02
  8.4575176e-02
 -6.0717188e-02
  4.0812951e-02
 -8.0951462e-03
  1.8581728e+00
  7.6391858e-01
  2.0202340e-01
 -6.1005461e-01
  2.0235379e+00
  1.5696988e+00
 -4.8883033e-01
  1.1624457e+00
  8.8707596e-02
  3.7371066e+00
  7.5098351e-02
 -2.0416176e+00
  5.8483744e-01
  2.1243765e+00
  2.7836102e-01
  5.2656698e-01
  1.1744848e-01
 -1.8321653e-01
  7.3249888e-01
  5.5942470e-01
 -3.8309367e-03
 -1.9503886e-02
  7.4649766e-02
  2.8307861e-02
 -1.3258097e+00
 -1.1783447e+00
  6.3690066e-02
 -1.0698851e-01
 -1.2822805e-02
  1.5434217e-01
 -2.5961568e+00
 -2.4500010e+00
  4.4288793e-01
 -1.3925830e+00
 -1.9963668e-01
 -4.0682930e-01
 -1.5150039e-01
  7.5731385e-01
  2.9743418e-01
  2.3308045e-01
 -1.8212808e+00
  8.8334620e-01
 -9.4492406e-02
  8.8081628e-02
 -2.2024420e-01
 -6.2141169e-02
 -2.5437608e-01
 -3.0329211e-02
 -6.1656940e-01
 -1.2932972e+00
  7.8062910e-01
 -7.1027160e-02
 -1.2611373e-01
  2.3824429e-02
  1.2197786e-01
 -1.7715070e+00
 -2.6615915e+00
 -1.0752670e+00
  4.9587928e-02
  1.8545199e-02
 -2.8867719e-01
 -9.9429154e-01
  3.4102538e-01
  1.9142953e+00
  2.8740966e-01
 -5.3239044e-02
  2.3246570e+00
 -7.7121389e-01
 -1.0261432e+00
 -2.0611593e-01
 -5.8598612e-02
 -8.5744792e-01
 -5.0158727e-01
  9.7922729e-03
  1.4575526e-02
  4.6730973e-05
  1.0443864e+00
  1.4392683e-02
 -1.3191674e+00
  2.1453515e-02
  4.2131782e-04
  7.0881242e-01
  8.5058272e-01
  8.9331043e-01
  6.9194978e-01
 -1.5873407e-01
  1.6154151e-01
 -9.6717769e-01
  1.1560420e+00
  7.3725688e-01
  2.5728061e+00
 -7.4719238e-01
 -1.5555413e+00
  1.4213867e+00
 -1.5070030e-01
  4.7250319e-01
 -1.4310407e-02
 -7.0303530e-01
  1.7276320e-01
  9.8926872e-02
  2.2173624e-01
  4.5333304e-03
  4.4412696e-01
  5.8644003e-01
 -1.2965943e-01
 -5.6129080e-01
  8.5446328e-01
 -1.3707823e-01
 -6.4926557e-02
 -1.2367152e-01
  5.2704688e-02
  2.4498752e-01
  7.3150462e-01
 -3.1714743e-01
  5.7532173e-01
 -1.4472122e-01
  6.5135264e-01
 -2.4124606e+00
 -1.4659457e+00
  1.8802235e+00
 -1.3623744e+00
 -1.6349782e-01
  9.3611619e-03
 -9.7674437e-02
 -8.7584764e-01
 -4.4604892e-01
 -6.3977823e-02
  3.1441718e-01
  8.1146387e-03
 -9.3826073e-01
  9.1269696e-03
  3.7345877e-01
 -4.1014537e-01
 -1.3878772e+00
  1.1666379e+00
  1.1491836e-01
  2.2384746e-02
 -1.3491842e-01
 -1.4846524e+00
  2.6961234e-01
 -8.2181442e-01
 -2.3489198e-01
  8.9634919e-01
  3.1865228e-02
  2.6118979e-01
 -6.5705550e-01
  4.2621550e-01
 -1.3581930e-02
  7.2793359e-01
 -1.6700059e-01
 -6.8711966e-02
  7.5664854e-01
 -1.0143740e-02
  1.2945199e+00
 -1.5539747e+00
 -1.5549612e-01
 -9.7404230e-01
  3.3188513e-01
 -3.8129789e-01
  7.7544730e-03
  2.1518719e+00
  6.4736009e-02
 -2.7081841e-01
 -5.7319927e-01
 -2.9223781e-02
  1.2757115e+00
 -2.7251133e-01
 -1.1412195e+00
 -1.1322922e-01
  2.3305517e-01
 -5.2953423e-03
 -8.4474809e-02
 -8.1280880e-02
 -6.6128343e-02
 -2.3706765e-01
 -3.2358985e-02
 -9.3633533e-02
 -5.0221421e-02
  1.0767105e-01
  1.6583266e-02
  1.4549318e-02
 -6.8139106e-02
  1.5737735e-02
  5.3895172e-03
  3.3222139e-02
 -2.0083709e-02
 -3.6973190e-02
 -4.7452245e-02
  7.6176852e-02
 -4.3469366e-02
 -1.0044635e-02
 -2.6839629e-01
  2.9862152e-02
  7.8371428e-03
  4.6220403e-03
 -6.9237769e-02
 -1.4758494e-02
  2.5725603e-02
  8.2202449e-02
 -5.8767304e-02
  1.2356811e-02
 -9.2976596e-03
 -7.3789798e-02
  5.2240398e-03
  9.6506856e-02
 -5.3637728e-02
  8.5541286e-02
 -8.5589457e-03
  2.0849863e-03
  2.5726207e-02
  1.2262269e-01
 -2.3320125e-01
 -1.3528694e-02
  3.5964102e-02
 -1.3888311e-01
 -4.1988112e-02
  4.8742548e-02
 -6.5603433e-04
 -7.3164657e-02
 -6.5117270e-02
  1.5879737e-02
  1.0054385e-01
  3.5567664e-02
  5.7472065e-02
  6.6180532e-03
 -6.0829464e-02
  1.0802871e-01
 -7.4619308e-02
 -1.1188383e-01
  1.1421554e+00
  1.8820439e-01
 -3.6456015e-02
 -1.1138585e-01
  3.2861881e-02
 -5.3680985e-04
  2.7823450e-02
 -5.0461680e-02
 -9.5734842e-02
  4.1024026e-02
 -8.3021328e-02
  2.0591917e+00
  1.3898476e-02
  1.4302238e+00
 -7.8104541e-02
  2.0295736e-01
  1.4413270e+00
  7.7525601e-02
 -2.6641515e-01
  4.1100539e-02
  7.0366949e-01
  9.6411586e-02
 -2.6160896e+00
 -2.6747677e+00
 -1.2130588e-01
  4.5218403e-03
  1.9626908e-02
 -1.2960013e-02
  8.4185308e-01
  6.6036403e-02
  3.8839746e-03
  1.2390850e+00
  6.5207958e-02
  1.5797268e-01
  9.6853450e-03
  8.2760379e-02
  6.5333016e-02
 -2.5560360e-02
  1.9592049e-02
 -1.8637033e-01
  6.4051569e-01
  9.0055935e-02
 -7.9742104e-02
  1.5001976e-01
 -1.0904977e-02
 -1.9493599e-01
  6.1429471e-01
  1.7410449e+00
  2.3252703e-03
 -1.0423871e-01
  6.6231638e-02
  1.1712197e-02
  1.2554691e+00
 -1.9286709e-02
 -9.4561660e-01
 -1.3613050e-02
  1.2954105e-01
 -5.8728494e-02
 -2.8313878e-01
 -5.5154070e-02
  2.8640628e-02
  1.1109600e-02
  1.3493523e-01
  5.5087090e-01
  1.7656352e-01
 -3.3475701e-02
 -1.3566981e-02
  1.5875657e-01
 -8.4511660e-02
  8.2527846e-02
  7.6273680e-02
  6.1220285e-02
  1.1604281e-02
  2.6911834e-01
  2.3038303e-03
 -2.1185279e-01
 -8.8056505e-02
  1.4589428e-02
 -2.7871201e+00
  2.2841804e-01
 -1.1843538e-02
  1.3965894e-02
  4.2433292e-01
  1.6741382e+00
 -1.1032782e-02
  2.4515583e-01
  9.4808144e-03
  6.4335063e-02
 -6.8455935e-04
  1.3748593e-02
  4.9039520e-02
  2.7984483e+00
 -1.4144396e+00
 -1.0775439e+00
 -3.4960581e-03
  1.9599164e+00
 -1.1511346e+00
  2.2075227e-03
  4.3785289e-01
 -9.4121975e-01
 -2.1053185e+00
  1.3772827e-02
  6.2682301e-01
 -3.0951270e-01
 -1.8538941e+00
 -8.8154727e-01
 -3.3736747e-02
  1.9694120e-02
 -1.3834932e-01
  3.8276783e-01
  1.3783178e+00
  7.1405333e-01
 -4.0062342e-02
  2.4940397e-01
 -1.1084793e+00
  5.5532586e-02
  3.3358596e-02
  2.9607725e-01
 -1.4448836e-01
  9.3385659e-02
  3.8277230e-01
 -3.7777731e-01
 -4.4712529e+00
 -4.4964194e-01
  9.1162764e-02
 -8.3624408e-02
  5.8161056e-01
 -1.1263978e+00
 -5.7672113e-02
  2.0093298e-02
 -8.5113412e-01
  3.8452017e-01
 -7.0249087e-01
  1.3568790e-01
 -1.9538203e-02
 -8.9211184e-01
  6.8664094e-03
  9.5803452e-01
 -2.5293797e-01
 -8.0072016e-01
 -2.9993176e-01
 -4.0729910e-01
 -4.0304181e-01
  1.8941897e+00
  1.5904926e-01
 -6.1574835e-01
 -4.0655038e-01
 -5.7355180e-02
 -1.2236929e+00
  1.7236021e+00
 -2.3566507e-02
  5.2737296e-02
  7.5058895e-01
 -1.1776793e+00
  8.7163579e-03
 -6.5569609e-02
 -1.6103090e-01
  1.3994226e-02
  4.4482884e-01
 -2.8559980e-01
 -9.9667102e-02
 -1.9834837e-02
  1.6789685e-01
  1.3860254e-01
 -8.1141311e-01
  7.5387344e-02
  1.1142129e-01
 -9.5784411e-02
 -5.6951258e-02
 -1.8297267e-01
  7.1178421e-02
  4.2768532e-01
 -2.3892031e+00
 -1.1001263e+00
 -2.9480067e-01
 -2.6386802e+00
 -3.9360812e-01
 -2.0873988e+00
 -1.5133645e-01
  5.7040933e-03
  1.6895376e-01
 -3.3280644e+00
  8.6148903e-02
  3.0989468e+00
 -2.5049422e+00
  4.7880149e-01
 -3.1915510e+00
 -1.0682913e+00
 -1.1914012e+00
 -1.3866573e-02
  2.0257826e+00
 -6.0273778e-01
 -2.0618916e+00
 -1.5953726e-01
 -4.4685790e-01
 -4.6783897e-01
 -3.5500512e-01
 -5.7371986e-01
 -1.6333655e-01
 -2.3934941e+00
 -3.8955700e-01
 -9.9603021e-01
 -8.4675528e-02
 -4.8104602e-01
  1.0162537e+00
 -2.0084865e+00
  2.2034099e+00
 -2.9125843e-02
 -7.6649368e-02
  1.0611398e+00
  4.6894786e-01
  3.0885935e-01
 -2.6698354e-01
  2.0686486e+00
  7.8113236e-02
  5.5024769e-02
 -1.6154273e-01
 -3.4555024e-01
 -9.3497789e-01
  2.5182328e-01
  7.1055007e-01
  2.6982553e+00
  1.2034290e-01
  8.6585134e-01
  5.7777090e+00
  2.9318836e+00
 -2.1655204e+00
 -1.8491077e+00
 -8.8081867e-01
  2.0048571e+00
 -1.4529331e+00
 -1.6587383e+00
  1.0145979e+00
  7.7945054e-01
  1.5899410e+00
  5.0240439e-01
  4.8645392e-01
  8.2140356e-01
 -8.5560668e-01
 -9.6064401e-01
  3.1077974e+00
  6.7814940e-01
  5.3324051e+00
  6.4123070e-01
 -1.7558409e-01
 -5.6130920e-02
  8.0609870e-01
  8.6540259e-02
  5.2333289e-01
  8.7119913e-01
 -3.7563393e+00
 -1.0389347e+00
  2.8222606e-02
  2.0866819e-01
  3.0426416e-01
 -6.1936630e-03
  2.9346392e-01
  5.4655150e-03
 -3.2221070e-01
  1.9464796e-02
  2.6777887e+00
  3.0817676e-02
  1.7117135e-01
 -1.6371782e+00
 -9.3182195e-03
 -4.3091990e-02
 -4.7943562e-02
 -2.9645562e-02
 -1.2187412e-02
  1.9046284e-02
  1.9408250e-01
  7.0020482e-02
  6.9372915e-04
  9.3264855e-02
 -3.2201108e-02
  1.3048185e-01
 -6.1055921e-02
  5.2123231e-01
  5.4930516e-02
  2.5896393e-02
 -7.5218804e-02
  3.8345069e-02
  8.1980519e-02
  9.3822153e-03
 -1.6147900e-01
  6.3472092e-02
  1.7947331e-02
 -9.9850148e-03
 -4.0379208e-02
  5.1569618e-02
  1.4090337e-01
  1.7191062e-02
 -7.0557982e-02
 -2.4198149e-03
  4.8616517e-02
  6.1682612e-02
  1.2891252e-01
 -5.6803737e-02
  4.6037123e-02
  1.0120538e-02
 -1.4285169e-02
  7.5508273e-01
  5.6824461e-04
 -1.1007211e-01
 -8.9528352e-02
  8.8315114e-02
  7.6914392e-04
  2.5139054e-02
  1.1039335e-01
  3.5433680e-02
 -2.1666570e-02
 -3.0084521e-02
 -6.1123851e-03
 -2.4272490e-03
 -7.0203789e-02
  1.7729679e-02
 -1.1304063e-01
  3.4759272e-02
  3.3155624e-02
  2.9200219e-02
  1.1097789e-02
 -4.0667042e-02
 -1.0446253e-02
  1.1977375e-02
 -1.5800957e-02
 -8.9717284e-04
  4.1565478e-02
  2.8210267e-02
 -2.5803102e-02
 -3.5447292e-02
  1.7089584e+00
  1.6282610e+00
  3.8854656e+00
 -2.3845651e+00
 -1.2756847e+00
 -2.0157526e+00
  5.1175725e-01
  5.5169839e-01
 -2.8123042e-01
 -2.6337609e+00
  3.6743534e-01
 -9.3509364e-01
 -1.4267553e+00
  1.3107065e+00
 -2.0556138e-01
  6.1525899e-01
  3.9607799e-01
 -1.6600447e+00
  1.4497008e+00
 -1.1884668e+00
 -2.1292914e-01
 -2.2115867e+00
  5.5486302e+00
 -2.3445098e+00
  1.1161532e+00
 -3.1993857e-01
  2.3397806e-01
  8.3126986e-01
 -3.8899231e-01
 -3.2544155e+00
 -8.1637126e-01
  1.3857111e-01
  5.2382791e-01
 -9.0472035e-02
 -2.8986049e-01
 -3.4988943e-01
 -5.2764960e-02
  4.5704287e-01
  4.5409244e-01
 -8.4906554e-01
  5.1011026e-02
 -4.0320450e-01
  2.3482238e-01
  1.6074952e-01
 -4.8559487e-01
 -1.3722638e+00
 -6.1849439e-01
  2.7766478e-01
  1.9893061e-01
 -4.0034610e-01
 -2.0956457e-01
 -1.8126477e+00
  6.6221362e-01
  1.4139585e-01
 -7.0414382e-01
 -1.2288406e+00
 -1.2725542e+00
  5.2424863e-02
 -7.1381807e-01
  6.7718679e-01
 -1.6148530e+00
  7.2170478e-01
 -7.1350135e-02
 -1.6238874e+00
 -2.8328297e+00
  8.5981709e-01
 -2.3282643e-02
 -1.2108992e+00
 -9.6199870e-02
 -1.7001884e-02
 -2.0396796e-01
 -6.8446875e-01
 -2.7367541e-01
 -3.0531171e-01
  2.2188857e-02
 -3.0993119e-01
 -8.1056190e-01
 -3.8565516e-01
 -4.4788599e-01
 -3.1428678e+00
 -4.0952846e-01
  2.2405994e+00
 -3.9743987e-01
 -5.0607818e-01
 -7.3061156e-01
  9.4953276e-02
  1.8864080e-01
  2.2494871e-02
 -5.9436738e-01
  4.3582018e-02
 -9.0838604e-02
 -1.2574649e-01
 -8.9814827e-02
 -2.2833541e-02
 -1.6255255e-01
 -7.9104501e-01
 -3.2533982e-01
  1.8278693e-01
  2.6441358e-02
  2.2389295e+00
 -5.5665594e-01
  1.6394559e-02
 -7.2906363e-01
  9.7888950e-03
  2.4151827e-01
 -4.6100870e-01
  1.5916607e-01
  2.6610783e-01
 -1.3663740e-01
  1.8579829e-01
  1.4551643e-02
 -9.0201506e-03
  2.9826857e-02
  3.9939336e-02
 -9.6575814e-01
 -8.7673083e-02
  2.7688761e+00
 -1.1522976e+00
 -4.2001787e-01
 -1.1032411e-02
  9.9205459e-03
  2.2784621e-02
  3.9097769e-03
 -4.2466933e-01
 -4.4108650e-01
 -1.4142742e+00
 -1.6569798e-01
 -7.9275094e-02
 -1.3968752e-01
  1.4453292e+00
  9.8259998e-03
 -3.2462114e-03
 -8.5053653e-02
  2.3453611e-01
 -4.7829488e-01
  7.5338894e-01
  2.4360013e+00
 -3.5007637e-02
 -4.7968933e-01
 -6.5861762e-01
  8.4690014e-03
  3.8024837e-01
  5.5323556e-02
  3.9797932e-01
  4.4967253e-02
  3.9417755e-02
  1.7894154e+00
  3.8284302e-01
 -1.8301126e-01
  2.5240493e-01
  4.5541731e-01
 -7.3480594e-01
 -9.5310368e-02
 -6.3144577e-01
  1.2363077e-01
  3.1330764e-01
  2.5678130e-02
  1.1757753e-01
  3.8423579e-02
  7.2838491e-01
  4.1595617e-01
  1.5232888e-01
  2.2327632e-02
  2.7061690e-02
 -1.2970474e-01
 -6.3960016e-01
  3.3899900e-01
  9.1522747e-01
  1.1523940e-01
 -2.2316252e-01
  1.2059749e-01
 -5.6360019e-03
  4.4630684e-02
  3.9289096e-01
 -1.1159998e+00
 -6.4340636e-02
  1.1923722e-01
  1.2838767e-01
 -1.0017183e-01
 -1.8553239e-01
  3.9205110e-01
  6.3246451e-03
  3.6155069e-01
 -5.0315909e-02
  3.5054305e-01
 -7.4960417e-01
  1.8497154e-01
  1.4776686e-01
  6.4926398e-01
 -3.8681972e-01
 -5.1604915e-02
  5.9786006e-03
 -7.1173167e-01
 -5.4767616e-03
  1.4650403e+00
 -1.2538640e-01
 -1.4230427e-01
  8.4100068e-02
  4.3224069e-01
  1.0369589e+00
 -4.5204809e-01
 -3.8458116e-02
  4.1291937e-01
 -6.7949343e-01
  3.5806119e-02
 -1.6094677e-02
  1.1304977e-02
 -1.9064499e-02
  3.9986053e-01
 -2.8268576e-01
  9.8634839e-01
 -4.7906941e-01
  3.4804292e-02
  2.5821682e-02
  5.3560743e-03
  2.1535303e-02
  2.5380297e-02
  7.0301197e-03
 -1.5285681e-01
  2.1955982e-01
  1.6591913e-01
 -2.0513469e-01
 -2.3689717e-02
 -1.0577190e+00
  2.8885325e-02
 -2.4491353e-01
 -5.9591052e-03
 -2.5713764e-02
  1.9084167e-02
  9.3666054e-02
  2.9051315e-02
 -1.8761231e-01
 -8.2057007e-03
  2.4380162e-03
 -4.2820431e-02
 -2.1325944e-02
  1.9635204e-02
  2.8139941e-02
  4.9923532e-02
 -7.7868611e-02
 -1.3211904e-02
  4.5469973e-02
  8.9816444e-02
  4.6889927e-02
  2.9639885e-01
 -3.2000694e-02
  2.1753733e-03
 -4.2111669e-03
  3.8540430e-02
 -4.3103248e-03
  8.0424868e-02
  9.3404785e-02
  1.4488479e-01
  2.3408201e-02
 -1.5180520e-02
  9.1622829e-02
  1.7597631e-02
 -5.4532811e-02
  6.8099545e-03
  8.1390319e-03
  6.5214518e-03
  1.1339470e-01
  3.2573842e-02
 -7.7334419e-02
 -2.8529519e-01
  9.9561028e-03
 -1.7107530e-01
  1.9864589e-02
 -3.3706972e-01
  5.0917760e-02
 -3.0081691e-02
  5.9563324e-02
 -1.9124900e-03
 -1.0983241e-01
  1.2241393e-01
 -1.0257078e-02
  9.7879395e-02
  3.0905252e-02
  8.0669066e-03
 -7.0921615e-02
 -8.3301067e-02
  1.0816501e-01
 -1.7442881e-01
 -3.1459264e-02
  3.4660544e-02
  2.5955437e-02
 -7.1813941e-02
 -1.2788749e+00
 -1.0127758e-02
 -1.0138059e-02
 -1.2536904e-02
  6.3681924e-01
 -4.0831283e-01
  1.5676401e+00
 -1.3826344e+00
 -5.8778977e-01
  8.7752742e-01
  1.8500267e+00
  8.9908886e-01
 -9.3087155e-01
 -2.2596712e+00
 -1.9532841e-01
  2.0725067e+00
 -1.6051997e+00
 -7.4519314e-02
 -2.9745582e-01
  1.2058069e+00
 -9.1755641e-01
  6.4758182e-01
 -6.0324483e-02
 -2.4199790e-01
 -3.4654710e-01
 -7.3784947e-01
  9.4805342e-01
  1.5264431e+00
  2.2198798e-01
  1.8386665e-01
  7.2040004e-01
 -5.0431800e-01
 -7.5016522e-01
  5.2916628e-01
 -4.4427127e-01
 -1.0613933e+00
  2.2049811e-01
 -1.3321818e-01
 -8.4305204e-02
  4.8121598e-02
 -1.6659889e-01
  2.4751574e-01
  2.0237558e-02
 -5.7430792e-01
  1.1897776e+00
 -1.2592711e+00
 -1.0054306e-02
  5.8630211e-03
 -3.1642041e-03
  1.1788480e+00
 -9.4635695e-02
 -1.1003945e-02
  1.4064168e+00
 -6.2509477e-01
  1.4451287e-02
  1.8578963e-01
 -2.9192955e+00
 -9.9940729e-01
  1.2764215e+00
  1.8274658e+00
 -1.1939255e+00
 -2.7164636e+00
 -1.2996097e+00
 -1.2205383e+00
  4.1305378e-02
  2.7624748e+00
 -2.7002556e-02
  2.5033563e-02
  1.6994896e+00
 -6.2468094e-01
  1.3786743e+00
 -5.8031589e-01
 -1.6030680e+00
  7.4576664e-01
  9.0885811e-02
  5.5838075e-02
  7.1750149e-02
 -1.1596818e+00
 -1.0678889e+00
 -2.4756144e-03
 -7.5864293e-02
  3.4797233e-01
 -1.3715268e+00
 -4.5776173e-01
 -9.2742455e-01
 -1.1713307e+00
  4.4743147e-01
 -1.4386600e-01
 -3.2790117e+00
 -4.9733859e-02
 -1.7815590e-01
 -6.9665111e-05
  1.5468360e-01
  7.9834551e-01
 -4.2533073e-01
 -1.3419505e+00
 -1.1234987e-01
  1.2795641e+00
  1.8768156e-01
  3.7897069e+00
  3.9083645e-01
  7.8634334e-01
  1.1237015e+00
  1.7240363e-01
 -8.5200709e-01
 -2.2249149e-01
  1.5702443e+00
  5.7049453e-01
  1.3271766e-02
 -1.6632321e-01
  1.2097300e+00
 -1.6734959e-01
  9.8817453e-02
  2.7206177e-03
  4.6755204e-01
 -2.9217865e-02
 -2.3599345e-02
 -8.5235435e-01
  1.7892431e-02
 -6.3410330e-01
  1.2419949e+00
  6.2237787e-01
  1.4139082e-02
  2.1959441e-02
  5.2636298e-03
 -1.5288544e-01
 -2.3947647e-03
 -1.7867318e-01
 -2.5629142e-01
  3.5493374e-02
  9.9057090e-03
 -1.5433415e+00
 -1.0683153e+00
 -2.0565624e+00
 -1.1782596e-01
  2.1211101e-02
  5.8970392e-02
 -1.6772679e+00
 -1.5627025e-01
 -1.4409199e-01
 -1.0886676e+00
  2.1158908e-02
  3.1546220e-02
  2.0092791e-02
 -1.1788189e+00
 -5.7411021e-01
  7.7582099e-02
  7.6890350e-03
 -2.3018619e-01
 -1.6916462e+00
 -2.0513922e-01
 -3.2612709e-03
  5.0723392e-01
 -5.3983852e-02
 -6.8108541e-01
  2.1210510e-02
 -1.7190779e-02
  4.5466084e-02
 -6.2102992e-02
 -6.5683499e-03
 -3.3571759e-01
 -9.1905482e-02
  1.4519272e-02
 -1.8027697e-02
 -7.6191813e-02
  4.4336570e-03
  2.8254172e-02
 -1.1786092e-01
 -3.4952029e-03
  7.8007609e-02
 -7.7492774e-02
  6.2160831e-02
 -5.6052301e-04
 -4.9952880e-02
 -4.1435305e-02
 -4.1218125e-03
  2.2015961e-02
 -5.3331065e-03
 -4.2335600e-02
 -3.1660102e-02
 -3.8015641e-02
 -1.6871545e-02
 -8.7629296e-02
 -8.9739617e-03
 -4.1064303e-03
 -2.7125197e-02
 -7.1686149e-02
  1.9800533e-02
 -5.5409588e-02
  1.5340328e-02
  4.3607210e-03
  6.6384608e-03
  5.0445641e-03
 -1.3402951e-03
 -2.1227583e-02
  3.8593698e-02
  5.0253846e-02
  2.1795036e-02
  1.9239100e-02
 -1.5349105e-02
 -1.7538872e-02
 -7.5464137e-03
  1.4871902e-02
 -3.7068792e-02
 -2.5594398e-02
  7.9411669e-03
  1.9391790e-02
  5.5012903e-03
  4.1961886e-02
 -2.3838628e-02
 -1.9615335e-02
 -1.3944300e-02
 -1.0635165e-02
  6.6068393e-01
 -5.9030395e-02
  2.7690912e-03
 -1.4543733e-01
 -3.9481591e-02
 -7.0663728e-03
 -3.8718887e-02
 -5.0835263e-02
  1.5222088e-02
  6.4766509e-03
  2.7404308e-02
  2.8794866e-02
 -2.8184539e-02
 -7.3393323e-03
  3.7542641e-02
 -2.7589440e-02
  4.8422702e-02
 -1.8164735e-02
  7.1539916e-02
 -3.9989788e-02
  4.2938955e-02
 -6.2682390e-02
  2.7887365e-03
  2.6293987e-02
 -3.7615087e-02
 -3.0895945e-02
  1.4811558e-02
  4.8449121e-02
 -1.4225268e-03
  2.8257096e-02
  5.1438503e-02
  3.3110952e-01
 -6.2148172e-02
  1.3993736e-03
  1.2662196e-01
 -1.6986353e-02
 -4.5353416e-03
  4.4317529e-02
 -1.6299300e-02
 -2.3783840e-01
  3.0169939e-03
  1.2488630e-02
 -3.5517081e-03
  3.8133692e-03
 -1.5540245e-01
  2.4473039e-03
  5.4822890e-03
 -1.1041556e-01
 -1.0727678e-02
 -2.8848516e-02
 -4.9078960e-02
 -4.3971449e-02
  2.0880681e-02
  6.6866623e-03
 -5.3259522e-02
 -1.3812785e-02
  1.6147405e-02
  5.1962271e-02
 -4.3875631e-02
  1.9587864e-01
  1.2474439e-02
 -4.5786746e-02
 -7.2150333e-03
  1.1833405e-01
 -1.1531878e-02
 -9.2540439e-03
 -4.6810623e-02
  5.1998524e-03
 -5.3930981e-03
 -3.8836747e-02
  9.7312434e-03
  1.5401310e-01
 -4.1866153e-03
  2.4057228e-02
  4.4001605e-02
  4.8097982e-03
 -7.6941647e-02
  1.1011609e-01
  3.6868313e-03
 -4.5874808e-02
 -1.6540131e-02
 -2.2729219e-01
  2.0087531e-02
  1.0696375e-01
  4.9185481e-02
  6.8275300e-03
 -8.0383383e-03
  1.6653273e-02
 -1.9478528e-03
 -4.4946740e-03
 -1.5354563e-02
 -6.1588239e-02
  5.3858664e-02
 -5.7990029e-03
 -2.9669171e-03
  3.3646554e-02
  2.1168217e-03
 -1.4230180e-02
  2.3864508e-02
  1.0293064e-01
 -8.4400129e-01
  1.4604721e-02
 -8.7527961e-02
 -8.8907024e-03
 -6.9994694e-03
 -8.2296302e-04
 -1.9552274e-02
 -4.6673073e-03
 -8.9638531e-02
 -3.2856956e-02
 -2.9256365e-03
  3.5733089e+00
  1.3656822e-01
 -7.9841858e-01
  1.9805405e+00
 -1.1671736e+00
  2.3437686e+00
  1.0155581e+00
 -1.0377185e+00
  7.9625815e-01
 -2.0717921e+00
 -3.2692271e-01
 -1.9155256e+00
  2.7553204e-01
  7.9075672e-02
 -2.5891898e+00
  1.3204448e+00
  8.1968474e-01
 -5.2214372e-03
  9.3503028e-02
  2.2720391e-02
 -3.7843609e-01
 -2.8641837e+00
 -3.4604967e-03
  4.8780969e-01
 -1.2532569e-01
  2.8036192e-02
 -5.3862858e-01
  2.5086793e-01
  2.3759713e+00
  1.7230807e-01
 -3.8794830e-01
  8.6923039e-01
  1.9837400e+00
 -1.5902011e-01
  1.7313968e-02
 -8.0306284e-02
 -6.4508654e-02
  9.8631197e-01
 -1.9722454e-02
 -4.5264136e-02
 -5.0060594e-01
  9.4061190e-01
  5.6961823e-02
 -2.5037510e-02
  7.8270543e-01
  9.0507895e-01
  2.2627817e-02
  1.2617637e-01
 -2.5592268e-02
  9.0949960e-02
  1.2500055e+00
 -5.8258379e-01
  3.1340513e-01
 -1.6344210e+00
 -2.9813936e-02
  4.5425233e-01
 -9.4020724e-01
  1.2403872e-02
  4.8766032e-02
  8.8840052e-02
  1.2281992e+00
  2.2685375e+00
 -8.9007981e-02
  3.7431785e-01
 -2.6222587e-01
 -3.0846959e-01
  5.2566957e-01
  1.2077508e-02
  1.4320962e+00
 -1.1753635e-01
  3.1000385e-01
  1.6902916e-02
 -1.2457111e+00
  4.5037150e-01
  4.0230572e-02
 -3.5139595e-03
  6.8176210e-01
  7.3697537e-02
 -5.4641165e-02
  9.3397927e-01
 -3.3238566e+00
  1.4546644e-03
 -9.4062537e-03
  1.6744587e+00
 -5.2823775e-02
  1.2613462e+00
 -2.8827973e-03
  3.9342269e-02
  2.3417001e+00
  2.1314871e+00
 -1.2879770e+00
 -8.7361149e-02
  2.0050414e-02
  6.5154821e-01
  1.3441463e+00
 -4.9962798e-01
  3.0122313e-01
  2.2710895e-02
  1.0991147e-02
 -3.1169183e-03
 -1.6281428e-02
  2.9402775e-01
  3.5658158e-02
  2.9470220e-03
  3.4782627e-01
  3.0813174e-02
  3.5698804e-01
 -1.5849479e-02
  1.5241389e-01
  5.2795202e-02
  3.8604736e-03
  5.9679396e-02
  3.0429640e-01
 -6.1715120e-01
  1.1277312e-02
 -1.0487764e-01
  2.4509788e-02
  1.6901436e+00
  3.4255278e-03
 -2.8772933e-02
  5.6832425e-02
  2.0464776e-02
  5.0092568e-03
  1.1566447e-01
  5.3919256e-01
  1.1639144e-02
  6.7106057e-03
 -7.1590352e-03
  1.6572833e-02
 -7.3552012e-02
 -1.1104138e-01
  1.7775957e-02
  1.0876717e-02
  2.5020812e-02
 -1.5483106e+00
 -2.7749315e-02
 -2.6685297e-02
  1.0858779e-01
 -1.2928392e-01
 -3.0297205e-02
  2.7760607e-01
  1.3401794e-01
 -2.9775793e-02
  1.1461048e-02
  2.1003366e-01
  7.4714750e-01
 -7.2993949e-02
 -4.2058878e-02
  1.7247798e-02
  8.2827106e-02
 -1.1903440e-01
  1.6925072e-02
 -6.8031937e-02
  1.2537149e-01
  4.7240565e-03
  2.9987864e-02
  2.9457342e-02
  1.8869545e-03
  6.5919301e-03
 -8.9367386e-03
  1.6627674e+00
  6.2568998e-01
  1.1481286e+00
 -8.9655799e-01
  3.1124142e-01
 -9.1904408e-01
 -1.9853262e-02
  1.0119774e+00
 -8.7452894e-01
  2.2044075e+00
 -2.4858268e-01
 -7.3191231e-01
  5.3801298e-01
 -8.5376596e-01
 -6.4693158e-03
 -4.8810270e-02
  9.9658538e-03
  5.0723799e-02
  6.6079900e-02
 -2.4630643e-02
  7.8256831e-02
  1.1508736e-02
  1.3314306e-02
  6.4006329e-02
  1.5691830e-02
 -6.8273261e-02
 -1.8906482e-02
 -1.6461574e-02
 -1.0587949e-01
 -2.3076067e-02
 -1.2975072e-02
 -1.2287925e-01
 -4.1718110e-02
  5.2650552e-02
 -7.2852097e-02
  6.2634140e-02
 -3.7532296e-02
 -1.0237721e-01
 -2.5302984e-02
  2.4654318e-02
 -3.9595749e-02
  6.2052824e-04
 -1.8249754e-02
  1.6436540e-04
 -8.0522281e-01
  2.6766323e-03
 -2.5021395e-02
 -5.5046096e-02
 -1.2018208e-02
  4.0689506e-02
 -1.3336373e-02
 -3.2690793e-01
  2.2956632e-02
 -1.2532990e-02
  1.1158922e-01
  2.9555717e-01
  9.6212238e-02
  1.0186819e-02
  1.1586519e-01
 -8.3825877e-03
 -1.3241357e-02
  6.5988678e-01
  7.3134281e-02
 -4.9484465e-02
  1.4459160e-02
  3.3569444e-02
 -2.3858142e-01
  3.0246587e-03
 -1.8388918e-02
 -1.0602378e-01
  5.2203909e-02
 -3.0600551e-01
 -3.2848738e-02
  2.0525713e-02
 -1.7961158e-01
  5.1250018e-02
 -1.0815804e+00
  4.7446821e-02
  1.7068319e-02
 -9.6548580e-02
  1.3253832e+00
  4.4522414e+00
  1.5054345e-01
  1.6911426e+00
  2.1070914e+00
  8.1738614e-02
  1.8259857e+00
 -3.7709710e-01
 -4.1778474e+00
 -2.1516526e-01
  2.0912473e+00
  3.6910318e-02
 -9.6636456e-01
  4.6642534e-02
  2.6011407e-02
 -2.6118171e-01
 -7.9690689e-01
 -7.9156339e-02
 -4.8751116e-02
  5.7463473e-01
  1.9857705e+00
 -5.6036741e-01
  6.3964292e-02
  2.8170019e-02
 -7.7450699e-03
  5.4175603e-01
  8.7275594e-02
 -1.0666478e-01
 -2.0543482e-02
 -4.7902772e-01
 -6.0072970e-02
  6.1581181e-03
 -2.8768528e+00
  2.2806249e+00
  4.5252752e-01
  2.1656212e-01
 -9.6470430e-02
 -9.4991255e-01
 -7.2698541e-02
 -5.4973382e-01
 -2.0534693e-01
  5.5595983e-02
  1.7887244e-02
  3.5443258e-02
  1.2407480e-01
  2.3714103e-01
  1.1892246e-01
  1.2529228e-02
  2.2545297e+00
 -2.5723806e-01
 -1.2430835e-02
  3.9728846e-02
 -6.5348782e-03
 -6.7320094e-03
  9.3042523e-02
  7.3787808e-01
 -4.3365799e-02
  2.2916234e-01
  1.2567645e+00
 -4.7616996e-02
  5.1681856e-03
  2.5545701e-01
 -1.8329682e-02
  2.6647123e-02
 -5.9719399e-02
  3.6601886e-02
  8.1722781e-02
  3.9704964e-02
  3.2807902e-02
  9.7667668e-03
 -1.3240759e-01
 -2.9145694e-01
  3.9186202e-02
  3.2571830e-02
 -3.0218267e-01
 -9.8255090e-03
  5.8478080e-03
 -3.1160185e-02
  5.6998510e-02
  1.9588348e-01
  1.6358982e+00
 -4.2129916e-01
 -4.2850208e-01
  4.8320204e-01
  1.0930213e-01
  9.4340980e-01
  1.2290025e+00
 -2.7609771e-01
 -1.7127087e+00
 -1.5504514e+00
  4.3772581e-01
  1.8449196e-01
 -9.5605552e-01
 -1.9211593e+00
  1.3148149e+00
 -8.5991405e-02
  1.5248814e+00
 -1.1430883e+00
 -2.6782892e+00
 -1.7014066e+00
 -4.4434151e-01
 -9.2812616e-01
 -1.1177927e+00
 -1.2742925e-01
 -5.5902123e-01
  1.3668680e-02
 -1.4819019e+00
 -2.7544266e-03
  1.9322682e-02
  3.5359669e-02
 -3.3933874e-02
 -2.3416433e-01
 -7.2504830e-01
  3.5509294e-01
 -1.0560610e+00
 -3.8684994e-02
 -1.8064452e+00
 -1.8698339e+00
  4.6002322e-01
 -7.8260727e-02
  4.8706286e-02
  7.4984312e-02
  9.7472310e-02
 -2.5337958e-01
  3.8599589e-01
  1.7794458e+00
 -1.2270484e+00
  3.6054827e-02
  3.4002367e-01
 -5.7111722e-01
  5.5347747e-01
 -8.2047880e-01
  2.9573033e+00
 -1.0047467e+00
  1.9204655e-01
  1.5476005e+00
  5.8059824e-01
 -1.7064976e+00
  5.1708026e+00
 -8.0893403e-01
  3.0498999e-01
  2.5776212e+00
 -8.7279845e-03
 -7.0663625e-01
  2.5100794e+00
  2.0806408e+00
  2.7418989e-03
 -2.9695836e-01
 -2.1149433e+00
 -2.8999312e+00
  2.5694685e-02
  7.8560704e-01
  5.4828357e-02
 -2.1144835e-02
  2.0537450e+00
 -3.4064859e-02
 -1.7647786e-01
 -1.8594700e+00
 -1.8363898e-01
 -5.4923091e-02
 -1.2120177e+00
 -3.1535974e+00
 -8.6620057e-01
 -4.4661236e+00
 -1.0246854e+00
 -1.2875031e-01
  2.4116843e+00
  2.1097051e-01
 -7.0861150e-03
  9.2842990e-01
  2.3375952e+00
  5.7944858e-01
  1.0746123e+00
 -7.1090001e-01
 -3.1795824e-01
  1.7315332e+00
  2.2106618e-01
  3.3041108e-01
  1.7828104e-01
  6.1833316e-01
 -7.9214329e-01
 -4.0404469e-01
  1.0448378e+00
  7.0637316e-01
  9.3637013e-01
 -9.8435849e-01
  1.1671983e+00
  6.6652960e-01
 -1.2069280e-01
  8.7235041e-02
 -4.4253197e-01
 -1.5767140e+00
 -1.4653860e+00
  1.0495307e+00
  8.5375559e-01
 -1.3217797e+00
  9.3655193e-01
 -1.2767930e-02
  8.1261635e-02
 -5.7788706e-01
  4.7519514e-01
 -1.2903370e+00
 -4.0648422e-01
 -3.2557752e-02
  2.7594399e-02
  1.5017462e-01
  6.5368819e-01
 -7.0266318e-01
 -2.1635728e+00
  1.4081273e+00
 -7.0110548e-01
  1.1411532e+00
 -2.5617471e+00
 -1.0479865e+00
  6.6313314e-01
  8.2605900e-03
  2.7716884e-01
 -1.7990732e+00
 -1.9379188e+00
 -4.0973399e-02
  1.5488793e+00
 -2.0911393e-01
  4.3224573e-02
 -9.9438809e-02
 -2.6949100e+00
  1.1343719e-01
 -1.6769623e+00
  6.5223388e-02
 -4.3819420e-02
  3.3235946e-01
  2.9737833e-01
  3.5097957e-01
 -1.2979805e-02
 -1.0802659e+00
  4.9931270e-01
 -1.8542225e-02
 -1.7101029e-01
  5.6514770e-01
 -1.7084457e-01
 -6.5868579e-02
  4.6279684e-01
  7.4362427e-01
 -4.7250473e-01
  5.4245907e-01
 -3.2530880e-01
 -2.1234585e-01
 -5.9442514e-01
  5.5793002e-02
  3.3862084e-01
 -6.3344258e-01
  1.3809410e-02
  1.0095272e-01
 -3.5711271e-01
 -7.8046632e-01
  3.0983489e-02
  5.7341564e-01
 -8.9872563e-01
  4.6617590e-02
  7.6292157e-01
 -4.8275296e-02
 -3.0383968e-01
 -6.6056049e-01
  1.2202872e-01
 -9.4081813e-01
  1.3612989e-02
 -1.2149047e-01
 -1.9086814e-02
  3.3903243e-03
 -1.9944253e+00
 -3.6954585e-02
 -3.1743789e-01
  5.2744053e-02
 -3.6945194e-02
  6.6150650e-02
  3.4028895e-02
 -2.6633707e-01
  2.3789768e-01
  8.6689967e-01
  1.5862720e-02
  1.8277045e-01
  6.7524001e-02
  1.1732894e-01
  1.3907498e-01
 -1.2258083e-02
  4.3233518e-02
  4.8710895e-04
  1.0174662e-01
 -1.4611671e+00
 -1.8857009e+00
  2.7872443e+00
 -1.7804923e-03
 -4.1355228e-01
 -2.3670919e-02
 -9.1538399e-01
 -2.9188126e-01
 -1.0230333e-01
 -5.4620266e-01
  6.7106574e-03
  1.1639370e-01
  3.2240812e-02
  2.0089154e+00
  4.3375388e-01
  3.3586510e-02
 -3.0359522e-02
  4.1524217e-02
  1.0183536e-01
 -2.3087498e-02
  1.2508536e-02
  1.1943655e-01
  2.2330129e-01
  1.3482223e-03
 -2.7113643e-02
 -4.6197504e-02
 -2.4495143e-03
  5.6858987e-02
 -3.8863937e-03
 -9.3617082e-01
 -3.6642496e-02
 -5.1411567e-03
  1.2560993e-02
 -1.9720554e-02
  3.1707760e-02
 -5.0216664e-02
 -2.9340219e-02
 -1.8308733e-02
  3.0093061e-02
  2.8826334e-02
 -2.9839236e-02
 -4.1131191e-02
  6.9817919e-03
  2.4867222e-02
  3.0035308e-02
  7.2979396e-03
  2.9510979e-02
  1.1225695e-02
  2.9094118e-01
 -7.1654719e-01
  8.5999500e-03
 -1.3909398e-02
  6.3579865e-02
 -1.6472232e-02
 -4.0932722e-02
 -2.3183134e+00
  1.3088943e-02
  2.5942795e-02
 -1.0802280e-01
  7.2148964e-03
 -2.4660118e-02
  4.3048009e-02
 -5.4176982e-02
 -8.7212352e-04
 -2.8868867e-03
  2.8613359e-03
 -3.3826262e-02
 -7.1962830e-04
 -2.3022207e-02
  5.1848721e-03
  5.4181716e-03
  4.3312483e-02
 -8.0189956e-03
 -1.6677819e-02
  1.0819329e-01
 -4.0932707e-02
 -7.5388337e-03
 -1.9000797e-02
 -1.5698927e-02
 -1.2050701e-02
 -2.8760441e-02
 -1.4034303e-02
 -1.6540850e-02
 -1.3168152e-01
 -5.8201861e-02
  7.3443726e-04
  4.8967667e-02
  3.7737869e-02
 -7.6631218e-02
  1.0177028e-02
  2.4584912e-02
 -6.1375678e-02
  2.2163524e-03
 -2.2663010e-02
 -8.3102230e-03
  3.4422893e-02
  1.8509401e-02
  4.8941672e-03
 -2.1640427e-01
  6.9489732e-02
  3.4659736e-02
  1.0149360e-02
  1.1876750e-02
 -2.4354056e-02
 -3.8700871e-02
  1.7960284e-02
  6.3795842e-02
  3.7398312e-02
  4.7971932e-03
 -3.3192518e-03
  3.3318676e-02
  1.4244727e-02
 -3.2907367e-02
  1.6835911e+00
 -8.1239498e-01
  1.0299246e+00
 -1.1395878e+00
 -2.1142762e+00
 -3.1320859e-02
  1.4505826e+00
  3.9500806e-01
 -1.4036401e-01
  4.0790519e-01
 -1.8773283e+00
 -1.1075450e-01
 -1.1206825e+00
  6.2899387e-01
  1.8121703e-01
  7.3094511e-01
  4.5306763e-01
  2.8521618e-01
  3.7807323e-02
  2.4929883e-02
 -8.5084069e-01
 -1.1999531e+00
  7.1018434e-01
  1.5197033e+00
  3.6112037e-02
 -7.1736205e-01
  2.3906079e-01
 -3.7486035e-01
  1.6879512e-01
 -4.5169279e-02
  1.0464073e-01
 -9.6460106e-03
 -1.6839245e-02
  1.3166398e+00
  1.6299519e-01
 -3.2697996e-01
 -3.3828357e-01
 -1.0259931e+00
 -1.1445779e-01
 -1.5204795e-01
  1.1125871e-01
 -4.8132423e-01
 -2.4435319e-02
  5.0219429e-01
  6.4953446e-02
 -4.0402673e-02
 -3.6128048e-02
 -6.8146437e-01
  2.9473990e-01
 -7.4144006e-01
  6.3059276e-01
 -3.7404522e-02
  5.3047490e-01
  6.8584487e-02
  7.1506941e-01
  2.4902195e-01
 -9.6486276e-03
 -2.3141954e+00
 -7.8966272e-01
  5.0626942e-03
 -1.9410425e+00
 -3.3975163e-01
  2.4595398e-01
 -2.2757246e-01
  2.6818919e-01
 -2.6358335e+00
  4.9332373e-02
 -1.8644419e-02
 -1.3095900e-01
 -1.2285885e+00
  2.0307934e-01
  1.6856103e-01
  5.7899839e-01
 -8.8819867e-01
  1.4392678e+00
  1.7712843e-01
 -5.2047864e-02
 -2.9315177e-01
  7.1717300e-02
 -5.1240806e-02
  6.6168301e-02
  3.3845758e-01
  1.6819546e-02
 -3.6529449e-01
 -5.7361418e-01
  6.8207616e-01
  8.2099311e-02
 -6.2147476e-02
  3.2733228e-02
  3.9421085e-02
 -9.7886831e-01
  4.1779006e-01
 -2.8869098e-02
  4.7689483e-02
 -1.4928502e-03
  3.4531696e+00
 -7.3407632e-01
  3.8921914e-01
  7.5796515e-01
 -1.1546211e-01
 -1.8496348e+00
 -2.2263469e-01
  4.1190285e-02
 -3.9457744e-01
  8.5941374e-02
 -1.8501955e-01
 -5.7042617e-02
  5.5998661e-02
 -4.9509761e-01
  2.2412781e-03
  3.2852644e-01
 -7.9922843e-01
 -3.3535376e-02
 -5.3188119e-02
 -4.0083048e-01
 -1.1797839e-01
  1.2003075e-01
 -4.5832121e-03
  6.3782334e-02
 -1.4276335e-02
 -1.2134314e-02
 -3.4666497e-01
  8.2215041e-02
 -7.4478970e-03
  2.2465727e-01
  1.1224037e-01
  5.7342015e-02
 -4.5758158e-01
 -4.0182590e-01
  2.0363615e-01
  1.3527842e-01
 -3.2134959e-01
  2.5968733e-01
  1.5304361e-01
 -3.7805417e-01
 -2.8594577e-01
 -5.0038276e-03
 -1.3219063e+00
 -4.6348563e-01
 -1.2205845e-02
  1.3229962e-01
  3.4755531e-01
 -1.4361813e-02
 -3.2844964e-02
 -1.0621779e+00
  1.5275550e-01
  1.0924412e-01
  4.4678053e-01
 -3.2954521e-02
  5.5737302e-02
  9.7660311e-02
 -9.3918717e-01
  3.5747285e-03
 -8.5252559e-01
 -2.5407130e-01
 -1.4362141e-01
 -1.6193917e-01
 -1.6135959e-02
  6.8527525e-03
  3.1969804e-02
 -2.0334420e+00
  1.1524817e+00
 -5.2730787e-01
  5.1766391e+00
 -2.0119126e+00
 -9.6887457e-01
 -2.1064417e+00
 -2.1234553e+00
 -1.1650403e+00
 -7.0950878e-01
 -2.3506810e-01
  2.4989369e+00
  8.1130433e-01
  5.9514828e-02
 -1.6611644e+00
 -2.3202004e+00
  2.9666264e-02
  4.0133398e-02
  1.2214961e-02
 -2.1785024e-01
 -1.0824168e-02
  4.8831485e-02
  1.8916097e-03
 -3.5926476e-01
 -8.7490967e-03
  1.2711115e-03
 -5.0077453e-02
 -1.0075461e-01
 -6.4743251e-01
 -2.4093214e-01
 -1.7810299e-01
 -7.5132683e-02
 -1.8249066e+00
  8.1172340e-02
 -1.9356337e-01
  5.6281567e-01
 -1.7058916e-02
 -7.7332056e-01
  2.9400694e-01
  1.8288189e-01
 -8.3087456e-01
  1.3978332e-01
 -5.9650004e-01
 -1.8858202e-02
 -1.3617011e+00
  3.4108153e-01
 -6.8188958e-02
  1.1059649e-01
 -8.6283541e-01
 -2.7797464e-01
 -1.3509698e+00
 -8.3662903e-01
  2.0644570e-02
  1.9859816e+00
  8.9389890e-01
 -5.5787903e-01
 -4.6857175e-01
 -4.9216025e-02
 -1.0817702e-02
  1.3088295e-01
 -5.1822314e+00
  3.6556259e-01
  7.5673377e-03
 -1.2084715e+00
  6.0195863e-01
 -1.5711030e-01
 -4.0729206e-02
  2.5605613e-01
 -2.7269084e-02
  3.1134960e-01
 -6.6915113e-03
  4.4990588e-02
  6.1545014e-01
  4.3726367e-01
  1.1529265e-01
 -9.4745792e-02
 -8.0760801e-01
 -5.7936937e-01
 -5.6324285e-03
 -5.5244464e-02
  2.7530293e+00
 -1.7054057e+00
  1.7840097e-02
 -7.3688281e-01
  4.4060645e-01
  6.3403612e-01
 -1.0773486e+00
  8.6001784e-01
 -7.5512803e-01
 -3.1699911e-02
  1.3006555e-01
  6.3018754e-02
 -8.1297301e-02
 -6.8981814e-01
  1.8861033e-02
  3.3715710e-01
 -2.2382154e-01
  1.0126580e-01
 -2.1660451e-02
 -4.4142146e-02
 -1.4232462e-02
 -2.4792578e+00
  1.2560250e-01
 -1.8405814e-01
  6.9668785e-02
  4.7385830e-01
  3.3928195e-01
 -1.0885312e-01
  2.7448606e-02
  1.4272025e-03
 -3.7290979e-02
 -9.1009021e-01
 -3.2077776e-04
  7.9949254e-01
 -1.0290798e-03
 -6.9828123e-01
 -2.4844992e-01
 -5.8273986e-02
 -1.6184311e-01
  4.5602751e-01
 -2.3713225e-02
 -7.9510146e-01
 -5.6889310e-02
 -5.0323073e-02
  3.4730178e-01
  1.8244747e+00
 -3.4066975e-02
  1.0717857e-03
 -2.4770112e-01
 -1.5499637e-01
 -1.1045983e-01
 -1.7535129e-01
  4.5017939e-02
  2.7665368e-01
  7.5545245e-01
 -5.2073377e-01
  4.1625025e-03
 -2.1488699e-01
 -1.0778624e+00
 -2.4822813e-01
 -4.1906187e-01
  1.5420121e+00
  2.5847100e-02
 -7.2106725e-01
 -1.3108786e-02
 -7.1366280e-01
 -5.7547234e-02
  1.4972805e-02
  4.1922811e-02
 -4.0994489e-01
 -2.8012297e-01
  2.3472410e-02
  1.1103521e-01
 -1.8487820e-01
 -7.9496360e-01
  6.0631344e-03
 -2.9095569e-01
 -2.8143904e-01
 -4.7000304e-02
  8.3913885e-02
  2.3667641e+00
 -4.1961111e-02
  1.2505337e+00
 -1.2693683e+00
  3.3656161e-02
  2.5091693e-01
 -2.8753227e-01
 -4.1938612e-01
 -1.8687822e+00
 -6.7039430e-01
 -1.1734391e+00
  5.7753736e-01
 -2.1090753e+00
 -1.0257828e+00
  6.6566920e-01
 -9.2357144e-02
  3.1562183e-02
  6.1551603e-03
 -5.1587550e-03
  2.9610736e-02
  5.6588437e-02
 -2.3529490e-03
  4.3034218e-02
 -1.3684307e-02
 -1.2149969e-02
 -4.4338305e-02
  4.3792836e-03
  3.1844690e-02
  3.8136553e-03
 -5.6650508e-02
 -2.1967469e-02
  1.0526005e-02
 -6.8820170e-03
  1.0616810e+00
 -2.9125486e-02
 -7.8520089e-02
 -4.0000331e-01
 -9.8538548e-01
 -1.0903873e-02
 -1.8578240e+00
  4.0314518e-02
 -1.4761670e-02
 -3.7023898e-02
  2.6614135e-02
  5.3865183e-02
 -4.4478357e-02
 -5.9766889e-01
  2.3309234e-01
  2.3715131e+00
 -6.7246711e-01
 -1.1265633e-01
  1.0122489e-02
  2.2477880e-02
  1.0355543e+00
  7.5286195e-02
  1.7982099e+00
 -7.2092046e-03
  1.9871978e-01
  4.5306444e-01
  4.4076829e-03
  5.6355047e-01
  3.1294695e-01
  1.6084492e-01
 -2.9347429e-01
  1.6753210e-01
  7.5977951e-01
  1.2022439e-02
 -1.6115148e+00
 -3.4183329e-01
  1.5191995e-01
  1.8074968e-01
  1.0412870e-02
  5.8714104e-01
  3.2781050e-02
  7.5183940e-01
  2.2467308e-02
  9.0360180e-02
  6.6798471e-02
  2.7743593e-02
  1.0109392e-02
 -4.5915864e-02
  2.4343447e-01
  9.3358022e-01
 -1.8118165e+00
 -1.2305690e+00
  4.5013317e-01
  2.6160417e-02
  1.5828797e+00
  1.1666371e+00
 -2.5449591e+00
 -9.1069800e-01
 -8.2231635e-01
 -2.0766993e+00
 -7.3158467e-01
 -1.0226758e+00
 -1.6552003e-01
 -4.6063504e-01
  4.3596840e-03
 -1.4295460e+00
  1.0809506e-01
  3.5253170e-01
 -2.1830466e+00
 -1.4189935e-02
 -3.8213888e-01
 -3.7808254e-01
 -2.8948572e-01
 -1.7385872e-01
  6.3817208e-03
 -1.8433585e+00
 -8.4922260e-01
 -6.5153450e-01
 -1.9646963e-01
 -5.2556535e-03
 -1.5406240e+00
 -4.7384790e-01
  1.0655923e-01
  1.1220881e-01
 -5.8782969e-02
 -1.5710741e-01
  2.3257551e-01
 -2.9827166e-01
 -5.1453042e-01
 -1.6874529e-01
 -1.0365383e-02
 -1.0868101e+00
 -9.9554785e-02
  3.7976939e-02
 -3.0995491e-01
  3.1477664e+00
 -3.7749392e-01
  1.0250678e+00
  1.6214868e-01
 -3.1264505e-01
  2.9948719e+00
  2.0839429e-01
 -6.0574812e-01
 -3.2071805e-01
 -7.2764724e-01
  2.8537539e-01
 -2.0396037e-02
  6.1033958e-01
 -3.4309156e+00
 -1.5666942e-01
 -8.6627878e-02
  1.1129631e+00
  2.5370878e-01
 -1.4784744e-01
  1.0051867e-01
 -2.3116186e-01
  1.9795352e-01
  2.2051787e-02
 -1.1406599e-01
 -5.1897306e-02
 -3.4456167e-02
 -5.2333705e-02
  8.7738903e-03
  2.4994191e-02
  2.3702113e-02
  5.7230191e-04
 -6.8869436e-01
 -1.3875985e+00
 -5.0528441e-03
  1.1544727e-01
  9.5160311e-01
 -2.6407462e-02
 -5.8132589e-01
  7.0229314e-02
 -3.4982502e-01
  4.9925509e-01
  2.3310529e-01
  3.8301274e-01
  6.8478370e-03
 -1.4141186e+00
  1.0648314e+00
 -1.2863046e-03
  1.7506888e-02
 -4.4149268e-02
  7.7631406e-02
  4.8609667e-02
 -4.9182307e-02
  2.2489948e-02
  1.8197373e-02
 -3.5827816e-02
 -6.0914069e-02
  1.0340428e-03
  7.7566332e-03
  3.5762988e-02
  8.6694844e-03
 -1.1707622e-02
  2.0764041e-01
  1.1024472e-01
 -9.6349791e-04
  1.9042462e-02
  2.2528132e-02
 -4.7173601e-02
 -4.4046562e-02
  9.4644902e-03
  8.1823760e-01
 -3.8307812e-02
  4.0479403e-02
  1.4249085e-01
 -3.1661540e-02
  4.7725666e-02
  1.0516036e-01
  1.1198044e-01
 -6.8255931e-02
 -3.2145660e-02
 -1.9268896e-02
 -8.0416717e-02
  3.3645701e-02
  1.8429874e-02
  6.0077989e-03
  2.6110854e-02
 -1.9065553e-01
 -1.2060537e-01
 -3.0713746e-01
  8.1066862e-03
 -2.4452561e-01
 -4.9207304e-02
 -5.7169456e-02
  2.3749597e-01
 -2.2837089e-02
  6.2169731e-02
  4.5547906e-02
  1.9421745e-03
  2.8329410e-02
  1.3715107e-02
 -2.3638587e-02
  1.0827622e-02
 -1.0339883e-02
 -3.8726456e-02
 -4.7813300e-02
  2.4167631e-02
  3.2729246e-02
  4.9391612e-02
 -2.9598599e-02
 -3.8835559e-02
  9.1001391e-03
  2.1189941e-01
 -3.0603036e-02
 -1.8927587e+00
  1.8449144e+00
  1.3291566e-02
  2.3521176e-01
  2.2428238e+00
  1.3073064e+00
  3.5984697e+00
 -1.3993770e-01
  4.5065522e+00
  6.1377192e-01
 -1.1266780e+00
 -2.8726804e+00
  2.0478108e+00
  1.4173710e+00
 -1.5465782e+00
 -4.3945387e-02
 -2.3690170e-01
 -5.5083092e-03
  1.4284410e-01
  5.0930840e-01
 -6.2308874e-02
  6.5828256e-02
 -3.7120929e-01
 -6.6152745e-01
 -2.0496950e-02
 -4.1940147e-01
 -5.1940066e-01
 -1.0461906e-02
 -1.8812294e+00
 -1.5704253e+00
  3.3819917e-01
  4.2161755e-02
  3.5569933e-01
 -1.4879754e-01
 -1.4880202e+00
  9.7124165e-01
  5.0820792e-01
  1.0681790e-05
  8.2853585e-01
  3.5753742e-01
 -2.4877662e-02
 -8.0200983e-03
 -4.8401210e-02
 -9.8000091e-01
  7.3868893e-02
 -7.2139698e-01
 -4.5836487e-01
  5.1047516e-01
  1.1318223e+00
  1.8641402e-01
  6.0070485e-01
  1.0926665e-02
 -1.0618453e+00
 -9.5284092e-01
  4.6498220e-02
 -2.8955696e+00
  1.1987503e+00
  3.7531726e-02
 -5.5006933e-01
  1.5923545e-02
 -2.9657528e-01
  6.8781930e-01
  5.7634958e-03
 -5.3234226e-01
  7.0297807e-02
 -2.1830208e+00
  8.7562343e-03
 -2.8810436e-01
 -9.6209997e-01
 -6.2014092e-02
  1.0491828e-02
 -8.2516968e-02
  6.8412356e-02
  2.8286247e-02
  5.4039532e-01
 -1.0800233e-01
 -4.4003335e-01
 -5.2517539e-01
  3.2599947e-01
 -6.2731290e-01
  3.2507395e-03
 -2.5837228e-01
  4.4218395e-03
  1.3009602e-02
 -3.2231081e-02
  4.2802192e-02
  7.8414820e-02
  1.9048311e-02
 -6.3260207e-03
  7.0455037e-03
  1.7953768e-01
 -5.5964418e-02
 -7.2991578e-03
 -3.3333451e-02
  3.3967920e-02
 -1.2164650e-02
  1.1803031e-02
 -5.5873715e-03
 -2.3049092e-02
 -3.4786243e-02
  2.0993620e-02
  5.2488454e-02
 -3.8572125e-02
  1.9936759e-02
 -8.6656502e-03
  1.1869179e-01
  7.9464465e-02
  3.0128414e-02
 -1.6527567e-02
  2.9035583e-03
 -1.2904580e-01
  3.9995532e-02
 -2.0127926e-02
  4.2442329e-02
  6.8142243e-02
 -1.9355146e-02
 -3.1178419e-02
  4.1465074e-02
 -3.3885445e-03
  1.0240161e-02
  1.2941781e-02
 -4.5807920e-02
 -3.5401199e-02
  6.4150044e-03
  1.3385483e-02
  9.7594634e-03
  1.5842745e-02
 -1.7555304e-02
 -3.6856793e-02
  4.9358819e-02
 -1.4272974e-02
 -3.6290914e-02
  1.8299827e-03
  3.9227989e-02
 -3.2219969e-02
 -1.1278367e-02
  1.2108624e-01
  1.8250208e-02
  2.8883980e-03
  3.3543304e-02
 -2.5148427e-02
 -4.1372333e-02
 -1.2441842e-02
  7.6946966e-02
  3.7683211e-03
  1.5479008e-02
  4.0659565e-02
  8.3313081e-03
 -8.3288457e-03
 -1.0298517e-01
 -2.2796132e-03
  4.1412555e-02
  6.5276097e-03
 -2.3065669e-02
 -1.6620234e-03
 -5.5025693e-02
 -5.6156736e-02
  7.5380363e-02
 -5.8738858e-02
  4.7419593e-04
 -1.0735834e+00
  1.3451885e-02
 -1.2195911e-01
 -2.5252914e-01
 -3.5076347e-01
  6.2583005e-01
  7.3381707e-02
 -5.1386721e-02
  4.5332182e-02
 -5.3604633e-01
 -5.9135839e-02
  5.3919557e-02
  2.2805192e-01
 -2.8382427e-01
 -2.9515946e-01
 -1.9984879e-01
 -3.8331248e-02
 -4.5381738e-03
 -9.5684581e-02
 -7.7225798e-01
 -1.0919642e-02
 -1.2688659e-02
  2.9353268e-02
 -2.2808656e-01
  2.0865670e-01
  5.5932635e-03
  4.5639724e-02
  2.4345985e-01
 -3.2303476e-01
 -7.3548639e-03
  2.4169408e-02
 -1.5345477e-01
 -6.0916960e-01
  1.4454119e-01
  4.9263388e-02
  6.9923252e-01
  1.1720825e-01
 -5.5545527e-02
  2.1413997e-01
  8.1514150e-02
 -1.9434797e-02
  7.0753202e-02
 -3.2815961e-03
 -4.1998678e-01
 -4.2913012e-02
  1.0676216e-01
 -3.1492892e-03
  5.9072477e-01
  3.1104231e-02
 -4.6828552e-03
  7.8318968e-02
 -8.6208475e-01
  5.0443493e-02
 -5.3376186e-01
  3.8401049e-02
  3.0832353e-01
  3.6977503e-02
  3.7258537e-03
  8.3236163e-04
  1.6061733e-02
  2.0393121e-01
 -7.1200751e-02
 -8.1841892e-01
 -6.4890705e-02
  1.7692301e-01
  7.2757915e-02
 -7.1625464e-02
 -5.5424262e-02
 -3.5136622e-01
  3.2216664e-03
 -2.0544995e-01
 -1.4058164e-02
  8.4581329e-03
 -3.1821365e-03
 -1.1077070e-01
  2.4835385e-02
 -4.8916131e-02
  3.8516462e-02
 -1.4770243e-03
 -8.1171371e-02
 -1.9162506e+00
  1.7299346e+00
 -9.5183611e-01
 -2.5990183e+00
 -2.2874670e-01
  1.9920595e+00
  2.1147778e+00
 -8.4865308e-01
  9.4504905e-01
 -1.0879509e+00
  1.6135245e-03
  5.8422065e-01
 -6.2954273e+00
 -9.2850560e-01
  1.5211858e+00
 -2.9474132e+00
 -1.4824628e+00
  7.2186771e-03
  4.6913317e-01
  6.4860001e-02
 -2.1745032e-01
 -1.0346392e-01
  1.4793591e+00
  1.5447626e+00
 -2.0622096e+00
 -4.0450251e-01
  6.4262646e-01
 -3.3862895e-01
 -4.3445134e-01
  1.0327800e-01
  1.3784420e-01
  1.1437551e+00
  1.9710816e-01
 -3.8479155e-01
 -6.2785611e-02
  4.8878103e-01
 -3.4298661e-01
 -1.1061184e+00
 -1.6875806e-01
  1.2918392e-01
 -7.2591561e-01
 -6.0967201e-01
 -1.6537790e-01
  1.2855134e+00
 -8.2368068e-02
 -1.7607370e-01
 -2.5647089e-01
 -2.2959875e-01
  1.1737812e-01
 -1.8076485e+00
 -5.3354917e+00
  1.1076525e+00
  4.3714032e-01
 -7.4009126e-01
 -9.8788106e-01
  2.3890014e+00
 -1.4949424e-02
 -1.3133495e-02
 -1.0488690e-01
  2.8212786e+00
  3.1333854e+00
  6.0322642e-01
  1.3677579e+00
 -1.6922674e-01
 -2.1814301e+00
 -1.1519878e+00
 -1.9379165e+00
  5.7935458e-01
 -2.6931534e+00
  1.4241459e+00
  9.8590124e-01
  1.3054070e+00
  9.7346038e-01
  1.2478808e-01
 -3.4006829e+00
 -5.1892438e+00
 -1.3410718e+00
 -9.5783097e-01
 -3.1874485e+00
  1.7047113e-01
  5.7323825e-01
  1.9670204e+00
  3.3390687e+00
  1.2471404e+00
 -1.9437304e+00
 -1.6932368e+00
  3.8568076e-01
 -4.4927568e+00
 -1.3373668e+00
  1.7236567e-01
 -1.6214255e+00
 -4.6921844e+00
 -5.6237704e-01
 -8.1858969e-01
 -1.8028005e+00
 -6.1435914e-01
  2.4919131e+00
 -8.9038461e-01
 -6.1720264e-01
  7.9119700e-01
  1.6724947e-03
 -8.3680764e-02
  3.4146878e-01
 -2.1389140e-01
  7.7529347e-01
 -1.0500171e+00
  2.5763533e-01
  7.7501722e-02
 -3.7875788e-03
 -1.5024235e-03
  1.9236418e+00
 -2.0025098e+00
 -1.7511016e-02
 -4.8018408e-01
  1.9591899e+00
  1.2090039e+00
  1.5258296e+00
  2.8304768e+00
  8.0171496e-01
 -1.4492006e+00
 -6.7823008e-02
 -1.3623724e-02
  4.0316230e-01
 -3.3701861e+00
 -3.3650126e-02
 -8.9981198e-01
 -2.6321292e+00
  1.4247905e+00
  8.9063120e-01
  1.8796192e+00
  1.3139926e+00
  1.7788556e+00
 -1.7957370e+00
 -2.3165846e-01
 -2.2997475e+00
  3.5942986e-04
 -1.2787338e-01
  6.9566377e-02
 -7.3275036e-01
  6.3719958e-02
 -5.3273108e-02
 -9.3311226e-01
 -1.8277712e+00
 -7.4249338e-03
 -5.3803152e-01
 -2.6683736e+00
  9.1990106e-02
 -7.6418394e-01
  3.2519352e-02
 -5.3682517e-02
 -3.1723075e+00
  3.5744345e-01
  2.7609537e+00
 -2.2938940e-01
  1.4071956e+00
 -1.6369188e+00
 -6.3723332e-01
  7.0809227e-01
  3.9766891e+00
  1.0686187e+00
  1.1004991e-02
  3.9042555e-02
  2.8142132e-02
 -8.8112748e-01
  3.6060363e-01
  1.9690080e-02
 -8.4446418e-01
  1.9454641e+00
  8.9232340e+00
  2.4995977e-01
 -2.4343789e+00
  1.0531187e+00
  4.7456566e-02
 -1.6453159e-01
  1.4016434e-02
  1.9289405e+00
  1.4833860e-02
  6.0216099e-02
  4.5761247e+00
  9.9232060e-01
  2.0412121e+00
  2.8092852e-01
 -9.3021375e-01
 -1.1572793e+00
  8.7867504e-01
 -2.0643489e+00
 -4.0735989e+00
  1.0334159e+00
  3.1952003e-01
  9.4229780e-02
  3.4943685e-01
 -7.0545601e-04
 -9.8620051e-01
  4.3590391e-01
  2.4508243e+00
  1.6702058e+00
 -2.6148965e+00
 -4.2973149e-01
 -1.2299764e+00
  1.2702832e+00
  2.4547136e-01
  1.5680753e-01
 -1.3985708e+00
  3.6412644e+00
  5.8358812e-01
 -8.7909764e-01
 -3.6598313e-01
 -1.7393903e+00
  2.1510726e-01
  2.9350789e+00
  8.6422443e-01
 -3.8701084e-01
 -3.7662648e-02
  3.8543779e-02
  8.8371612e-02
  9.4468540e-01
 -4.3849993e-01
 -2.1253409e+00
  2.2568221e+00
 -3.1573102e-01
 -2.3460992e-02
  2.5436261e+00
  6.6882551e-01
  6.7886603e-01
 -1.0185535e-01
  8.3038592e-01
 -3.1246810e+00
  3.2359161e+00
 -3.0423542e-03
 -1.8868457e+00
 -3.5412591e+00
 -1.8962145e+00
  1.5257707e-01
  8.0701327e-01
  2.4312427e+00
 -6.0052973e-01
 -1.1564155e+00
  3.5224211e+00
  4.3362880e+00
  3.4750102e+00
  5.2694345e-01
 -1.5629811e+00
  7.6037413e-01
  5.8931847e+00
  4.6913016e-01
 -1.5569900e-01
  9.7174817e-01
 -9.2800176e-01
 -1.7409889e+00
 -7.8528382e-02
 -1.2553760e+00
 -3.6544597e+00
  9.3946683e-01
 -3.8945461e-03
  2.9460170e+00
 -1.1742604e+00
 -9.0773630e-01
  4.4037884e-01
 -1.1659988e+00
 -5.1647961e-01
 -1.3331372e+00
 -1.1817421e-02
  1.6607402e-01
 -4.4072995e-01
 -2.4996195e-02
  2.9051366e-01
 -1.7002896e+00
  1.2323910e+00
 -8.9459544e-01
 -1.7800650e-01
  2.6100235e+00
  1.7179431e+00
  2.7747447e+00
 -2.1728920e-06
 -2.8853452e+00
 -1.1519604e+00
 -9.0180552e-01
  7.2757787e-01
  8.1428355e-01
 -1.4480703e-01
 -1.0297787e+00
 -2.1639915e+00
 -2.8760111e+00
 -1.0678562e+00
  1.0163019e+00
  2.6030603e-01
  5.5662055e+00
 -1.2212404e+00
  3.7867126e-01
  8.6816365e-01
  8.2711053e-01
  7.2163635e-01
  1.6505527e-01
  3.0352604e-01
 -3.7163559e-01
 -3.5198097e+00
 -2.7245522e+00
  1.6816964e-02
  1.6699181e-01
  7.5676978e-01
 -1.6768768e+00
  6.8807833e-02
 -2.7578792e-02
 -1.5618794e+00
 -2.0381318e-01
 -5.2155435e-01
  2.4956961e+00
  2.2611103e+00
  2.2004085e+00
 -2.3778828e-02
 -1.6786698e-01
 -2.4706797e-01
  6.9980103e-01
 -5.5142008e-02
  5.9828174e-01
  1.1107838e+00
 -3.4110877e-03
 -1.6737537e-02
  1.3030684e-02
 -5.5489129e-01
 -1.4480299e+00
  1.1838053e-03
  5.4839951e-01
  4.2535849e+00
 -3.6857036e-01
 -5.1571900e-01
  5.7383165e+00
 -6.6607285e-01
  1.7622834e-02
  1.5587588e-01
  1.5215211e-01
  7.6230758e-01
 -7.6010728e-01
 -3.5016615e-02
 -1.3460629e+00
  5.0954351e+00
 -2.6980383e-02
 -4.3909228e-01
 -5.0452647e+00
  1.1930577e+00
 -1.5450369e+00
  1.1964811e+00
  4.2196231e+00
  7.7117121e-01
  1.7547245e+00
 -1.7614473e-01
 -6.8254560e-01
  1.0610387e-01
 -1.3675620e-01
  4.8190165e-02
 -2.6515815e+00
 -7.8283548e-01
  1.2608994e-02
 -2.1947360e-02
 -5.9509826e-01
 -8.4041876e-01
 -8.3829902e-02
 -3.5028814e-03
  2.6610449e-01
 -2.4001155e+00
  3.0729982e-01
 -5.0778133e-01
  2.4532979e+00
  6.1852843e-01
  7.7243242e-03
 -3.3375677e-01
 -4.2210063e-01
  9.4345576e-01
  1.6949794e-01
 -2.0176170e-02
 -1.9117703e+00
  6.0198373e-01
 -2.7072707e-01
 -2.5972677e-02
 -3.7123859e-01
  1.6610595e+00
  1.0121758e+00
  5.4423334e-03
 -1.5067884e+00
 -5.8157474e-01
  9.3889642e-01
 -3.6375277e-02
 -1.9001832e+00
 -1.7705392e+00
  9.2094839e-01
  2.1611726e-01
  1.7750059e+00
 -3.8802974e+00
  8.8065344e-01
 -9.2248875e-01
  1.3669091e+00
  3.4457815e-01
  1.0299397e+00
  1.5620567e+00
 -1.7693282e+00
 -1.1428775e-01
 -8.8317049e-01
  8.2033968e-01
 -1.0513449e+00
  2.6550639e+00
 -9.4583946e-01
 -2.8575534e-02
 -2.1768143e+00
 -1.7017323e+00
  5.5583801e-02
 -1.5119075e-02
  1.9384130e+00
 -6.2476593e-01
 -7.5791515e-02
  1.3318683e+00
  5.8403337e-01
 -7.7594481e-02
  1.0136387e-02
  1.1458465e-01
  7.1801913e-01
 -1.8956555e+00
 -3.8596299e-01
  5.9197313e-01
  1.4545108e-01
 -1.0795904e+00
 -2.3206139e-01
  5.0103748e-03
 -3.4482455e-01
 -2.2268634e-01
  6.6918895e-02
  1.1733916e-01
  1.9083746e-01
 -5.1670891e-01
 -1.5020999e+00
  1.4737608e-01
 -3.7776344e+00
 -2.9091697e+00
 -2.9448340e-02
  1.3521706e-01
  4.1040555e-02
  5.5242805e+00
  6.9154167e-01
  4.7691533e-01
  1.5838924e-01
 -2.2204266e+00
 -5.6463391e-01
 -4.8516478e-02
 -6.6853780e-01
 -1.4684781e+00
  7.6698646e-02
 -1.1922915e-01
  3.8758392e+00
 -1.3175911e+00
  5.7078034e-01
  1.8728350e-01
  4.4072324e-01
 -4.6553174e-01
 -3.5577962e-01
  1.2688431e-01
 -1.4059271e+00
 -2.1453879e+00
 -5.8410363e-03
  7.1084470e-02
 -4.8021441e+00
 -1.1678671e+00
 -4.5608351e-01
  2.3020957e-01
  8.7966901e-01
  1.8725964e+00
  6.3249017e-03
 -4.4202316e-04
  9.4303226e-01
  1.5771352e+00
  3.0472738e-01
 -3.7673688e-01
  4.7139392e+00
  1.1712078e+00
 -1.3727286e-01
  1.7461613e-02
  1.2739525e-02
 -1.7180215e+00
 -1.1514310e-01
 -2.1326666e-01
 -2.7531242e+00
 -9.0858698e-01
 -1.6501315e-01
  4.8875127e+00
  2.2241204e+00
 -7.3289496e-01
 -8.5378170e-02
 -4.9882866e-03
  8.6928034e-01
  1.1248242e+00
  4.5110101e-01
 -4.0288709e-02
  5.7332281e-02
 -2.5713755e-02
 -4.6911576e-01
  1.7158159e+00
  6.2254217e-02
  4.7245571e-01
 -7.6280969e-01
 -4.5002365e-01
  7.1635568e-01
  3.3943391e+00
  8.2659113e-01
  2.6979566e-01
  8.2525837e-01
 -1.1791923e+00
 -1.2259807e-02
  1.2693219e-01
  1.1934047e+00
 -3.2300013e-01
  6.2310475e-01
  8.4330595e-01
 -2.0175350e+00
 -9.9253106e-01
 -1.5981266e-01
  1.8742815e-02
 -1.9651700e+00
  1.2787706e+00
  1.9090570e+00
  1.9883326e-01
 -1.4942995e+00
  4.7006032e-01
  3.3347948e+00
  3.1715348e-01
  1.8619107e+00
  2.0440334e-01
  1.2776798e-02
  2.5744408e-01
  5.0564583e-02
  9.2550606e-02
  1.8030086e-01
 -1.8392752e-01
 -1.7523379e+00
  2.6343598e+00
  1.9770914e+00
  9.6311849e-01
  7.7573919e-01
 -4.6729308e-01
  1.4546569e-02
  4.6425262e-01
  1.1600860e+00
  2.8084989e+00
 -3.5223451e-02
 -1.2380041e-01
  3.6067742e-01
 -4.9912199e-01
  1.1475392e-01
  2.3076747e-01
  3.9631632e-01
  8.4462827e-01
 -1.1699101e+00
  1.1941938e+00
  2.1715257e+00
  1.5806786e+00
 -2.6455539e-01
 -5.5408601e-02
  1.8178016e-01
  7.6273251e-01
  1.6893099e-01
 -1.9406077e-01
 -2.7343030e+00
 -2.0222065e+00
  2.5143418e-01
  2.3898283e-02
  6.7071217e-01
  1.4782706e-02
  1.0076339e+00
  2.0261128e+00
  2.0848160e+00
  1.6815323e+00
  3.7961740e-03
  9.1443837e-01
  1.6345863e+00
  1.7684773e+00
 -1.6919147e+00
 -1.2179559e+00
 -2.5498664e-01
  6.9158945e+00
  4.9861163e-02
  2.8233595e-02
 -1.1711197e+00
  1.1192997e-01
 -2.3590384e+00
 -8.3601493e-01
  1.6794277e+00
  3.8277930e-01
  6.8080866e-01
 -1.1612723e+00
 -1.4148299e+00
 -8.6824274e-01
 -2.2471961e-01
 -4.0470538e+00
  3.3585970e+00
 -3.6409240e+00
 -2.5687411e-01
 -2.3908374e-01
 -8.4921598e-01
 -2.8494911e+00
 -6.8803138e-01
 -6.9153927e-02
 -2.0807006e+00
  3.6552650e-01
  2.3551559e+00
  2.0246716e-02
 -1.8935541e+00
  9.0677536e-01
  1.0535986e+00
 -9.6584409e-02
 -1.5914258e-01
  6.9903386e-01
  1.8395216e+00
 -6.9591261e-02
 -2.5140254e+00
  2.1116576e-01
 -3.1464118e-01
  2.7149519e-01
 -2.2593784e-01
 -6.5981632e-01
  1.7725913e-01
 -1.7244244e-01
  1.5424987e+00
  2.3643495e-01
 -2.0305476e+00
 -7.2198236e-01
 -4.3692696e-01
  1.7501229e+00
 -3.9883125e+00
  1.1411312e-01
  2.7806985e+00
 -2.2989482e-01
 -5.9647072e-02
 -1.4110614e-01
  1.2149430e-01
  6.1425549e-01
 -4.8316352e-02
 -8.6634117e-01
  3.2663341e+00
  7.7055329e-01
 -1.1803695e-02
  2.7170482e-01
 -3.7387805e+00
  5.1975098e+00
  9.0964490e-01
 -1.9655181e+00
 -1.4498634e+00
  2.1371140e+00
 -9.0065068e-01
 -2.9914029e-02
  7.4203980e-01
 -3.2688382e-01
  5.1365834e-01
 -1.8410659e+00
  3.1172365e-01
 -2.8083146e+00
  1.0706878e+00
 -2.6882851e-02
 -1.4572016e+00
  3.8240507e-01
 -9.8034161e-01
  3.0577216e-02
 -2.9369524e+00
  1.2403059e+00
  2.2920880e+00
 -7.1259779e-01
 -5.6264400e-01
 -2.1256657e+00
 -9.2700064e-01
  7.6083164e-03
 -8.7556783e-03
 -3.7342432e+00
 -3.1168115e-01
  1.5161864e-02
 -3.1251864e+00
 -3.2190232e+00
 -1.2247357e+00
 -1.7364588e-01
 -1.3225185e+00
 -1.5834736e+00
 -1.6084909e+00
  4.0822959e-01
 -1.1048110e+00
 -4.2110672e+00
 -3.8437244e-02
  7.5109117e-02
  1.1799040e-01
 -1.2236502e+00
 -6.7612815e-01
 -1.7522479e+00
 -3.5623553e+00
 -1.0223489e-02
 -5.9820991e+00
 -3.2093528e-01
  2.2629776e+00
  9.5033360e-01
 -4.5971814e-01
  3.6474824e-02
  1.6044127e+00
 -1.4103385e+00
  8.8016617e-01
 -2.7173517e+00
 -8.7635046e-01
 -2.7441928e+00
  2.2001501e-02
  2.1155605e+00
 -2.8833296e+00
  7.3744369e-01
  9.3004107e-01
 -1.3029464e+00
 -1.4785457e+00
 -2.7608135e+00
  2.8922946e+00
 -3.5485893e-01
 -1.4208882e+00
  3.1165999e-01
  2.5729396e+00
 -1.7352606e-01
  7.3090601e-01
  4.2872274e-01
  8.2241702e-01
  3.0532137e-01
 -4.4171602e-02
  6.4960307e-01
 -1.8651118e+00
 -2.0080034e-01
 -3.7187231e+00
 -2.2459611e-01
 -4.0864863e+00
 -9.7600895e-01
  1.2721273e+00
 -6.0090899e-01
 -2.8422806e+00
  1.2476790e-02
  2.1065409e+00
  1.4209291e-01
  1.7494398e-01
  5.6499660e-02
  3.3849191e-02
 -2.3105924e+00
  5.7321703e-01
 -4.7631168e-01
 -3.5591516e-01
  2.2090898e+00
  1.5097003e+00
  9.8261547e-01
  4.9937053e+00
 -2.1951413e+00
 -2.5307307e-02
  1.0243921e+00
 -2.4384346e+00
 -2.7168703e+00
  7.3344231e-01
  1.2967895e+00
 -1.3672034e+00
  3.2981405e+00
 -1.6582632e-01
 -3.0240932e-02
 -1.8978522e+00
 -3.9471397e-01
  1.0033931e+00
  3.3444674e+00
  2.3688778e-01
  8.1651723e-01
  9.8535669e-01
  1.5775812e+00
  5.0064373e-01
 -3.7177396e-01
  1.3351187e+00
 -5.0443017e-01
 -3.8429744e+00
 -1.2153187e-01
  2.8583126e+00
 -6.8397725e-01
  6.3925552e-01
  1.9142087e+00
  5.6559956e-01
  8.3557862e-01
  2.0410979e+00
 -1.2090690e+00
  2.4456385e-01
  4.4733423e-01
 -3.8205497e-02
 -1.9027464e+00
  1.3110135e+00
  1.6757563e-01
  3.6959839e+00
 -2.0522077e-01
  3.3276618e-02
  1.5908261e-03
  1.7215224e-02
 -2.1716027e+00
  2.6565886e-01
  3.4651777e-01
  1.1368564e+00
 -3.7394328e+00
  7.7034414e-01
  1.3803964e+00
  3.3460113e-01
  1.9213396e+00
  5.9630698e-01
  2.3980406e-01
  1.3879249e+00
  6.0347092e-01
 -9.1313273e-01
  2.7134946e-01
  2.9434630e-01
  3.9719560e+00
  1.0527316e+00
  4.2912900e-02
 -1.8646597e+00
  1.5720761e-01
  2.1734470e-01
  7.0991391e-01
 -1.1202787e+00
  6.9606882e-01
  3.8639843e-01
 -7.5126672e-01
 -2.4012856e+00
  9.2852497e-01
  7.5264591e-01
  1.1115047e+00
 -1.9217079e+00
 -2.5130245e-01
 -3.5782659e+00
  2.1497431e-01
 -2.2119222e-02
 -3.0518880e+00
  1.9701926e-02
 -1.8736884e-02
 -6.9995952e-01
  1.7184762e+00
 -4.3947506e+00
  1.2348182e+00
  1.6105780e-01
 -1.7604306e+00
 -1.9430678e+00
 -4.0978453e-01
 -2.2720952e+00
  5.7525325e-01
  2.2349789e+00
  9.7810701e-03
  7.5704128e-01
 -4.5654292e+00
 -2.3809436e-01
  4.7438484e-01
  1.4895967e+00
 -1.0338800e-01
  7.0431656e-01
 -1.9554970e-01
 -2.5868016e-01
  3.0776839e+00
  9.8780371e-02
 -1.1718205e-01
 -5.4617214e-01
  8.2625824e-01
 -1.8825133e+00
  1.3951994e+00
  3.8440611e+00
  6.3527215e-01
  1.3721343e+00
 -2.7378514e-01
  1.5910430e-01
  2.2172687e+00
  5.1657319e-01
  3.0602652e-01
 -3.0347434e-01
 -2.9406857e+00
 -1.3456943e+00
 -1.0298442e+00
 -1.2290471e+00
  3.5216120e-01
 -1.4973474e+00
  3.6890101e-01
  2.8040236e-01
  1.1507227e-02
  5.3082508e-01
 -9.4286001e-01
 -8.7833178e-01
  2.8974218e+00
  2.6030893e+00
 -4.4387427e-01
  3.9556303e+00
  4.2790368e-01
 -3.0715055e+00
 -5.1675683e-01
 -7.6841623e-02
  8.0949014e-01
  5.2363682e-01
 -1.6556903e+00
 -2.2413874e+00
  3.2035653e-02
 -3.9897073e-02
 -1.1102624e+00
 -2.8620629e+00
  3.6186309e+00
  6.2997639e-01
  2.3199497e-01
  1.8783127e+00
 -1.5784077e-01
  1.3145579e-01
 -9.1780229e-03
  1.3309523e+00
  2.5478923e-01
  2.0337243e+00
 -3.5885544e+00
 -1.5501579e+00
  1.0858781e+00
  7.6833636e-01
  4.3366656e-01
  2.6507506e-01
  2.6422584e-02
  3.9537054e-01
 -1.9791398e+00
 -1.5316033e+00
  7.9640269e-01
 -2.8975379e-01
  2.2155828e+00
  3.9750171e-01
 -5.7703680e-01
  3.4093052e-01
  1.2708267e+00
  2.1865967e-01
  1.6960880e+00
  3.8274667e-01
  2.0277143e+00
 -9.6000481e-01
 -9.7844565e-01
 -5.0871664e-01
 -2.6934800e-01
 -4.2141914e-01
  1.7076335e+00
  1.5338918e+00
 -2.2733079e-02
  7.3903787e-01
 -1.3748336e+00
  2.0417385e-01
 -1.5684671e+00
  5.6516105e-01
  2.5502763e+00
  1.5940772e+00
 -1.6956413e-02
 -1.7322210e+00
 -6.8339191e-02
  5.9274763e-01
 -3.9356896e-03
 -4.0861335e-02
  7.0382126e-02
 -2.8365827e+00
 -7.3864013e-02
 -3.7030458e-02
  1.8647563e+00
  1.7611851e+00
 -1.3819376e+00
  2.0911556e-01
  4.8219740e-02
  2.4095647e+00
  1.0094356e-01
  1.2840448e-01
 -2.0007491e-01
  9.4502747e-01
 -1.7746285e-01
 -2.7243817e+00
 -1.7318114e+00
 -1.1734405e+00
 -7.0158297e-01
 -2.9503582e+00
 -1.2266431e+00
  8.3607852e-01
  4.9170175e-01
  2.6971701e-01
  2.8212300e-01
  3.8820872e+00
 -1.2880121e+00
 -2.1965206e+00
  1.4129701e-01
  1.0322562e+00
 -2.0812642e-02
  5.8882976e-01
 -1.2056662e+00
 -1.9499650e+00
 -1.0342511e+00
  5.6644964e-01
  4.6457462e-02
 -2.1101539e+00
 -8.1552130e-01
  1.6993678e+00
  2.3871201e-01
  4.4052118e-01
 -3.0141291e-01
 -1.5657985e-01
 -8.1499076e-01
 -3.4770197e-01
 -8.5613894e-01
 -1.0936780e-01
  4.3067864e-01
 -3.7026625e+00
 -1.0638683e-01
 -1.1923622e-01
 -1.3481338e+00
  1.2300163e-01
  1.8212689e-02
  1.1847322e+00
 -1.2287841e+00
  8.9338458e-01
  2.0054307e-02
  2.0200982e+00
 -1.4893732e+00
  7.3885119e-01
 -2.1267445e-01
 -5.5477178e-01
  1.4269223e+00
  3.7136564e-01
  4.8046729e-01
 -1.1612352e+00
 -1.1228189e+00
 -2.3016636e+00
  2.2939913e+00
 -4.4974363e-01
  2.2858779e-01
 -9.7342700e-01
 -5.1254475e-01
 -3.7586272e-01
 -1.2546931e-01
  2.5026843e-01
  1.1930045e+00
  3.6418130e+00
 -2.0834567e-01
 -5.2190262e-01
  1.4060955e+00
  1.6389781e+00
  1.0699944e-01
 -4.8194537e-01
 -4.7155333e-01
 -6.5179443e-01
  2.8281382e-01
 -6.9365120e-01
  1.4795036e+00
  3.3047199e-01
  2.9233399e-01
 -7.7390648e-02
  3.2719809e-01
  1.8036306e-01
  6.9678873e-01
 -1.4018035e+00
 -1.0987291e+00
  4.3704328e-01
  4.4555902e+00
 -4.7060889e-03
  8.8469237e-03
  6.5998688e-02
 -1.2928491e+00
 -1.7478331e+00
  7.6506466e-01
  2.0863044e+00
  1.0780792e+00
  6.7790133e-01
  5.0212556e-01
  8.9671469e-01
  2.2257776e+00
 -5.0106531e-01
 -1.2384251e+00
 -1.6990609e-01
 -2.2097678e-01
 -1.2323140e-01
  2.1370060e+00
  1.7808902e+00
 -1.6300800e+00
  4.2259967e-01
  1.5056229e-01
 -8.3856755e-01
  9.9474534e-02
  4.2976704e+00
 -4.4315892e-01
 -9.3088615e-01
  1.3158671e+00
  7.3238575e-01
  1.5957035e+00
  1.2739501e+00
  6.7095941e-01
 -7.0037439e-02
  7.8682266e-03
 -2.6118159e+00
  7.4682742e-01
 -4.1616312e-01
 -1.9944740e-02
 -3.2345122e-01
 -9.6183354e-01
  1.2084008e+00
  7.1273053e-01
  1.1743584e+00
  1.7306572e-01
  1.1078001e+00
 -2.7113274e-01
  1.7250247e+00
 -2.7423468e-01
 -4.4720167e-01
 -5.9516847e-01
  4.3914366e+00
  1.9321731e-01
 -1.1671889e-01
  3.9532351e-01
  2.9730878e+00
  3.5104272e-01
  2.8402594e-01
 -2.8263085e+00
 -1.6113330e+00
 -4.1176534e+00
 -3.2997692e-01
  1.1330394e+00
  3.2523518e+00
 -3.5053749e+00
 -1.0846797e+00
  1.4981742e+00
 -1.5618962e+00
  4.7189498e+00
  2.3321619e+00
 -1.9609725e+00
 -6.4494281e+00
  4.4450827e+00
 -7.6661617e-01
  1.3802688e-01
 -2.0673938e+00
  4.1690153e-01
 -1.2221987e+00
 -2.3779865e-02
  2.0767199e-01
 -2.0892830e+00
  6.0453302e-01
  1.4330771e+00
  8.6116570e-01
 -2.6736743e+00
 -1.6458492e+00
 -5.5996233e-01
 -1.6800538e+00
  1.0394433e+00
  4.9807054e-01
 -3.3962405e-01
 -3.2694137e+00
 -4.7589549e-01
  1.7210838e-01
  8.9351809e-01
 -6.8215221e-01
 -1.3268465e+00
 -2.8260082e-01
  2.9637831e-01
  1.4789279e-01
 -3.4829423e+00
 -9.5888376e-01
 -1.4587588e+00
 -1.8935437e+00
  2.1338820e+00
  7.4702305e-01
  5.0806928e-01
  9.0201950e-01
  9.4114679e-01
 -9.0426987e-01
 -1.1735106e+00
 -9.6572620e-01
  5.0123841e-01
 -1.7281699e+00
  3.8308115e+00
  4.9849939e+00
  1.1025380e-01
  2.7786665e+00
  4.3388784e-02
  1.0107992e+00
  2.2480222e-03
  1.5104450e-01
 -1.4643520e+00
 -5.8382545e+00
 -1.5061862e+00
 -1.2570845e+00
  1.5806581e+00
 -7.9283279e-01
 -9.1206163e-01
 -1.3682750e+00
 -1.3988723e-02
 -1.3350146e+00
 -1.2063029e+00
  9.7886169e-01
  1.0029285e-01
  2.0873563e+00
 -3.3311003e-01
  5.9230760e-02
  1.2016405e+00
  1.5621851e-01
  1.7030782e+00
  6.4160317e-01
 -1.4324951e-03
  1.0146450e+00
  9.0103710e-01
 -7.4642789e-01
  1.0209850e-01
  2.1384282e+00
  3.0536199e-01
 -1.1391150e-01
 -2.4235986e-01
  1.8679415e+00
 -4.6309581e+00
  9.1677433e-01
  1.9547942e-01
  2.0059147e+00
  1.7531215e+00
  6.7931509e-01
 -3.1541057e-02
  8.0956656e-01
  1.9725535e+00
  2.8032154e-01
  9.2519397e-01
 -4.1326007e-01
  2.7219200e+00
  3.4039261e+00
  4.4067717e-01
 -5.3047919e-01
  8.6908776e-01
 -2.4393620e+00
  3.3856750e-01
 -7.0715457e-01
  5.3301287e-01
 -2.9424055e+00
  9.9975526e-01
  3.3478070e-02
 -3.1630293e-01
 -3.2545555e+00
  5.7986891e-03
  8.8639671e-01
 -1.8438345e-01
  1.0664185e+00
  4.3276089e-01
  7.6923627e-01
  1.8352419e+00
  2.4645338e+00
  5.9921913e-02
  5.8367908e-01
  3.0240326e+00
  3.9715018e+00
  1.3132308e+00
  4.5992091e-01
  2.3782134e+00
  5.7619619e-01
  6.0685545e-01
  1.5331699e-02
  1.0224005e+00
  6.8638273e-02
  5.1232491e-02
  1.7999300e+00
 -4.8785579e-01
 -1.2994813e+00
  9.5346205e-02
 -1.4510383e-01
 -6.3364595e-01
  3.0477903e+00
  5.1586133e-01
  2.1535647e-01
 -1.0023578e-01
  1.1234170e+00
 -2.1604364e-01
 -2.7592584e-01
  1.1554297e+00
 -6.7915887e-01
  8.5913979e-02
  3.5246587e-01
  6.9396979e-01
  9.3431377e-01
 -2.1548444e-02
 -1.2051336e+00
  1.6246775e+00
  6.7469072e-01
 -1.8396800e+00
 -2.6616375e+00
 -6.8696272e-01
 -2.6065940e-01
  9.4815785e-01
  2.1934307e+00
  8.3564949e-01
  2.0618815e+00
 -1.9489200e+00
 -1.7205330e+00
  1.4350741e+00
  3.4647644e+00
 -1.0592256e+00
  9.9217899e-02
  2.0125327e-01
  1.4316816e-02
  1.5123223e+00
  1.2410687e+00
  2.6650602e-01
 -9.4752973e-01
 -1.1676961e+00
 -2.3661646e-01
  1.2226589e-01
 -3.4293444e+00
  2.1768229e-01
  1.4035563e+00
  2.6875427e-01
 -1.8774213e+00
 -4.3799587e-02
 -8.7787956e-01
  2.2667968e-01
 -1.4813595e+00
  3.3391881e-01
 -6.3677019e-01
 -1.6008377e+00
 -2.4468532e+00
  5.8095986e-01
 -2.0594811e+00
 -1.9611385e-01
  4.7481999e-01
  2.0297710e-04
  1.1285270e+00
  2.3256832e-01
  3.6209645e+00
  1.6376275e-01
  1.5891345e-01
  2.4096896e-01
 -7.3248577e-01
  1.0079020e+00
  2.2694433e+00
 -3.2030418e+00
 -2.6087208e+00
 -6.7147382e-02
  1.0368004e+00
  2.0945699e+00
  1.7854134e+00
  4.9056473e-01
  3.3566456e-02
  1.8151975e+00
  2.6647749e+00
  7.4985564e-01
  2.1584485e+00
  1.2999125e+00
 -2.1664128e+00
  7.6732812e-03
 -4.0009135e-01
 -1.2271590e+00
 -3.0478618e+00
  3.0038208e-01
  3.1853995e+00
  6.8341398e-01
 -4.2020294e-01
  1.6806999e-02
  7.1000522e-01
 -9.6942753e-01
  1.4142203e+00
  5.6638662e-02
 -3.4698036e-02
 -1.0078466e+00
  3.5693273e-01
 -9.6361130e-02
 -6.1434782e-01
 -1.3164401e+00
 -1.5061398e-01
  6.3718778e-01
 -5.0827360e-01
 -4.7969651e-01
 -9.2798674e-01
 -3.1046815e+00
 -1.1960567e+00
 -1.8908957e-01
  1.6221965e-02
 -4.2371705e-01
 -1.0784116e+00
 -5.0879464e+00
 -3.0167842e+00
  5.1919714e-02
 -2.3635893e+00
 -1.5285462e-01
  4.9955949e-01
 -2.2319245e+00
 -3.4501842e-01
  1.4876423e+00
 -7.2161913e-01
 -2.5616312e+00
 -3.8762801e+00
 -1.0997410e+00
 -1.9968396e+00
  6.9686353e-01
  9.0151327e-05
 -1.1591002e-01
 -6.4002998e-02
  8.6661434e-01
  8.7238175e-01
 -7.3183751e-01
 -8.5974950e-01
 -2.5501063e+00
 -2.5922213e+00
  2.2929025e-01
 -1.4457372e-01
 -5.3669369e-01
 -1.8981721e+00
 -4.8583779e-01
 -7.3817295e-01
  2.1669590e+00
  6.3639879e-01
 -1.0702142e+00
 -2.0395719e-01
  3.0163994e+00
  2.1764386e+00
 -8.3627278e-01
  1.2863952e-01
  2.1461899e+00
  1.4127899e+00
  3.8418800e-01
  6.5527755e-01
  8.6754095e-03
 -3.9219979e-02
 -1.5156624e+00
  4.2097455e-01
 -4.5155686e-01
  1.6824564e+00
  2.6058722e+00
  3.0492586e-01
  1.6114144e-01
 -5.9736770e-01
 -6.6069037e-01
 -1.4155121e+00
 -1.1861458e+00
 -2.6035094e+00
  2.1942525e+00
  1.3047796e-01
 -1.7057148e+00
 -1.6956768e+00
 -4.6492797e-01
 -4.3667236e-01
 -7.1185976e-01
  1.8270901e-01
 -1.0210512e+00
 -1.2675083e-01
 -8.2500809e-01
 -4.5410645e-01
  1.3668759e-02
  2.5714786e+00
 -1.4513853e+00
 -8.8077724e-01
  1.4869369e+00
  8.7847430e-01
 -1.1993861e+00
 -9.9337244e-01
  1.2945291e+00
 -8.8244647e-01
 -4.0463480e-01
 -1.2676728e+00
  1.6693774e+00
 -1.6039888e+00
  6.5674353e-01
 -1.5969942e+00
 -6.6415960e-01
  3.0181161e-01
  8.1294549e-01
 -3.6055788e-01
 -1.4839746e+00
 -4.6142158e-01
 -9.5705420e-01
  1.0639835e-02
 -3.3183062e-01
  2.1087229e-01
 -3.5025367e-01
  3.9930806e-01
  3.9742022e+00
  1.0732967e-02
 -6.8844341e-02
 -7.7918552e-02
 -1.0141506e-01
 -1.8343941e+00
 -1.7552596e-02
  1.4379789e-02
 -1.0931499e+00
 -5.5527207e-02
 -3.3218734e-02
 -1.0269790e+00
 -3.2656267e+00
  8.4327203e-01
  9.5044506e-01
 -5.5932134e-01
 -1.8192893e+00
 -2.1848590e+00
  7.3444126e-03
 -1.1109014e+00
  2.6739779e-01
  4.4851802e-02
  5.5452227e-03
  3.8322338e-01
  1.6317328e+00
 -1.0552420e-01
 -1.0132539e-01
  6.6413891e-01
  1.3738739e+00
  3.5183861e+00
 -1.3648245e-02
 -6.5115410e-01
 -1.2924082e+00
 -3.8293564e-01
  9.5540628e-02
  2.3755431e+00
 -3.5543069e-01
  9.4870818e-01
 -1.0758530e-02
 -1.4352975e+00
 -1.8275439e+00
 -1.4753023e+00
 -7.8736246e-01
 -2.4692068e-02
 -2.0536573e+00
 -2.0495622e+00
  2.7787337e-01
 -1.2440792e+00
 -1.8720108e+00
 -1.0285846e+00
  1.1443254e-02
 -2.7517673e-01
  3.6608686e+00
 -2.3402052e+00
 -1.9781548e+00
  3.3081369e+00
  1.9960462e-01
 -2.8615611e+00
  3.3441323e-01
  3.0302708e+00
 -7.8846729e-01
  3.0032918e+00
 -1.2788112e+00
 -9.2909163e-01
  3.2044060e+00
 -9.4961381e-01
  1.4985164e-01
  1.8385049e+00
 -2.2170777e+00
  3.9303686e-02
  2.2373931e+00
  6.9358039e-01
 -3.7435254e-01
  1.3068063e+00
 -4.3697077e-01
 -1.2284107e+00
 -3.9168830e+00
  3.9719152e+00
  9.8793775e-01
 -6.3684332e-01
 -2.4569259e+00
  9.0621573e-01
  2.4341059e+00
  5.5966902e-01
  9.2352325e-01
  1.9950501e+00
  7.6244813e-01
 -1.2806301e+00
  1.1973519e+00
 -8.9271152e-01
  1.3136958e-01
 -2.1155524e+00
 -5.4787892e-01
 -5.6160951e-01
  1.8629231e+00
 -4.7200289e-01
 -2.0510316e-02
  1.9596757e-01
  2.5481992e+00
  4.1892627e-01
 -1.6375998e-01
 -4.3026894e-02
  7.4711746e-01
  5.5353814e-01
 -8.7006465e-03
  2.7173439e-01
  3.2354405e+00
 -9.4579440e-01
 -4.0205669e+00
  1.1476531e-02
 -3.1216711e-01
 -1.7228835e+00
 -9.2157757e-01
  5.3443122e-01
 -2.0910557e-02
  9.8583919e-01
 -5.2379012e-01
 -1.4972903e+00
 -2.8206959e+00
 -3.1166694e+00
  2.8017315e-01
  3.0592829e-01
 -2.4337371e-01
 -9.7067082e-01
 -1.1444085e+00
 -1.0786048e-01
 -1.2453640e+00
 -1.7870412e+00
  1.9114099e+00
  5.9208855e-02
 -1.4507225e+00
  7.9229283e-01
  3.0531805e+00
  4.9038902e-01
 -1.8810214e+00
 -1.9891369e+00
  1.3252156e+00
 -1.3158003e+00
  2.8407844e-02
  1.0592979e+00
  9.5752484e-01
  1.1138053e+00
  1.2379093e-01
  3.2846528e-01
 -4.1567543e-01
  3.4707725e-01
 -5.6881911e-01
  1.7014148e+00
 -1.0230594e+00
 -5.2433234e-01
  3.7632778e-02
  9.6075690e-01
  7.3705024e-01
  3.1965968e-01
 -1.2326888e+00
 -2.8695619e-01
 -8.9061844e-01
 -1.4676673e+00
 -6.7839682e-02
 -5.2622013e-02
  2.0842793e+00
  2.1682210e-02
  3.4466878e-02
 -7.3535601e-05
 -2.1047387e+00
  8.6328620e-01
  4.6151921e-02
  2.0126775e-01
 -4.7995903e-02
  1.6481791e+00
 -2.6563375e+00
 -9.5112413e-01
  2.1422064e+00
  5.9776604e-01
  2.6498088e-01
 -1.6358934e-02
  2.0746979e-01
 -2.7635768e-01
  5.5093959e-02
  3.4607954e-03
  5.3603679e-01
  1.2384174e+00
 -2.2845950e+00
 -4.5335332e-01
  3.7205231e-01
 -1.0063972e+00
  5.7915914e-01
  4.8608801e-01
  4.8668303e+00
  7.1323648e-02
 -6.1102126e-02
  4.6067947e-01
  2.2026112e+00
  2.7181191e-02
  9.0318656e-01
  1.0085902e+00
 -9.7241980e-01
  3.5702765e-01
  7.5189911e-02
 -4.1240627e-01
 -1.0809865e+00
  1.0671115e+00
  1.2358226e-02
 -2.1955435e+00
  8.4127404e-02
  2.4316280e-01
 -1.5583231e+00
  4.9023503e-01
 -4.8063123e-01
 -1.3836813e-01
 -3.5696930e-01
  1.9994636e-01
 -3.4525138e-01
 -5.0212538e-01
  4.0873740e-02
  5.5432320e-01
  2.4179237e+00
  6.7589408e-01
  3.4412988e-02
 -1.9446315e-02
 -1.9824342e+00
 -8.5186899e-01
  4.8559695e-01
  6.3802522e-01
 -3.3247980e-01
 -1.4304918e+00
  7.5241953e-01
 -5.7839408e+00
  3.1631844e+00
  2.4912217e+00
  9.3134969e-01
  5.2578311e+00
 -2.8777671e-01
 -2.0005822e+00
 -6.4885873e-01
  2.9288123e+00
  1.3341697e+00
  1.9786128e+00
  5.4770792e-01
 -7.1160686e-01
  8.3010569e-02
 -6.3517936e-02
  1.9650447e+00
 -2.8878584e+00
 -2.5477890e-02
  1.1069781e+00
  3.0207086e-01
  6.7737263e-01
 -2.6199958e-01
 -5.9711224e-01
 -3.0352168e+00
 -7.5914478e-01
 -5.1744992e-01
 -5.3827256e-01
 -6.8531513e-01
 -1.0757565e+00
  2.5641713e-01
 -1.9611050e-01
  8.2751447e-01
 -1.5390286e+00
  2.5468400e-02
  2.5468400e-02
  2.5468400e-02
  2.5468400e-02
  2.5468400e-02
  2.5468400e-02
  2.5468400e-02
  2.5468400e-02
  2.5468400e-02
  2.5468400e-02
  2.5468400e-02
  2.5468400e-02
  2.5468400e-02
  2.5468400e-02
  2.5468400e-02
  2.5468400e-02
  3.1804528e-02
  3.1804528e-02
  3.1804528e-02
  3.1804528e-02
  3.1804528e-02
  3.1804528e-02
  3.1804528e-02
  3.1804528e-02
  3.1804528e-02
  3.1804528e-02
  3.1804528e-02
  3.1804528e-02
  3.1804528e-02
  3.1804528e-02
  3.1804528e-02
  3.1804528e-02
  3.7282966e-02
  3.7282966e-02
  3.7282966e-02
  3.7282966e-02
  3.7282966e-02
  3.7282966e-02
  3.7282966e-02
  3.7282966e-02
  3.7282966e-02
  3.7282966e-02
  3.7282966e-02
  3.7282966e-02
  3.7282966e-02
  3.7282966e-02
  3.7282966e-02
  3.7282966e-02
  1.2607588e-02
  1.2607588e-02
  1.2607588e-02
  1.2607588e-02
  1.2607588e-02
  1.2607588e-02
  1.2607588e-02
  1.2607588e-02
  1.2607588e-02
  1.2607588e-02
  1.2607588e-02
  1.2607588e-02
  1.2607588e-02
  1.2607588e-02
  1.2607588e-02
  1.2607588e-02
  7.1872012e-03
  7.1872012e-03
  7.1872012e-03
  7.1872012e-03
  7.1872012e-03
  7.1872012e-03
  7.1872012e-03
  7.1872012e-03
  7.1872012e-03
  7.1872012e-03
  7.1872012e-03
  7.1872012e-03
  7.1872012e-03
  7.1872012e-03
  7.1872012e-03
  7.1872012e-03
